<Nnet> 
<Splice> 440 40 
[ -5 -4 -3 -2 -1 0 1 2 3 4 5 ]
<!EndOfComponent> 
<AddShift> 440 440 
<LearnRateCoef> 0  [ -0.05801591 -0.004509011 -0.007187782 0.01005341 -0.0565789 -0.07889569 -0.01408157 0.008728604 -0.03613623 -0.02723853 -0.0009423553 -0.007189363 0.001591736 0.08272656 0.01491663 -0.01342358 0.005632369 0.02040502 -0.002012257 -0.05068758 0.003679974 -0.01781748 -0.005618074 0.01627429 0.001151464 -0.003099284 -0.01097639 -0.003190059 0.002296825 -0.001824666 -0.003480864 -0.003698335 -0.03853076 -0.006752348 0.01604047 0.01807284 0.1112826 -0.005091011 -0.001998623 -0.02242113 -0.05675112 -0.004135317 -0.0074738 0.009963308 -0.05678493 -0.07902617 -0.01428099 0.008571398 -0.03617733 -0.02708359 -0.0009999175 -0.007070082 0.001529495 0.08240425 0.01474738 -0.01342451 0.005409144 0.02081709 -0.001993858 -0.05081091 0.003816644 -0.01799965 -0.005645888 0.01646731 0.001221971 -0.003084739 -0.01090629 -0.003608512 0.002287368 -0.001823935 -0.003491665 -0.00369852 -0.03831377 -0.006692623 0.01604559 0.01821215 0.1108881 -0.004922266 -0.001947279 -0.02235769 -0.05554539 -0.003731864 -0.007742589 0.009902542 -0.05698494 -0.0791941 -0.01446754 0.008425109 -0.03621556 -0.02693691 -0.00104727 -0.006946334 0.001463566 0.08217351 0.01460388 -0.0134016 0.005220335 0.02119291 -0.001987706 -0.05095741 0.004002688 -0.01817139 -0.005673418 0.01667658 0.001269386 -0.003073076 -0.01081893 -0.004027021 0.002298025 -0.001845803 -0.003525595 -0.003684805 -0.03806106 -0.006636059 0.01609433 0.01830695 0.1105204 -0.004730397 -0.001928376 -0.02231701 -0.05436876 -0.00330683 -0.00800301 0.009822604 -0.05718294 -0.07932238 -0.01465115 0.008275323 -0.0363808 -0.02678958 -0.001092882 -0.006818179 0.001375869 0.08192836 0.01445346 -0.01339812 0.00503642 0.02153887 -0.001989818 -0.05114296 0.0042057 -0.0183321 -0.005694998 0.01674137 0.001323065 -0.003047029 -0.01073476 -0.004450384 0.002297926 -0.001944599 -0.003549229 -0.003672155 -0.03778242 -0.006543564 0.01611977 0.01822926 0.1102617 -0.004559531 -0.001914706 -0.02241224 -0.05323322 -0.002849173 -0.008248898 0.009755926 -0.05736814 -0.07938255 -0.01483669 0.008124412 -0.03661411 -0.02663762 -0.001118799 -0.006680965 0.00132974 0.08168257 0.01429021 -0.01341088 0.004912376 0.02185309 -0.001996137 -0.05134201 0.004448407 -0.01850124 -0.00573406 0.01680228 0.001364443 -0.003017507 -0.01062366 -0.004869031 0.00225847 -0.002057479 -0.003590463 -0.003681499 -0.03754763 -0.006464161 0.01617476 0.0182383 0.1100309 -0.004436537 -0.001903447 -0.02238781 -0.05213301 -0.002364574 -0.008482937 0.009679804 -0.05754794 -0.07936724 -0.01500923 0.007987291 -0.03686788 -0.02649439 -0.001132469 -0.00653812 0.001276005 0.08145966 0.01412127 -0.01336893 0.004812299 0.02214414 -0.001997339 -0.05153728 0.00466008 -0.01865003 -0.005774873 0.01685042 0.001391263 -0.002969549 -0.01053783 -0.005289331 0.002250413 -0.002184298 -0.003611382 -0.003691474 -0.03732812 -0.006358351 0.01622296 0.01839022 0.109779 -0.004288435 -0.001901905 -0.02240774 -0.0510328 -0.001879974 -0.008716974 0.009603681 -0.05772775 -0.07935192 -0.01518176 0.007850169 -0.03712165 -0.02635115 -0.001146139 -0.006395274 0.00122227 0.08123676 0.01395234 -0.01332698 0.004712222 0.02243518 -0.001998541 -0.05173255 0.004871753 -0.01879882 -0.005815685 0.01689856 0.001418084 -0.00292159 -0.010452 -0.005709631 0.002242355 -0.002311116 -0.003632301 -0.003701449 -0.0371086 -0.00625254 0.01627116 0.01854214 0.1095271 -0.004140333 -0.001900363 -0.02242767 -0.04993205 -0.001440758 -0.008946584 0.009489473 -0.05790594 -0.0793523 -0.0153546 0.007709912 -0.03736351 -0.02621699 -0.001161423 -0.006259259 0.001179097 0.08105978 0.01375623 -0.01329375 0.004647939 0.02273785 -0.002001057 -0.05188511 0.004931516 -0.01895068 -0.005878097 0.01691668 0.001440719 -0.002839055 -0.01033041 -0.006119544 0.002259861 -0.002456172 -0.003645181 -0.003698807 -0.03682177 -0.006159666 0.01629494 0.01871378 0.1093404 -0.003998613 -0.001882558 -0.02251404 -0.04882842 -0.001049134 -0.009178099 0.009381093 -0.05808163 -0.07932618 -0.01550576 0.007577985 -0.03761566 -0.02609823 -0.001166382 -0.00613468 0.00115169 0.08088423 0.01355332 -0.0132375 0.004651739 0.02306527 -0.001989917 -0.05197795 0.004940993 -0.0190783 -0.005946205 0.0169768 0.001449107 -0.002740466 -0.01019376 -0.006509037 0.002259108 -0.002635656 -0.003656968 -0.003707828 -0.03646822 -0.006037006 0.01634433 0.01890008 0.109196 -0.003831932 -0.001864411 -0.02252297 -0.04772662 -0.0007068894 -0.009415336 0.009236292 -0.0582586 -0.0793175 -0.01566233 0.007441183 -0.03784491 -0.02598764 -0.001139136 -0.006016436 0.001110522 0.08067787 0.01351761 -0.01312628 0.004654537 0.02339199 -0.00197018 -0.05202379 0.004933335 -0.01921192 -0.006009826 0.01698812 0.001502946 -0.002649362 -0.01005906 -0.006884523 0.002234098 -0.002789366 -0.003679123 -0.003721469 -0.03610479 -0.005959396 0.01637106 0.01906965 0.1091208 -0.003654766 -0.001844142 -0.02254864 -0.04662384 -0.0004367312 -0.009662846 0.009103354 -0.05842146 -0.07929557 -0.01578153 0.007307364 -0.03805725 -0.02589988 -0.001112942 -0.005916477 0.001106002 0.08045818 0.01352322 -0.01298112 0.004687622 0.02373973 -0.00194346 -0.05197975 0.004957573 -0.01936557 -0.006054105 0.01703358 0.001540608 -0.002535435 -0.00991118 -0.007240307 0.002219744 -0.002942229 -0.003746206 -0.003734038 -0.03576452 -0.00583326 0.01644851 0.01928691 0.1090272 -0.003465354 -0.001848455 -0.02258593 ]
<!EndOfComponent> 
<Rescale> 440 440 
<LearnRateCoef> 0  [ 0.3634908 0.5534925 0.672941 0.816718 0.6875781 0.5807294 0.8727228 0.8813637 0.6755087 0.8109073 0.948952 0.8769588 0.9148695 0.5602503 0.6653696 0.9148127 0.9267328 0.8496543 0.9439297 0.8773877 0.6751264 1.018149 0.9644461 0.8906063 0.931541 0.9896243 1.016723 0.5371908 1.02402 0.8848051 0.9616313 1.048203 0.7879134 0.9491565 0.8731657 0.7041962 0.6600533 0.8409495 1.036002 0.7761665 0.3637154 0.5534245 0.6728808 0.8167171 0.687543 0.580726 0.8727277 0.8812601 0.6755272 0.8109198 0.9489084 0.8769467 0.9148214 0.5601445 0.6652891 0.914612 0.9266148 0.8496218 0.94388 0.877395 0.6750405 1.01812 0.9643681 0.8900101 0.9309765 0.989589 1.016644 0.5372938 1.023814 0.8845046 0.9613975 1.048171 0.7873608 0.9490068 0.8731666 0.7041847 0.659893 0.8409786 1.03592 0.7761739 0.3639317 0.5533496 0.6728285 0.816713 0.6875119 0.5807159 0.8727374 0.8811674 0.6755534 0.8109359 0.9488705 0.8769417 0.9147705 0.560041 0.6652054 0.9144254 0.9265081 0.8495955 0.9438268 0.8773971 0.674956 1.018096 0.9642901 0.8894169 0.9304056 0.9895777 1.016564 0.5373975 1.023613 0.8841979 0.961182 1.048129 0.7868451 0.9488414 0.8731723 0.7041816 0.6597428 0.8410115 1.035849 0.7761775 0.3641433 0.5532662 0.6727802 0.8167192 0.6874821 0.5807597 0.8727491 0.8810744 0.6756492 0.8109471 0.9488484 0.8769398 0.9147274 0.5599782 0.6651374 0.914234 0.9264118 0.849565 0.9437889 0.8773658 0.6748853 1.018074 0.9642118 0.8889446 0.9300731 0.9895853 1.016548 0.5375034 1.023531 0.8841143 0.9611126 1.048119 0.7864443 0.9489883 0.8733318 0.7042919 0.6595808 0.8411516 1.035808 0.7763191 0.3643481 0.5531692 0.6727353 0.8167347 0.6874493 0.5808525 0.8727501 0.8809794 0.6758072 0.8109432 0.9488292 0.8769344 0.9146864 0.559913 0.6650678 0.9140574 0.9263085 0.8495114 0.943741 0.877274 0.6748201 1.018056 0.9641135 0.888435 0.9298424 0.9895796 1.016529 0.5376089 1.023458 0.8841329 0.9611431 1.048116 0.7860241 0.9492076 0.8734969 0.7045518 0.6594228 0.841463 1.035741 0.7765296 0.364546 0.5530589 0.6726904 0.8167743 0.6874099 0.5809968 0.8727334 0.8808846 0.676 0.810912 0.9488167 0.8769234 0.9146834 0.5598533 0.6650019 0.9138941 0.9262809 0.8494291 0.9437987 0.8771192 0.6747612 1.018031 0.9640382 0.8879216 0.9296839 0.9896039 1.016564 0.5377144 1.023433 0.8842424 0.9612964 1.04812 0.78562 0.9494734 0.8736718 0.7048965 0.6593047 0.8420873 1.035766 0.7767579 0.3647444 0.5529487 0.6726454 0.8168138 0.6873706 0.5811412 0.8727169 0.8807899 0.676193 0.8108807 0.9488043 0.8769123 0.9146803 0.5597937 0.6649358 0.913731 0.9262534 0.8493472 0.9438564 0.8769646 0.6747023 1.018006 0.9639629 0.8874092 0.9295257 0.9896282 1.016599 0.5378199 1.023408 0.884352 0.9614497 1.048124 0.7852165 0.9497395 0.8738468 0.7052417 0.6591867 0.8427131 1.035792 0.7769865 0.3649423 0.5528437 0.6725949 0.8168758 0.6873209 0.581287 0.8726683 0.8806797 0.6763867 0.8108165 0.9488255 0.8768858 0.9147199 0.5598118 0.6648752 0.9135761 0.9263322 0.8492277 0.9439942 0.8767508 0.6746895 1.017962 0.9639524 0.8871275 0.9294363 0.9897093 1.016673 0.5379212 1.023494 0.8845411 0.9616604 1.0481 0.7849973 0.9500881 0.874026 0.7056529 0.6590804 0.8433334 1.035866 0.7772254 0.3651407 0.5527455 0.6725377 0.8169426 0.6872647 0.5814568 0.8725972 0.8805659 0.6765816 0.8107259 0.9488571 0.8768446 0.9147583 0.5598731 0.6648203 0.9134415 0.9264237 0.8490799 0.9441369 0.876506 0.6747273 1.017897 0.9639406 0.8870129 0.9294744 0.9897916 1.016754 0.5380152 1.02358 0.8848984 0.9619245 1.048069 0.7849119 0.9504906 0.8742306 0.7060587 0.6589878 0.8439164 1.035957 0.7775097 0.3653387 0.552657 0.672474 0.8170188 0.6872028 0.5816359 0.8725153 0.8804464 0.676793 0.8106177 0.9489368 0.8767928 0.9148415 0.5599445 0.664849 0.9135363 0.9265731 0.8489061 0.9442936 0.8762553 0.6747693 1.017836 0.9639531 0.8870948 0.9299102 0.9898967 1.016907 0.5381046 1.023787 0.8854214 0.9623283 1.048076 0.7851031 0.9509866 0.8744394 0.7065015 0.6590883 0.8445019 1.036104 0.777796 0.3655376 0.5525877 0.6724073 0.8170969 0.6871407 0.5818083 0.8724245 0.8803279 0.6770115 0.810496 0.949012 0.8767309 0.9149017 0.5600412 0.6648878 0.9136265 0.9267353 0.8487319 0.9444838 0.876056 0.674825 1.017775 0.9639766 0.8871896 0.9302908 0.9900044 1.017067 0.5381882 1.024004 0.8859238 0.9627347 1.048069 0.7852594 0.951476 0.8746535 0.706957 0.6591831 0.8450902 1.036244 0.7780772 ]
<!EndOfComponent> 
</Nnet> 
