<Nnet> 
<AddShift> 1024 1024 
<LearnRateCoef> 0  [ -0.1584341 -0.1287968 -0.07708933 -0.08463824 -0.06758121 -0.1248486 -0.08602531 -0.03975999 -0.1276951 -0.08250385 -0.1564806 -0.06567156 -0.1942535 -0.3529023 -0.1736335 -0.1197524 -0.04638898 -0.1562179 -0.06059826 -0.213594 -0.2612051 -0.1744715 -0.05893969 -0.2239242 -0.107155 -0.3075735 -0.1348478 -0.1054269 -0.03631597 -0.1477251 -0.2231497 -0.231533 -0.0859736 -0.06654233 -0.09901151 -0.0720091 -0.1754811 -0.334515 -0.05891781 -0.09291045 -0.2473899 -0.07342122 -0.06521139 -0.03842822 -0.1505624 -0.1070718 -0.189573 -0.1042718 -0.07979112 -0.1925971 -0.184534 -0.2040471 -0.1090641 -0.06481969 -0.3388615 -0.06357524 -0.0297511 -0.03531665 -0.07094019 -0.07673353 -0.08928496 -0.1942568 -0.1947925 -0.02684798 -0.1020739 -0.1032352 -0.1037849 -0.1167707 -0.05560662 -0.179407 -0.1143976 -0.1594642 -0.06040228 -0.1152138 -0.1452719 -0.3160345 -0.1567446 -0.06698937 -0.1852421 -0.1700403 -0.1481013 -0.05065114 -0.2215976 -0.05687072 -0.1663363 -0.06052307 -0.04880691 -0.08015287 -0.2061595 -0.103779 -0.190215 -0.1116924 -0.2166844 -0.1303653 -0.1460215 -0.1813819 -0.03882435 -0.2260855 -0.1014494 -0.07600322 -0.1878953 -0.1035456 -0.2379905 -0.0443441 -0.189937 -0.08475746 -0.1113842 -0.1951493 -0.06757371 -0.07673965 -0.1503156 -0.1315931 -0.05209557 -0.1871052 -0.1080124 -0.04376996 -0.1989957 -0.06570495 -0.241643 -0.1461854 -0.06176268 -0.1957413 -0.08943579 -0.1490854 -0.1859599 -0.04722045 -0.1738437 -0.05434584 -0.1151111 -0.1724021 -0.1916994 -0.04445953 -0.03358502 -0.1426032 -0.07298492 -0.0444284 -0.08835022 -0.1799871 -0.1066779 -0.08319209 -0.08136509 -0.05003043 -0.1473223 -0.1976838 -0.06258035 -0.1546012 -0.07105481 -0.08894818 -0.1318624 -0.04175793 -0.2033309 -0.1315966 -0.1044086 -0.2583816 -0.1196535 -0.04966271 -0.2071686 -0.2231998 -0.1350917 -0.08166 -0.2741126 -0.1634011 -0.1361292 -0.2188711 -0.05275037 -0.137541 -0.1061511 -0.09605563 -0.2855619 -0.08202341 -0.1909169 -0.1005332 -0.1466784 -0.02502102 -0.3013096 -0.1694451 -0.1258243 -0.1326802 -0.1824067 -0.1204556 -0.06344612 -0.1545783 -0.1113774 -0.1399307 -0.1910422 -0.1087273 -0.1263822 -0.1651029 -0.06994514 -0.03741466 -0.07869325 -0.1310434 -0.1803109 -0.1616116 -0.2275586 -0.07367333 -0.1654216 -0.05537048 -0.3108999 -0.06597815 -0.2838937 -0.201906 -0.1058047 -0.06774046 -0.1825055 -0.09791981 -0.06149884 -0.06776858 -0.09674446 -0.171219 -0.07684369 -0.1803896 -0.1677863 -0.1869005 -0.1081339 -0.1055794 -0.09390072 -0.1655357 -0.2831359 -0.0981912 -0.07449462 -0.09609503 -0.1231913 -0.06801036 -0.09858934 -0.1620127 -0.06978172 -0.1807372 -0.06634505 -0.1619017 -0.1600653 -0.06117532 -0.1129194 -0.1205119 -0.05965996 -0.09915645 -0.1711231 -0.1831417 -0.3499337 -0.1951457 -0.1587574 -0.1009134 -0.1020944 -0.1167518 -0.1091634 -0.1826539 -0.1405333 -0.1131954 -0.03020584 -0.1746381 -0.05033559 -0.08249725 -0.1043309 -0.03984487 -0.03532974 -0.06494258 -0.06534647 -0.1602576 -0.04622346 -0.06532484 -0.04458632 -0.1665543 -0.2070784 -0.06582081 -0.09131315 -0.09575851 -0.06189306 -0.1627315 -0.09608718 -0.1362497 -0.08241034 -0.1049915 -0.2856759 -0.147413 -0.08635995 -0.1130714 -0.06249957 -0.2531222 -0.09935872 -0.1170902 -0.1428061 -0.1357328 -0.1121797 -0.1873221 -0.1553871 -0.2118662 -0.0426223 -0.08004656 -0.1447164 -0.08716162 -0.1373585 -0.1197048 -0.2001439 -0.09502828 -0.07955832 -0.116259 -0.05107097 -0.2019218 -0.1477891 -0.07961159 -0.04933443 -0.1460051 -0.18827 -0.3722908 -0.1137473 -0.2927303 -0.1706028 -0.2013107 -0.05455208 -0.07732698 -0.1119783 -0.4221453 -0.1660296 -0.1166174 -0.1976393 -0.1157406 -0.06636658 -0.0857109 -0.1181768 -0.05444524 -0.2002314 -0.1087435 -0.09201445 -0.3111994 -0.1164237 -0.308002 -0.03810345 -0.06561808 -0.1309688 -0.3234267 -0.1780468 -0.1650826 -0.3368681 -0.0412561 -0.1680462 -0.1073339 -0.1460019 -0.1672411 -0.1108977 -0.09310712 -0.1098626 -0.06396539 -0.1701978 -0.1917601 -0.05180553 -0.09490032 -0.1809052 -0.06064076 -0.1138064 -0.07409336 -0.1960809 -0.0455798 -0.1262202 -0.1285262 -0.2160446 -0.1738643 -0.2820144 -0.1509899 -0.07570449 -0.1889982 -0.1278769 -0.09705229 -0.04392584 -0.2808727 -0.07980889 -0.1827809 -0.04409405 -0.04929039 -0.2121504 -0.1620501 -0.3218434 -0.1789378 -0.06604882 -0.08058406 -0.07286238 -0.1360141 -0.06326531 -0.05561325 -0.112495 -0.09609591 -0.1144603 -0.1106574 -0.1363322 -0.06522556 -0.3100625 -0.04777544 -0.3286991 -0.02045023 -0.06839769 -0.1827798 -0.06715026 -0.1713173 -0.0429746 -0.08828167 -0.06095822 -0.06114528 -0.1026163 -0.05696124 -0.2461389 -0.1673247 -0.09930518 -0.1589217 -0.2826099 -0.1576156 -0.1923982 -0.1296518 -0.1924559 -0.1698215 -0.1980589 -0.04269996 -0.07178274 -0.126769 -0.1592309 -0.1227432 -0.1356506 -0.04719251 -0.1155491 -0.05758916 -0.1805895 -0.1339916 -0.08902992 -0.1064197 -0.1333221 -0.08499995 -0.09964222 -0.09921838 -0.1012611 -0.3676794 -0.08842404 -0.1633598 -0.1619442 -0.06615401 -0.1350821 -0.08945906 -0.05146626 -0.1956883 -0.1863869 -0.0984029 -0.2042854 -0.100843 -0.1819919 -0.1927597 -0.1570115 -0.06471876 -0.06997002 -0.1812144 -0.07887258 -0.3297372 -0.1178252 -0.069125 -0.06102251 -0.2004013 -0.1080601 -0.09845638 -0.0196069 -0.1529494 -0.08801685 -0.04829292 -0.07233103 -0.108911 -0.03282744 -0.06449983 -0.2472679 -0.1596245 -0.1491666 -0.05525886 -0.127364 -0.10293 -0.09207824 -0.1888188 -0.1325004 -0.1448511 -0.1424266 -0.1330918 -0.112363 -0.1642362 -0.09330808 -0.1868416 -0.05285699 -0.1095318 -0.1400569 -0.1213634 -0.2101972 -0.1486142 -0.04520303 -0.2045113 -0.1900452 -0.06543603 -0.1337613 -0.04823176 -0.1685478 -0.1751723 -0.05601263 -0.04117116 -0.2024815 -0.05476967 -0.1582026 -0.2182886 -0.1056806 -0.0805074 -0.07054845 -0.06584968 -0.3076266 -0.07922541 -0.177837 -0.1372207 -0.09090383 -0.1183449 -0.07446676 -0.1314433 -0.182049 -0.1148386 -0.1056471 -0.2112221 -0.1173089 -0.1536273 -0.1851676 -0.1288762 -0.1748731 -0.1515508 -0.09213946 -0.09301548 -0.1437559 -0.04249182 -0.1245379 -0.05419651 -0.2483834 -0.3069934 -0.03689137 -0.116577 -0.1679069 -0.08478498 -0.1881921 -0.1400074 -0.1489939 -0.06480511 -0.04303934 -0.05377271 -0.1556924 -0.1873319 -0.08536194 -0.08074911 -0.04907162 -0.1070729 -0.1799845 -0.09975478 -0.162197 -0.2353797 -0.06679885 -0.1117203 -0.06721459 -0.04460803 -0.1606585 -0.1517854 -0.08094152 -0.2580948 -0.1273621 -0.1337624 -0.07899336 -0.1598455 -0.1080943 -0.05795061 -0.1858752 -0.2616206 -0.1682874 -0.1333769 -0.1278443 -0.0525154 -0.1760753 -0.1124335 -0.1340989 -0.06150772 -0.07841208 -0.04480151 -0.06481931 -0.1932913 -0.1158378 -0.2413068 -0.1504962 -0.1147047 -0.1348363 -0.0931135 -0.103963 -0.05798607 -0.1914237 -0.1591031 -0.3637206 -0.04677254 -0.03692305 -0.09555861 -0.1358957 -0.1717157 -0.1360136 -0.01921357 -0.06353597 -0.2115402 -0.06853658 -0.06154296 -0.1245351 -0.1583168 -0.06131772 -0.07797015 -0.05743611 -0.05774152 -0.1694732 -0.03856637 -0.09079877 -0.08046474 -0.06383979 -0.06055344 -0.07227137 -0.1644178 -0.09524062 -0.1081763 -0.1268202 -0.2274596 -0.05200087 -0.1026647 -0.03094189 -0.06058273 -0.3199623 -0.035601 -0.1451682 -0.09509087 -0.1505057 -0.05050336 -0.1671472 -0.1604063 -0.1432146 -0.06170548 -0.3134297 -0.1018472 -0.07462522 -0.1024903 -0.1328745 -0.05277811 -0.1871907 -0.07892019 -0.1902241 -0.1394652 -0.1278623 -0.05519248 -0.07132542 -0.06650165 -0.08320007 -0.05949859 -0.06037275 -0.1379341 -0.05177129 -0.1881453 -0.1793455 -0.07588158 -0.1569935 -0.1420154 -0.1092978 -0.2580684 -0.1015248 -0.05131843 -0.1826105 -0.1193039 -0.1675499 -0.1559992 -0.0762938 -0.1276872 -0.05999886 -0.02645374 -0.1165829 -0.1891051 -0.0637721 -0.05464499 -0.3501263 -0.1417331 -0.07618117 -0.1501772 -0.1747556 -0.1378214 -0.09870144 -0.05936133 -0.4436601 -0.1918749 -0.1750061 -0.06578523 -0.1063675 -0.1168837 -0.09755769 -0.1031375 -0.1096473 -0.09569171 -0.1529318 -0.08137312 -0.09111045 -0.03613328 -0.09863024 -0.2042196 -0.2058225 -0.1207875 -0.07571021 -0.04893851 -0.1500072 -0.1980018 -0.3585539 -0.06026972 -0.1692359 -0.1032871 -0.05347457 -0.07232592 -0.1725881 -0.0780581 -0.09811909 -0.05439382 -0.1828445 -0.06131431 -0.1576426 -0.1147632 -0.1933161 -0.07090878 -0.1163459 -0.1041526 -0.1212902 -0.08243803 -0.1628876 -0.1900284 -0.1829719 -0.103308 -0.04729613 -0.1144271 -0.02595585 -0.111083 -0.1579848 -0.1196975 -0.1567427 -0.04440976 -0.4910901 -0.1623214 -0.1177495 -0.2059391 -0.0463207 -0.05173511 -0.08081184 -0.09965811 -0.1495459 -0.1969634 -0.2086006 -0.4468288 -0.01981585 -0.05656364 -0.0759774 -0.03400051 -0.04850231 -0.1929587 -0.1687356 -0.1228797 -0.09836341 -0.06663055 -0.1851795 -0.05023812 -0.05465188 -0.104562 -0.1891179 -0.1185054 -0.1580792 -0.1383891 -0.08008828 -0.04512938 -0.1733856 -0.07439743 -0.1209904 -0.06743357 -0.09449477 -0.1140815 -0.1923931 -0.05721251 -0.1870468 -0.09357505 -0.118335 -0.08830085 -0.06124976 -0.0988877 -0.1893008 -0.1498983 -0.1537805 -0.148454 -0.2249693 -0.1692771 -0.1414525 -0.07110804 -0.0777414 -0.1486479 -0.03797123 -0.05953171 -0.219938 -0.09318301 -0.08704013 -0.1365382 -0.09859136 -0.1817299 -0.07078231 -0.1483507 -0.1100311 -0.05221589 -0.05117523 -0.1214646 -0.2358148 -0.06023989 -0.1019929 -0.1235752 -0.03599616 -0.06286979 -0.1583965 -0.09795693 -0.08605662 -0.1542008 -0.3610488 -0.1418593 -0.1003106 -0.1384804 -0.05081613 -0.186509 -0.1277842 -0.1057886 -0.07603116 -0.1237133 -0.05697663 -0.04981627 -0.1856623 -0.03586197 -0.1960377 -0.08942119 -0.1126917 -0.1370607 -0.3376458 -0.05109761 -0.2428988 -0.06215858 -0.08390195 -0.1023128 -0.09641932 -0.19138 -0.2011918 -0.1961235 -0.1956586 -0.1933575 -0.06575485 -0.1627209 -0.1079049 -0.1563137 -0.1029326 -0.03715693 -0.2185689 -0.3815438 -0.1068506 -0.1859574 -0.1427267 -0.1952116 -0.08187848 -0.1596148 -0.1335053 -0.1859911 -0.09190313 -0.114191 -0.0647304 -0.07674039 -0.1477834 -0.2254669 -0.2475525 -0.09086536 -0.1485938 -0.1272738 -0.09768038 -0.1122291 -0.1660345 -0.1438367 -0.05499845 -0.08053027 -0.05772332 -0.1084672 -0.1119857 -0.09361745 -0.1886315 -0.1853048 -0.1125559 -0.1045512 -0.100836 -0.05394245 -0.05331602 -0.09327994 -0.05997175 -0.0655318 -0.05200646 -0.05956149 -0.06082088 -0.09063184 -0.03445954 -0.06796035 -0.0933621 -0.1818135 -0.2041474 -0.04753262 -0.04736552 -0.1837894 -0.1133312 -0.2101687 -0.2027769 -0.0320809 -0.1782299 -0.06908991 -0.03172741 -0.05136989 -0.1012845 -0.08773276 -0.06829617 -0.09475902 -0.1960807 -0.1635492 -0.07183421 -0.05406269 -0.1555169 -0.1936703 -0.1030846 -0.1192773 -0.158218 -0.05675993 -0.1679088 -0.05789445 -0.119802 -0.1388889 -0.1237764 -0.1146937 -0.1921323 -0.08508898 -0.09432191 -0.3534839 -0.2109666 -0.1078297 -0.06669638 -0.1411887 -0.1259809 -0.4285702 -0.05483941 -0.07184168 -0.1191095 -0.2166597 -0.0676283 -0.199729 -0.06967369 -0.04142139 -0.1809095 -0.02868716 -0.05718319 -0.1336005 -0.09095474 -0.2469023 -0.184824 -0.06760541 -0.1896345 -0.2798107 -0.1804119 -0.1464126 -0.07291429 -0.199257 -0.1579382 -0.1465312 -0.08582477 -0.2063478 -0.09203765 -0.1131662 -0.09835585 -0.1255308 -0.04439471 -0.04688998 -0.1634533 -0.1613875 -0.1719887 -0.043107 -0.1093115 -0.06053904 -0.159523 -0.07104333 -0.05936836 -0.1954087 -0.1698743 -0.1147951 -0.1579282 -0.0650391 -0.06895728 -0.036356 -0.2954438 -0.1148293 -0.1670943 -0.2320208 -0.3629501 -0.0500434 -0.1021338 -0.3437201 -0.1924133 -0.1593668 -0.1107179 -0.06139689 -0.3930136 -0.1184582 -0.03745295 -0.0975601 -0.1055624 -0.1342864 -0.1195559 -0.2056493 -0.2035467 -0.1227848 -0.1946239 -0.1027332 -0.1819145 -0.1680069 -0.1118614 -0.1701073 -0.1727939 -0.148056 -0.1629627 -0.07735162 -0.06820971 -0.06198551 -0.09367581 -0.08252873 -0.06797919 -0.1170338 ]
<!EndOfComponent> 
<Rescale> 1024 1024 
<LearnRateCoef> 0  [ 5.123656 5.398671 6.537898 6.361116 6.7003 4.991241 6.415511 7.690608 5.511309 6.271313 4.564883 8.138145 4.177006 3.012861 3.846071 5.1563 7.231534 4.646635 7.395878 3.407395 3.423637 4.205235 7.133795 3.612064 5.304111 2.976482 6.533647 6.371111 7.696529 4.558454 3.699219 3.606415 6.383574 6.903107 5.536355 6.887469 4.43446 3.222541 8.217204 6.343929 3.054253 7.387354 6.327342 6.417341 4.674945 4.863449 4.164405 4.991396 5.773245 4.075931 4.134059 4.010808 5.251698 6.688945 3.294208 6.325823 9.56314 7.014767 6.194737 5.723549 5.845536 4.125238 4.008075 8.927708 5.307572 4.860259 5.230077 5.22407 6.764319 4.731803 5.078948 4.010451 6.686138 4.966646 4.701292 2.898661 4.592467 6.766021 4.164157 4.800783 4.757698 7.69803 3.710642 6.660804 4.444126 5.601806 7.504862 6.702186 3.736149 5.449398 4.135972 4.974873 3.79053 5.381941 4.712141 4.155684 8.136089 3.179282 5.370121 5.943611 4.21484 4.475483 3.309012 6.17925 4.146001 6.371078 4.9494 3.941051 8.175766 6.542895 4.468569 4.22501 8.114789 4.346737 4.760883 7.308655 4.045261 7.241971 3.340981 4.588789 8.211716 3.497824 5.77811 4.393234 4.218934 6.010025 4.289701 6.006126 5.58397 4.589755 4.159172 7.506331 8.229527 4.655431 5.932447 7.017884 5.378763 4.156672 5.314651 5.119354 5.881091 6.411816 3.828666 4.02513 7.418067 3.748501 6.436792 5.870509 4.903156 7.415052 4.095112 4.676276 5.903581 3.265337 5.328308 6.372777 3.981095 3.17333 4.689075 6.152672 3.084857 4.473268 4.712021 3.533083 7.209135 4.606119 5.043823 6.026409 2.987187 6.343256 4.271077 5.513882 3.938559 8.414097 2.901709 3.705015 3.808004 4.255638 4.310761 4.766339 6.997847 4.501732 6.37362 4.122616 4.120192 4.983113 5.247577 4.502911 6.532891 9.307991 6.826154 4.679943 4.259494 4.548489 4.346127 5.947359 4.610244 6.999588 2.990968 7.010813 3.372276 3.783479 4.637587 6.960054 4.207821 5.345837 7.637961 7.156732 5.47209 4.33296 5.389987 4.212394 4.497233 4.225723 4.072022 5.382222 5.334685 4.55229 2.68364 5.115983 5.706655 5.071449 4.985885 7.594328 5.147128 3.773031 5.713191 4.292982 6.887421 4.677358 4.602673 6.674999 4.885672 5.695047 7.185602 5.863993 5.652015 4.254976 3.086252 3.963218 3.81656 5.719699 5.191951 5.503384 5.748925 4.21168 4.335501 5.20986 7.453908 4.208661 6.95966 5.201264 4.976429 7.916069 8.103291 6.667994 6.904829 4.711418 8.853856 6.754711 9.113265 4.474774 3.940578 7.867658 6.156182 5.440093 7.791849 4.637535 5.208232 4.849913 4.622 5.217211 2.981395 4.603386 5.261732 5.100109 5.761687 2.94537 4.897764 5.472788 5.333857 4.024931 5.768186 4.153365 4.376767 3.402041 9.187098 6.414198 4.432112 5.738049 4.960756 4.864449 3.527282 5.237393 5.234165 5.28814 7.747702 3.802072 4.700618 5.48783 6.493837 4.615104 4.045168 3.135086 6.009085 3.082151 4.608224 4.049504 7.63618 5.821953 5.827505 2.650116 4.606196 5.10372 4.088443 4.87839 6.620172 5.924582 5.044645 8.71681 4.057668 4.015059 4.745788 3.194123 5.509362 2.581361 8.539642 6.598752 4.70138 2.849946 3.694806 4.42329 2.85248 7.58594 4.569369 5.019476 4.588687 4.284011 5.425393 5.216576 5.833759 7.099725 4.342621 4.121231 6.9497 6.844616 4.261509 6.741226 5.571878 5.72085 4.181812 7.977647 4.957744 4.24752 3.353492 4.333247 3.043332 4.505641 6.594362 4.203846 4.32639 6.414284 6.576307 3.152735 6.695625 4.22079 6.97701 7.216643 3.268072 4.291472 2.941029 4.25704 6.76202 5.975136 6.142794 4.746032 7.345902 7.103055 4.934844 5.813592 5.381922 5.099589 5.229714 6.98641 2.909831 7.210601 2.564371 9.835674 5.829762 3.977593 6.86184 4.27414 9.399365 5.600482 5.935133 6.570104 5.082955 6.319271 3.442181 4.305362 5.609975 4.408233 2.928543 4.238684 3.632906 4.67533 4.003978 4.219705 4.114158 8.049499 5.509271 4.682048 4.562572 5.074054 5.057732 8.069041 4.388273 6.176463 4.166586 4.743616 5.923012 5.688865 3.929257 5.74347 5.945901 5.726223 5.311344 2.698424 5.29571 4.567993 4.280834 6.721151 4.690962 5.260709 8.327031 4.090969 4.265336 5.773548 3.942886 5.986913 3.910623 3.645271 4.484927 6.54113 6.615268 4.202001 6.290116 2.466329 5.120489 5.854839 8.296759 3.993675 5.610198 5.50354 9.61712 4.144742 5.597881 6.349423 6.369057 4.962747 7.391915 7.137342 3.102813 4.650126 4.536645 7.857646 4.866276 5.022663 5.191159 4.127969 4.770986 3.604673 4.713537 5.157403 4.406969 4.679194 5.411025 4.262859 7.282932 4.689728 4.695857 4.894114 4.082152 4.2038 9.031858 3.971761 4.290176 6.912883 4.722524 7.353523 4.347268 4.291994 5.991307 8.582232 3.903397 7.447931 4.644752 3.417093 5.583236 5.185037 7.113892 7.354565 3.110308 6.669024 3.946795 4.37505 6.81107 5.00096 6.191947 5.309899 3.815018 4.807122 5.413044 3.848935 5.178393 4.7758 4.244127 4.745714 4.433667 4.830267 5.341906 5.33847 4.32199 6.815752 4.888166 7.91854 3.260653 3.309164 8.718594 5.439354 4.466465 5.015388 4.120831 4.664149 5.012373 7.331961 7.290566 7.520131 4.550733 4.080037 5.67493 5.533403 7.528107 4.903733 4.287688 5.298335 4.628428 3.690678 5.799161 5.847059 6.932487 7.470256 4.478986 4.630715 5.680263 3.078513 4.961302 5.135345 6.132849 4.712954 5.020574 7.673147 4.213186 3.350691 4.488488 5.338594 4.9037 9.314424 4.260334 5.007264 5.667615 8.196312 5.680563 8.927683 6.858851 4.108706 5.082253 3.344277 4.442666 4.778008 4.685442 6.117365 5.757706 7.304549 4.212013 4.862417 3.064766 7.700072 7.503857 5.25239 4.711271 4.110946 4.634258 9.69114 7.576307 3.555995 6.781361 7.191269 5.209874 4.583352 7.054228 6.121204 5.707179 7.780908 4.291536 6.598462 5.023783 6.128546 7.136508 6.898326 5.246926 4.387321 5.806164 5.258624 5.112267 3.317072 7.935628 5.98074 8.158485 7.014541 3.101593 7.741716 4.156798 6.352127 4.815518 7.706521 4.65064 4.886772 4.456802 7.029179 3.0871 5.342481 5.575953 5.444864 5.263851 7.301207 4.253753 5.547953 4.132043 4.681349 5.096679 6.48595 6.761561 7.205261 5.321873 7.209422 7.412436 4.873239 8.45373 4.017454 4.27702 6.659556 4.550627 4.034849 4.920416 3.321408 5.131485 5.98035 4.048184 4.016306 4.562264 5.417864 5.17799 4.921714 5.592361 8.094233 4.610557 4.053458 6.769477 6.548949 2.721674 4.684457 6.075303 3.96152 4.456196 4.868141 5.621953 8.902781 2.706147 4.119055 4.303921 7.090294 4.397851 5.345751 5.30842 5.435193 5.066584 5.132784 4.523402 5.521782 5.220398 7.401808 4.526646 3.948736 4.01548 5.023653 5.562356 7.433672 4.571844 3.941247 2.668564 7.064967 4.365282 4.994027 7.509011 6.9814 4.49415 5.194171 5.120883 5.750846 4.003663 7.809628 4.284787 3.875288 4.196552 6.32446 5.584365 5.666961 5.10646 5.175563 4.367119 3.972666 4.14985 5.463544 6.335736 4.421203 7.927191 4.729272 4.611798 4.781041 4.100724 6.612806 2.452327 4.258457 5.263271 4.049349 9.55267 7.642415 5.024814 5.539653 4.146335 4.011832 3.881159 2.780736 9.888006 7.75797 5.688688 7.632873 7.437649 4.05527 4.050331 4.829841 5.609856 6.808534 4.264803 6.666028 7.232077 5.05657 4.189149 5.5233 4.660364 4.779211 6.393149 6.432767 4.200965 5.957725 5.223213 7.27422 4.974731 5.762942 4.20656 7.174501 4.217493 5.737583 4.67571 6.128227 7.455889 5.085904 4.007966 4.829877 4.716292 4.715806 4.18279 5.005222 4.792413 6.944455 5.065527 4.695198 7.090566 7.628597 3.641035 5.374585 6.365223 4.32599 5.495041 4.191912 6.921288 4.634922 6.115835 7.177415 7.28868 4.716978 3.537791 5.523741 5.056342 4.720847 7.595506 7.561042 4.634117 5.016695 6.02285 5.427955 2.763709 4.35296 5.356143 4.865756 5.909587 3.891688 4.976321 5.191574 5.488229 4.861456 7.208186 6.545238 4.384928 7.6411 4.017807 4.740667 5.295039 4.761449 2.826595 7.605757 3.160512 8.499873 6.715019 4.985067 5.525321 4.098192 3.314597 4.016473 4.299037 4.157695 7.578678 4.663737 4.756692 4.051936 5.181458 8.043176 3.386901 3.257066 4.939738 4.171156 4.881811 4.161869 6.006487 4.53755 4.898417 4.270327 5.361633 5.477958 5.89834 6.762105 3.949106 3.216292 3.396739 5.156067 5.419786 5.072995 5.585969 5.28026 4.726121 4.723619 7.378097 6.670754 6.382609 5.952948 5.669175 5.342586 4.291486 4.371109 5.032387 5.05959 5.577311 8.311028 7.157037 5.79423 6.952308 5.815792 6.934597 5.959328 7.747367 5.441178 7.35192 6.11396 5.942601 4.16316 3.943129 7.561213 6.963363 4.341232 5.141096 3.828276 4.118981 7.844991 3.520776 7.019992 10.84692 8.178688 5.460691 6.367404 8.293873 4.546478 4.120397 4.542163 5.347069 6.21481 4.453217 4.365561 5.043065 5.365051 4.510075 6.346578 4.173981 6.874555 5.70326 4.938628 4.827045 5.501238 4.101798 6.794129 5.547608 2.847689 4.617436 5.439321 5.071754 4.691275 5.882237 3.081255 6.93705 8.051179 4.9962 3.430952 5.979957 4.058767 6.53095 6.900023 4.207028 7.701589 8.197801 4.088049 5.331881 3.218637 4.215577 6.51231 4.28378 2.914199 4.106637 4.826791 6.82071 3.950852 4.462279 4.640095 5.546877 3.895854 5.369096 4.987902 5.363263 4.944936 8.52717 6.029749 4.437155 4.385578 5.275315 6.955171 4.895481 5.782557 4.375901 6.574509 7.137309 3.572563 4.40332 4.603214 4.456383 6.662349 6.898232 8.006134 2.596588 4.982552 4.787475 3.790342 2.575404 8.300011 5.763591 2.866317 4.211637 4.529998 4.938506 7.291875 2.927031 4.770024 7.360987 5.31064 5.519826 4.538908 5.415338 3.965283 3.949641 4.630214 3.48967 5.229862 4.268954 4.257371 4.980168 4.254581 4.401287 4.500665 4.634907 5.136518 7.038119 7.921145 5.158326 6.493545 5.145537 5.686322 ]
<!EndOfComponent> 
</Nnet> 
