<Nnet> 
<AddShift> 1024 1024 
<LearnRateCoef> 0  [ -0.1685078 -0.1743565 -0.2243212 -0.05523116 -0.1747161 -0.1568334 -0.1272525 -0.1286539 -0.1040267 -0.129041 -0.1079748 -0.1125851 -0.1629747 -0.1139551 -0.164636 -0.07167733 -0.1559216 -0.1296401 -0.2708189 -0.1338191 -0.1607392 -0.1940542 -0.1160264 -0.1068017 -0.1267603 -0.1425313 -0.1574218 -0.1449062 -0.1855549 -0.2657762 -0.1242791 -0.1340554 -0.1170032 -0.1629583 -0.1299943 -0.1515738 -0.06424374 -0.1568804 -0.0697101 -0.1862494 -0.1566983 -0.1174116 -0.1340965 -0.1988517 -0.1176407 -0.1693285 -0.1592363 -0.1220844 -0.1885953 -0.1028419 -0.1429807 -0.126972 -0.1525646 -0.1799583 -0.125271 -0.1624247 -0.08482464 -0.1379458 -0.08624197 -0.1164185 -0.1548305 -0.1235777 -0.3196075 -0.1684047 -0.1187957 -0.1547709 -0.1475994 -0.1372185 -0.1580101 -0.1922272 -0.1059952 -0.1488955 -0.05245245 -0.1227915 -0.1159908 -0.1548149 -0.1740158 -0.1665718 -0.1424047 -0.08827962 -0.1204909 -0.142442 -0.1730775 -0.1374117 -0.1616788 -0.09967323 -0.1550355 -0.1497611 -0.1311626 -0.1882608 -0.1176769 -0.09777164 -0.1326777 -0.1828694 -0.2353827 -0.09196669 -0.1047421 -0.1036921 -0.08779885 -0.1290184 -0.1089598 -0.2026312 -0.1640713 -0.1303547 -0.1431906 -0.06148341 -0.1318585 -0.1099704 -0.2446056 -0.143692 -0.168137 -0.181025 -0.1026637 -0.1268702 -0.1698928 -0.1024372 -0.1197566 -0.1297156 -0.06279031 -0.1787694 -0.1402838 -0.1243802 -0.1167502 -0.1993467 -0.3699279 -0.09945939 -0.1805668 -0.08973234 -0.1741084 -0.2015862 -0.1808538 -0.1815789 -0.09115903 -0.1748901 -0.1056786 -0.1536534 -0.1360991 -0.1614767 -0.03197394 -0.1723989 -0.09326196 -0.1808331 -0.09865529 -0.1605941 -0.1220501 -0.1044591 -0.1433024 -0.164859 -0.2092095 -0.1666877 -0.1662952 -0.1487375 -0.1597142 -0.1330215 -0.1399227 -0.1791446 -0.09095575 -0.1746929 -0.1768385 -0.1213323 -0.1086409 -0.1634863 -0.1251372 -0.08924198 -0.1567363 -0.1099474 -0.1769611 -0.1666648 -0.2211156 -0.1467845 -0.1684817 -0.1531847 -0.09820464 -0.1009034 -0.1554441 -0.1517431 -0.1091673 -0.1570482 -0.1910822 -0.1181401 -0.1139508 -0.1585497 -0.08142858 -0.1540578 -0.1162794 -0.1195811 -0.1710568 -0.1228873 -0.1655835 -0.1408825 -0.09059994 -0.1274292 -0.1364974 -0.1244276 -0.08539787 -0.1391596 -0.09248072 -0.1571916 -0.1367042 -0.1932302 -0.148791 -0.04997928 -0.110298 -0.1514042 -0.1481318 -0.1186367 -0.1216196 -0.1228709 -0.1163509 -0.2864375 -0.1799006 -0.1098017 -0.1639554 -0.1466143 -0.2114943 -0.1806771 -0.1865149 -0.152988 -0.210618 -0.2068185 -0.1815807 -0.1527541 -0.1795171 -0.1880548 -0.1258171 -0.1371418 -0.1390528 -0.1803465 -0.2005461 -0.1311093 -0.138189 -0.1191837 -0.1501961 -0.1639532 -0.1698141 -0.1435153 -0.1703138 -0.111135 -0.1308696 -0.07651 -0.05736456 -0.1321463 -0.1688974 -0.05984635 -0.08814626 -0.1445957 -0.2098251 -0.1160098 -0.35217 -0.139576 -0.1345613 -0.129823 -0.2071182 -0.103852 -0.08267 -0.1308543 -0.1272258 -0.1432479 -0.1124627 -0.1606788 -0.1644334 -0.1292269 -0.1872546 -0.1806077 -0.03492825 -0.09119968 -0.08251019 -0.1864281 -0.1412358 -0.27643 -0.08074206 -0.1610958 -0.08535805 -0.1755124 -0.2208011 -0.1453097 -0.1766028 -0.207407 -0.1416653 -0.07943348 -0.07976409 -0.07988565 -0.1787873 -0.1457589 -0.1218635 -0.1547123 -0.1370109 -0.1367425 -0.1593164 -0.1063525 -0.1163025 -0.2063244 -0.1914184 -0.1570571 -0.194797 -0.2390833 -0.1930812 -0.0789455 -0.1583525 -0.08676767 -0.1874208 -0.1106467 -0.08111356 -0.1249506 -0.1285079 -0.07594961 -0.134448 -0.1540882 -0.2159345 -0.1144054 -0.2557521 -0.08724926 -0.1504199 -0.1671874 -0.1516295 -0.07130393 -0.1868256 -0.1639384 -0.1533418 -0.3401082 -0.1311458 -0.1279533 -0.1191746 -0.1484896 -0.03651 -0.1327966 -0.07645538 -0.1563861 -0.188003 -0.114955 -0.1747892 -0.09233951 -0.1307524 -0.1479616 -0.1379445 -0.1562152 -0.1151574 -0.08938001 -0.1958283 -0.08871695 -0.1043746 -0.1300306 -0.156962 -0.1292466 -0.1468049 -0.1405455 -0.4051088 -0.1708708 -0.08471275 -0.07453159 -0.1781633 -0.1858518 -0.08443658 -0.187983 -0.1341729 -0.1586648 -0.1229894 -0.1241569 -0.168121 -0.142793 -0.1452232 -0.1841569 -0.2234233 -0.05506497 -0.1318959 -0.05712866 -0.1361061 -0.1695915 -0.1636239 -0.2504891 -0.1376829 -0.09986358 -0.157656 -0.1666239 -0.09689619 -0.1651797 -0.03825833 -0.1272871 -0.1178656 -0.2363393 -0.2805591 -0.1536746 -0.1025931 -0.1535565 -0.1683472 -0.1535288 -0.09755567 -0.1374485 -0.06792197 -0.1145216 -0.1669275 -0.1063028 -0.1593813 -0.1985937 -0.1051225 -0.1445909 -0.1367186 -0.1686433 -0.1043609 -0.1203492 -0.111686 -0.2598557 -0.1284773 -0.1118609 -0.121909 -0.1153584 -0.1831192 -0.1574353 -0.1116785 -0.1171396 -0.1307279 -0.1198613 -0.1709031 -0.1030404 -0.1531865 -0.1169537 -0.1557839 -0.186775 -0.1416128 -0.09124494 -0.1211915 -0.1530479 -0.1254304 -0.1184111 -0.1267046 -0.06278983 -0.3737116 -0.1248989 -0.1447757 -0.1244172 -0.05420591 -0.1485493 -0.09596822 -0.3041549 -0.0750035 -0.1546428 -0.2039817 -0.1457599 -0.101572 -0.1626709 -0.131574 -0.1382976 -0.09312885 -0.1741642 -0.1220096 -0.1559602 -0.1483778 -0.196292 -0.08073331 -0.1173545 -0.1644441 -0.1664806 -0.0644758 -0.1392165 -0.1219017 -0.09278352 -0.113847 -0.1323062 -0.1571561 -0.1590241 -0.1856472 -0.08272319 -0.1554616 -0.1320064 -0.1963098 -0.1972174 -0.196226 -0.1410028 -0.1923164 -0.1822948 -0.1680043 -0.1316865 -0.1418249 -0.1554855 -0.1194833 -0.08199883 -0.1386449 -0.101542 -0.1137436 -0.1721417 -0.1275899 -0.1092752 -0.164137 -0.178533 -0.2098188 -0.05180992 -0.09467862 -0.1330988 -0.1532599 -0.1332998 -0.07997262 -0.1176456 -0.1232052 -0.1357921 -0.2017075 -0.1632425 -0.1748274 -0.1220074 -0.1229168 -0.08833297 -0.169545 -0.1538229 -0.123312 -0.06662267 -0.09283549 -0.1079651 -0.07665693 -0.1819441 -0.1299345 -0.111049 -0.1799664 -0.1520604 -0.175086 -0.1282174 -0.1600016 -0.1141132 -0.1363339 -0.1615512 -0.09543555 -0.02635106 -0.1192487 -0.151001 -0.1638535 -0.1472959 -0.1105295 -0.1010539 -0.1283767 -0.1876312 -0.1562648 -0.164513 -0.08559263 -0.1390138 -0.1678972 -0.1127404 -0.1719568 -0.1397931 -0.03396101 -0.0939726 -0.1468251 -0.1869632 -0.09096923 -0.1387086 -0.1010368 -0.06822272 -0.09355673 -0.08208909 -0.1507185 -0.04740347 -0.1501201 -0.1263831 -0.1263221 -0.1060895 -0.1532201 -0.1793925 -0.200969 -0.1086279 -0.1023475 -0.2240099 -0.1665732 -0.1569593 -0.127519 -0.1191975 -0.1027597 -0.1856662 -0.1120803 -0.1698412 -0.1563005 -0.1479289 -0.121541 -0.1160998 -0.08603153 -0.07853385 -0.1060662 -0.1845437 -0.08771397 -0.1142047 -0.1363975 -0.09950276 -0.1789415 -0.166268 -0.1262155 -0.1203307 -0.04493623 -0.1189999 -0.1451309 -0.1726313 -0.2041918 -0.111434 -0.1408309 -0.1602575 -0.1635665 -0.1864843 -0.1790198 -0.1165427 -0.1792317 -0.1482665 -0.1468085 -0.07898757 -0.123564 -0.09385954 -0.1048425 -0.1352286 -0.1594711 -0.1308777 -0.103667 -0.222039 -0.2110981 -0.1603111 -0.1336341 -0.1531043 -0.1608171 -0.1411552 -0.1532212 -0.1150087 -0.1183384 -0.1051091 -0.07076269 -0.1422775 -0.2280665 -0.128797 -0.1122531 -0.1891895 -0.1610793 -0.1589232 -0.09507307 -0.1464566 -0.1444775 -0.170709 -0.1684585 -0.130901 -0.1425115 -0.1659787 -0.1386337 -0.1035053 -0.1589716 -0.09348964 -0.1356332 -0.13177 -0.1453295 -0.09680234 -0.1304766 -0.1557822 -0.1806484 -0.2026631 -0.08583481 -0.1511062 -0.1535902 -0.1086309 -0.1386022 -0.1282558 -0.1347406 -0.1446558 -0.1180644 -0.1044447 -0.09082282 -0.1303784 -0.1662777 -0.1897227 -0.07140078 -0.1761246 -0.09632999 -0.1549979 -0.06126523 -0.1159324 -0.1798179 -0.1221872 -0.1159083 -0.1717233 -0.1158286 -0.1457786 -0.1696952 -0.1427304 -0.1010986 -0.2952133 -0.05346073 -0.2613719 -0.1583118 -0.1416545 -0.1661298 -0.1382039 -0.1571094 -0.09873111 -0.1595674 -0.1283423 -0.2092309 -0.1217642 -0.09922754 -0.1707588 -0.2013944 -0.1243947 -0.1193811 -0.1744688 -0.1907219 -0.1752982 -0.1440178 -0.1027436 -0.09755474 -0.1360606 -0.1100345 -0.124842 -0.1641394 -0.163421 -0.1556965 -0.1883411 -0.223215 -0.2221011 -0.158125 -0.1428916 -0.06277514 -0.1420851 -0.1549681 -0.1096904 -0.1658891 -0.1445067 -0.08477679 -0.1300651 -0.1714636 -0.2052718 -0.1516102 -0.1522308 -0.3042586 -0.1223988 -0.2347143 -0.125485 -0.1027903 -0.1376767 -0.1547581 -0.1097062 -0.2713915 -0.1769174 -0.06660734 -0.05238709 -0.2104233 -0.1560376 -0.09062333 -0.1520652 -0.1270998 -0.1446939 -0.1569706 -0.1265544 -0.1404992 -0.07605325 -0.09917527 -0.2021747 -0.04743722 -0.1607156 -0.1304221 -0.156885 -0.1252033 -0.1185383 -0.1469427 -0.1792998 -0.159513 -0.1191272 -0.14486 -0.06988539 -0.114117 -0.1376016 -0.2481756 -0.1629796 -0.1251609 -0.1334778 -0.127927 -0.06269062 -0.07679628 -0.1794434 -0.1618809 -0.08490144 -0.194462 -0.1329381 -0.1110771 -0.139695 -0.1849186 -0.1286765 -0.1139155 -0.1825989 -0.1728928 -0.135526 -0.106718 -0.1676631 -0.1717037 -0.09723073 -0.1275096 -0.1567182 -0.06456247 -0.1485963 -0.1413755 -0.1532552 -0.1446128 -0.1755762 -0.1302286 -0.1886481 -0.1542239 -0.1382719 -0.1127304 -0.1196572 -0.1390722 -0.158811 -0.1241201 -0.1616866 -0.09696312 -0.2226941 -0.1641487 -0.1390871 -0.1170604 -0.1867104 -0.1260281 -0.1592691 -0.1595651 -0.159331 -0.1038511 -0.1453091 -0.1265808 -0.08733789 -0.1363168 -0.1919239 -0.1848387 -0.1939806 -0.1537312 -0.1464882 -0.239107 -0.1428623 -0.1844572 -0.1122389 -0.1549153 -0.1546033 -0.2146438 -0.2781188 -0.1170642 -0.3413066 -0.1332058 -0.1837825 -0.1604675 -0.1709811 -0.1202151 -0.1732858 -0.177508 -0.1692512 -0.1134569 -0.178271 -0.1820869 -0.104508 -0.1881028 -0.1268971 -0.1379164 -0.1812991 -0.07664415 -0.08130456 -0.1775765 -0.1551664 -0.05873444 -0.16797 -0.1005483 -0.1257108 -0.1021823 -0.1803708 -0.2239039 -0.1402771 -0.1109035 -0.1195106 -0.1155797 -0.1572732 -0.09381231 -0.1664382 -0.1181471 -0.1063306 -0.08027041 -0.1127893 -0.1252854 -0.1313524 -0.116923 -0.1465932 -0.1466874 -0.2179813 -0.147483 -0.1276976 -0.1527524 -0.1531491 -0.1642391 -0.08922706 -0.1667965 -0.1706288 -0.1488762 -0.1302136 -0.1668309 -0.1107766 -0.08791674 -0.1637895 -0.1075402 -0.08958504 -0.1588397 -0.1278287 -0.1644861 -0.1364391 -0.1118778 -0.1212038 -0.1295567 -0.1008535 -0.1813369 -0.1033141 -0.1328812 -0.1098325 -0.1631925 -0.1180409 -0.1434856 -0.09805613 -0.1497925 -0.08051975 -0.1239136 -0.1387809 -0.1022351 -0.1672141 -0.09379561 -0.08370769 -0.09828377 -0.133476 -0.1544289 -0.08203065 -0.1571625 -0.1194878 -0.1480364 -0.1361191 -0.1700803 -0.1708372 -0.1198148 -0.08115042 -0.13604 -0.1190806 -0.1046572 -0.1491025 -0.1116318 -0.1372764 -0.08526055 -0.1615941 -0.09912864 -0.1824408 -0.1031085 -0.1500173 -0.1284518 -0.2373704 -0.1321487 -0.1014177 -0.1099996 -0.09969302 -0.172581 -0.1171788 -0.1311495 -0.1278116 -0.09725995 -0.1668635 -0.08337957 -0.2561763 -0.1356556 -0.0887976 -0.08194468 -0.1330055 -0.1776177 -0.1111724 -0.116009 -0.08583026 -0.1148926 -0.1321835 -0.1449277 -0.093003 -0.1856921 -0.152339 -0.07450761 -0.141932 -0.1509104 -0.09961584 -0.1505259 -0.1423112 -0.1091193 -0.1426264 -0.1404558 -0.1619569 -0.09750491 -0.2018298 -0.05604595 -0.0933677 -0.131655 -0.06423581 -0.1526089 -0.1499263 -0.1079839 -0.04196061 -0.1039659 -0.1284319 -0.1430162 -0.1155181 -0.142515 -0.1572472 -0.1749479 -0.1524432 -0.152533 -0.1806329 -0.1611498 -0.1444427 -0.1054854 -0.06015544 -0.1786363 -0.1490704 -0.04972342 -0.1559807 -0.1250097 -0.103448 -0.1344308 -0.2032861 -0.1930936 -0.271918 -0.1232647 -0.02924149 -0.1717868 -0.1195878 -0.1139829 -0.1871672 -0.1335904 -0.1847539 -0.1143056 -0.1651911 -0.1636472 -0.1241543 -0.1617869 -0.166864 ]
<!EndOfComponent> 
<Rescale> 1024 1024 
<LearnRateCoef> 0  [ 4.978889 3.646245 3.516902 6.795141 4.65719 4.435071 5.971569 5.512613 6.602859 5.900332 5.668115 6.028252 4.745272 5.560627 3.969964 7.312112 4.963383 5.180605 2.845326 5.624013 3.750909 3.819693 7.502588 6.325438 5.895215 5.035135 4.907582 5.09196 3.676898 3.074637 5.523306 5.073989 5.448153 4.647307 6.433969 5.211645 6.714877 4.779867 5.430247 4.402064 5.20448 5.96402 6.024389 4.241625 6.379481 4.18374 4.350548 6.264069 3.986563 5.671263 5.412892 4.992916 4.934245 4.611069 5.784726 4.835327 6.383186 5.310551 6.622805 4.885404 4.72358 5.157909 2.410369 4.367083 5.444155 4.934951 4.583519 4.731637 4.176688 4.243739 5.456534 5.6913 7.494873 5.408852 4.874901 4.864235 4.592901 4.734568 5.246812 5.912024 5.875136 4.458535 4.638113 5.456152 5.318382 6.46596 4.949068 4.89879 5.132311 4.438263 5.263637 5.69705 7.019454 4.54744 3.127642 4.864038 7.854402 7.66715 6.405568 4.87908 5.65407 4.31344 4.255844 5.636657 5.138128 7.372391 4.985079 6.160629 3.094679 5.12161 4.585517 4.599676 6.441404 6.29338 4.917125 5.816804 6.314693 5.82017 7.424939 4.482588 5.116271 5.311864 5.786527 4.389459 2.366336 5.736135 3.953781 6.957957 4.586586 3.469293 3.8584 4.517345 6.182508 4.645928 7.223544 5.047494 5.312636 4.614227 9.478513 4.671104 4.831233 4.351923 5.786026 5.15931 7.096627 6.450327 5.114834 4.790017 3.55166 4.239348 4.599511 4.921688 4.893467 6.440312 4.757795 4.457232 5.366851 4.66395 4.68734 5.464625 6.615714 5.413007 5.134887 7.667953 4.850579 6.092249 4.569083 4.878164 3.193202 4.540885 4.712937 4.792515 5.498556 5.275703 5.103055 4.807811 5.255647 4.614289 3.739915 6.478409 6.300287 4.957087 7.059823 4.723947 5.464 5.801646 4.647279 6.304439 4.214545 5.318503 7.623837 5.317006 5.369469 6.818207 7.803587 5.195331 5.315041 5.021347 5.064272 4.269759 5.034762 7.199582 6.666564 4.992985 5.043929 5.728002 5.815539 6.079792 5.574888 3.05417 4.698721 5.833878 4.475743 5.023112 3.997419 4.460313 4.470921 5.686658 4.240108 3.354825 4.564381 4.67894 4.7162 3.666631 5.531744 5.300664 5.224963 4.269166 4.405736 5.533154 5.47765 5.688047 4.911507 4.151236 5.129601 4.75078 4.756572 7.10039 5.318167 6.687315 7.385405 4.216184 4.636246 6.503357 7.039577 5.136473 4.112759 6.392624 2.663387 4.967306 5.385028 5.494525 3.330518 6.358858 6.174262 5.066484 5.793293 5.294312 4.39679 4.768384 4.481677 4.690433 4.607581 4.508556 7.098568 7.98651 6.433743 4.423369 5.212556 2.877333 5.870539 4.839539 6.4618 4.900208 3.244745 4.579812 4.48966 4.199738 4.867487 6.480638 8.082674 7.306716 5.263193 5.165722 5.287351 4.553099 5.208315 5.909864 4.878291 6.763273 6.674989 4.256576 4.423219 4.52985 4.101371 3.155147 4.548466 5.661858 4.59594 6.219118 3.308294 7.160655 6.402594 5.53301 5.282517 7.444924 5.152953 5.601895 3.638904 6.086974 3.070755 7.146002 5.682265 4.557141 5.102487 7.017212 3.323963 4.136033 4.806666 2.513416 5.410889 6.239748 5.402583 5.23276 8.312317 5.767018 6.975122 5.091057 4.480859 4.535959 4.547627 8.0491 5.511555 4.181339 5.262267 4.771679 5.494049 7.017842 4.128082 6.190606 7.227864 6.112619 5.431769 4.244964 5.329457 5.086779 2.327053 4.614647 6.361743 5.880598 4.761151 3.988511 6.046369 3.545142 6.640944 4.872861 5.972005 6.094498 4.254709 5.577678 4.901161 4.367108 4.035536 7.377916 5.00315 7.097335 4.986191 4.518821 5.488043 3.116125 5.196536 6.246411 4.781354 4.625248 6.596847 4.705462 8.330054 6.450006 6.726583 3.171517 3.025851 4.547493 7.899184 3.753779 4.753283 5.55307 7.005351 5.039404 8.11456 6.104013 4.839024 5.432274 4.073083 4.361747 7.299028 5.332073 5.941392 3.852976 6.214986 4.634489 4.947292 3.22378 5.279098 5.352679 5.969592 5.532905 4.178316 4.203817 5.864367 5.785611 5.160642 5.794365 4.790585 6.45784 5.383065 5.88162 4.520217 3.78969 4.619285 5.705455 5.63924 4.984476 5.833673 6.177081 3.91097 5.726356 2.581734 5.21619 4.405584 5.070536 8.773911 4.691663 6.218452 2.935633 6.553195 4.881755 4.162825 5.621286 6.297535 4.51632 5.240458 5.013859 6.064106 4.676587 5.186117 4.422005 5.333961 3.503621 7.403012 4.414546 5.047536 4.635942 6.470287 5.140501 5.694519 5.945326 6.681793 5.271396 5.701665 5.400882 3.954703 6.246723 4.915623 5.461261 3.966029 4.50326 4.356878 5.165463 3.32402 3.701265 4.36664 5.949952 5.039968 4.956884 5.536812 6.87943 6.783237 6.560414 4.898714 4.841074 5.088786 7.437691 4.948936 4.807289 4.229893 7.605958 6.244459 5.226299 4.525733 5.775434 7.33446 7.705381 4.760279 5.419015 4.271048 4.765746 3.939873 4.93376 4.221781 7.577089 4.482884 5.334844 4.888601 8.670053 8.337181 6.300449 7.41307 4.541479 5.715667 6.599326 4.826758 4.962588 4.533839 5.590415 4.870817 5.659269 5.516608 4.566184 5.943353 8.180294 6.251495 5.471998 4.574847 4.035839 5.57225 6.512757 4.992568 4.375058 5.084882 4.667856 7.724537 5.010396 4.689507 7.492468 4.557819 5.6542 9.483992 7.294153 4.010715 4.275623 6.857954 4.889273 5.535846 6.441823 6.003964 6.288252 5.438055 9.698959 5.114095 4.737341 5.692764 5.956754 4.816953 3.522812 4.212697 6.331697 5.668298 4.222373 4.749138 4.723378 5.055272 5.7622 6.357359 4.442447 6.125739 4.38509 5.998785 4.509566 5.594337 6.063362 5.408236 6.878414 6.201557 4.579093 6.95488 6.556599 5.262949 6.480507 4.279804 4.450244 5.91475 6.614652 7.175747 5.929983 3.809248 5.303896 4.506806 5.407794 5.040239 4.955565 4.779161 4.371101 4.688357 5.312545 4.520667 5.057728 6.562365 6.990326 5.52121 7.106513 5.785966 4.944409 4.980688 5.109605 6.451676 3.950105 3.490443 5.062798 5.400033 4.409677 4.932879 5.025741 4.780839 5.552397 5.920909 5.981638 8.046105 4.907798 3.249633 5.884965 5.074609 3.321722 4.843683 4.745612 7.160942 4.660861 4.947013 4.989897 4.56883 4.968303 5.003466 4.212764 5.143195 5.962782 4.943796 7.412039 5.110081 5.609454 5.101952 5.28643 5.723633 4.923424 4.820847 3.594742 6.476794 5.353515 4.590158 5.567149 5.755821 5.576454 5.506884 5.277218 6.320015 7.935988 6.595359 5.052725 4.807176 4.362464 7.02899 4.708614 5.324341 5.638543 7.456701 5.711143 4.346251 5.632137 5.958574 4.681056 7.153992 5.19104 4.372194 4.441735 6.831256 2.581129 7.819804 3.636694 4.95775 5.646409 5.40471 6.235001 5.171361 6.460089 4.960947 4.76121 4.090928 3.993717 5.827495 3.935876 3.883686 4.699213 5.522743 4.299792 3.665869 3.952757 4.935298 7.409989 7.001903 5.463758 5.697997 5.529282 4.64527 4.935635 4.978306 4.494131 3.199625 3.246828 4.459834 5.343189 7.881115 5.2727 5.94366 6.170479 4.799703 4.959643 6.288582 5.704696 4.56784 3.957979 5.611413 5.053479 2.741698 5.510032 3.406261 5.790502 6.087185 6.275496 4.697908 6.233412 3.479444 4.436929 8.098265 8.527281 4.336006 4.979865 6.004266 5.2197 6.522665 5.460825 4.857116 5.660219 5.831765 6.992353 4.67657 3.268963 9.46719 4.928659 5.423993 4.673609 5.483532 7.041446 4.641055 4.592565 4.605964 5.689041 4.506109 7.684959 5.149718 4.412565 3.346919 4.250959 6.357121 5.203752 4.5507 7.25206 7.033733 4.496892 5.258069 7.122458 3.444793 5.768456 5.68154 4.729785 4.140026 4.80646 5.95138 4.530892 4.683791 5.329909 5.975403 4.767295 4.374397 7.218468 5.383432 4.939222 6.410951 3.923346 4.84025 4.61615 5.431687 4.675587 5.356358 4.19739 5.582154 5.190309 6.804465 6.060361 5.047766 4.546894 6.377232 4.602818 6.567617 3.121046 4.149127 5.453784 5.472744 4.093384 4.988891 4.803992 4.872602 4.010498 6.590654 4.585031 5.711485 6.234308 4.90381 4.485172 4.333581 4.563658 4.181685 4.898519 3.919369 4.191508 4.558952 5.666523 4.84606 4.354667 3.38956 2.770986 5.901443 2.64987 5.149807 4.572371 4.951376 4.863775 5.547954 4.777529 4.71121 4.72367 4.374746 4.345088 4.793121 5.385199 4.072133 5.874646 5.267951 4.527193 6.53132 6.263178 4.460518 4.94025 6.738934 4.65529 5.582853 5.960926 6.460417 4.610775 3.511171 4.8327 6.26686 4.917159 5.517911 4.821162 6.440098 4.697473 5.780087 5.379372 7.018514 6.572489 5.347602 5.386634 5.958842 5.083772 4.958721 3.685597 5.017419 5.295518 5.570312 4.901512 5.490438 7.110184 4.234453 4.5307 5.46783 5.227336 4.651846 6.3199 5.998354 4.082963 7.457015 6.911992 5.369072 5.96176 5.192764 6.256681 5.985785 4.554279 5.006518 6.238739 4.6808 6.907425 7.076315 6.539557 5.745818 4.378798 5.256177 4.601391 5.166869 6.353777 5.244819 4.089288 6.399345 4.688042 6.733174 6.120564 6.435666 5.568076 4.928069 7.003706 4.249042 5.584539 5.025684 5.613985 4.302248 4.518462 6.387388 6.744052 5.715292 5.555738 5.597423 5.956595 6.262809 5.198794 6.448821 4.874958 5.648635 4.146355 6.089912 5.028003 5.75524 3.259819 4.879062 5.611116 5.890693 5.46056 4.838404 6.584489 4.850641 5.159572 6.260621 4.462256 7.019739 3.155335 4.287738 7.332388 5.990053 5.720756 4.561338 6.250191 5.558148 6.943853 5.969896 5.842139 5.198417 5.805623 4.547618 5.338571 7.338301 5.219336 4.898427 7.105638 4.872467 5.12585 5.452621 4.943752 5.370018 4.393166 6.996196 3.362429 6.003547 6.714664 5.90661 6.963798 6.38884 4.989038 6.820804 7.720721 5.482575 5.251062 4.903535 5.399378 5.010338 4.628746 4.616024 4.508085 5.646374 4.570428 4.738311 4.849731 8.107094 8.918716 4.537794 4.195451 6.601873 4.953645 5.32755 6.472266 6.775628 4.297368 4.412028 3.380726 7.073421 9.133988 4.726037 5.95928 5.524412 3.640758 5.625944 4.168055 5.863287 4.88826 4.624718 6.004684 5.351429 4.664869 ]
<!EndOfComponent> 
</Nnet> 
