<Nnet> 
<AddShift> 1024 1024 
<LearnRateCoef> 0  [ -0.1488184 -0.06997681 -0.09435021 -0.0882778 -0.1500776 -0.1037036 -0.07042371 -0.1211683 -0.1084753 -0.1477599 -0.1354072 -0.03826753 -0.1136136 -0.1561444 -0.1559466 -0.0409346 -0.09575426 -0.05584489 -0.09627783 -0.1149802 -0.1187522 -0.09133963 -0.1455087 -0.06138153 -0.1030559 -0.08449682 -0.2215983 -0.05083546 -0.1063512 -0.0838473 -0.1894415 -0.05626492 -0.05741296 -0.1280969 -0.1514763 -0.1060308 -0.06736912 -0.1089236 -0.09253691 -0.07731272 -0.1697095 -0.05138431 -0.07007 -0.05358528 -0.07810733 -0.1122898 -0.12093 -0.0800671 -0.1702396 -0.06348847 -0.0996908 -0.0859194 -0.09407373 -0.0845295 -0.1097987 -0.0789609 -0.1314831 -0.08379072 -0.1289068 -0.1457326 -0.1078098 -0.2484049 -0.0501717 -0.09424022 -0.1147908 -0.09712332 -0.1474239 -0.2195844 -0.08592986 -0.09857096 -0.07957593 -0.06318614 -0.104668 -0.1093145 -0.2085035 -0.1192786 -0.1101483 -0.1106054 -0.1444277 -0.103012 -0.1177148 -0.06660517 -0.08847164 -0.09706609 -0.09696277 -0.1713391 -0.1257036 -0.1491509 -0.09369418 -0.03014498 -0.07572658 -0.2843368 -0.05206587 -0.09464154 -0.1342209 -0.1141306 -0.1612716 -0.07031375 -0.1783191 -0.1440538 -0.1241087 -0.05273271 -0.1139712 -0.06974108 -0.1183312 -0.04980069 -0.16449 -0.1235702 -0.0986692 -0.05115279 -0.03575883 -0.1203025 -0.2266293 -0.105014 -0.1256242 -0.1690871 -0.1065775 -0.1402765 -0.04593721 -0.051938 -0.2408032 -0.1966057 -0.09978299 -0.1010429 -0.1144345 -0.1056418 -0.05347246 -0.0712034 -0.1302861 -0.1361144 -0.0620787 -0.1185598 -0.06076083 -0.19399 -0.05894682 -0.1667642 -0.1119182 -0.08771492 -0.0717733 -0.1424033 -0.05034792 -0.04063633 -0.1434591 -0.1527778 -0.1332655 -0.182261 -0.1417864 -0.1537481 -0.0770385 -0.07481594 -0.1606968 -0.04016881 -0.04717202 -0.1800857 -0.099892 -0.1700134 -0.292848 -0.187884 -0.1265655 -0.1094722 -0.1022869 -0.09380727 -0.1076159 -0.2472743 -0.09816428 -0.08176362 -0.08541922 -0.1609579 -0.1696753 -0.08667095 -0.08196335 -0.1041902 -0.02714213 -0.102615 -0.1354733 -0.1344554 -0.3234431 -0.1710658 -0.07073215 -0.0725466 -0.07903019 -0.08646597 -0.1182146 -0.1270899 -0.04597381 -0.3066931 -0.09804527 -0.1053731 -0.0737381 -0.1579696 -0.0598704 -0.0962081 -0.1296788 -0.1921645 -0.07946142 -0.1518591 -0.1149511 -0.1476762 -0.0936951 -0.08976229 -0.04602612 -0.0899571 -0.09100256 -0.03709283 -0.104874 -0.1023038 -0.1115078 -0.04079532 -0.1016265 -0.2526409 -0.1047824 -0.07670645 -0.1410655 -0.1154051 -0.1415069 -0.07296659 -0.1881139 -0.09120119 -0.2367853 -0.1059106 -0.1392237 -0.07379249 -0.1097665 -0.1586962 -0.1151191 -0.1151055 -0.2538742 -0.114136 -0.1188885 -0.1697438 -0.06945126 -0.0879513 -0.08121412 -0.1312543 -0.06259404 -0.07545799 -0.2155837 -0.1468326 -0.05626728 -0.06804657 -0.1388687 -0.09908679 -0.1260692 -0.179101 -0.09508707 -0.1265218 -0.1669147 -0.07138543 -0.1301982 -0.06601606 -0.09900317 -0.1176953 -0.1688416 -0.03013091 -0.06813023 -0.08995318 -0.07624559 -0.09644192 -0.1089917 -0.04471066 -0.09635623 -0.1161326 -0.08042457 -0.05518094 -0.05475664 -0.105872 -0.2319347 -0.1219669 -0.07253221 -0.1195287 -0.1548929 -0.1552871 -0.05392723 -0.1538319 -0.09198344 -0.07029083 -0.05263837 -0.1482449 -0.1167351 -0.1029468 -0.06443033 -0.04113482 -0.09355923 -0.1178393 -0.1038564 -0.3287081 -0.1068633 -0.2070707 -0.1005524 -0.0807597 -0.04744443 -0.142647 -0.08081461 -0.06630401 -0.08955104 -0.06107396 -0.1057086 -0.2316366 -0.104025 -0.09939539 -0.2968899 -0.08501181 -0.2754112 -0.0752424 -0.1133376 -0.09566712 -0.2940373 -0.06621452 -0.2104665 -0.07526246 -0.08058711 -0.07892715 -0.2952591 -0.07568458 -0.1330312 -0.07816141 -0.1044655 -0.1391899 -0.06352036 -0.1094008 -0.06786291 -0.1378785 -0.08877468 -0.1592072 -0.06846437 -0.108643 -0.109874 -0.09446155 -0.1582638 -0.149094 -0.114267 -0.1065342 -0.1400602 -0.08888792 -0.06044964 -0.08148219 -0.08695965 -0.06953686 -0.08566396 -0.1865221 -0.1525842 -0.06045927 -0.230875 -0.2145118 -0.1153185 -0.06206275 -0.2862385 -0.148256 -0.06860773 -0.0840276 -0.07744379 -0.07629779 -0.1759424 -0.03555043 -0.09282865 -0.1310601 -0.1538224 -0.03287771 -0.1201542 -0.09269971 -0.1628098 -0.08188826 -0.1478497 -0.05347187 -0.1178833 -0.1225821 -0.1012822 -0.08368815 -0.07932223 -0.05322201 -0.04747108 -0.08465768 -0.1170848 -0.06795967 -0.1294131 -0.1592977 -0.1614955 -0.1195542 -0.08745037 -0.05211224 -0.1266273 -0.1305919 -0.1792837 -0.07038189 -0.09258361 -0.1089163 -0.109267 -0.09742115 -0.05899004 -0.1296764 -0.05112631 -0.08263305 -0.05188477 -0.1128829 -0.4383233 -0.02173367 -0.07078009 -0.09919203 -0.131908 -0.09865879 -0.1303961 -0.1201485 -0.2894102 -0.0664835 -0.1245033 -0.06004574 -0.1329054 -0.1140021 -0.1391837 -0.08017563 -0.1165072 -0.1308346 -0.07112174 -0.05239208 -0.1650741 -0.3509452 -0.1600681 -0.05044681 -0.06049898 -0.1905624 -0.1149727 -0.1115648 -0.2415548 -0.1295343 -0.088912 -0.1033495 -0.1577438 -0.05882034 -0.1239809 -0.0645387 -0.1304371 -0.05710683 -0.03808047 -0.3727977 -0.1838431 -0.1139886 -0.1318665 -0.1812 -0.07548628 -0.06366564 -0.1341014 -0.06369427 -0.1510061 -0.3032047 -0.1003532 -0.1770246 -0.08777183 -0.2224495 -0.1282058 -0.05264435 -0.09489175 -0.1138366 -0.121793 -0.06348013 -0.1238467 -0.1542995 -0.06663006 -0.2334566 -0.06901319 -0.1188999 -0.09917889 -0.1111515 -0.08738128 -0.09960052 -0.05446151 -0.03733374 -0.02467831 -0.1111058 -0.05676969 -0.1592242 -0.1468076 -0.1018246 -0.05237925 -0.1063213 -0.1032425 -0.2958848 -0.2520283 -0.3081555 -0.07991496 -0.1272843 -0.3224697 -0.192783 -0.106974 -0.1720288 -0.1577019 -0.1461771 -0.09780937 -0.08505401 -0.1005433 -0.1809746 -0.09334058 -0.1497342 -0.1640034 -0.08778931 -0.2726299 -0.1666123 -0.1236154 -0.130155 -0.04759919 -0.1566884 -0.1696785 -0.1070263 -0.05893259 -0.1081397 -0.05974352 -0.118477 -0.05927996 -0.2124837 -0.06421911 -0.114847 -0.0991598 -0.0985688 -0.1201738 -0.1946525 -0.08509453 -0.1718465 -0.06324158 -0.0789929 -0.1191147 -0.03398526 -0.1613259 -0.1004593 -0.05987407 -0.09741876 -0.1570142 -0.08138131 -0.1469148 -0.102089 -0.1161283 -0.07895726 -0.1428915 -0.02463195 -0.08837386 -0.08746346 -0.07871626 -0.08149638 -0.04054402 -0.07974069 -0.07398815 -0.1413416 -0.1517496 -0.126192 -0.09779737 -0.07952526 -0.07674708 -0.1187816 -0.3271726 -0.06697541 -0.09007286 -0.05967909 -0.08433068 -0.03304107 -0.1232441 -0.104095 -0.05013056 -0.1131596 -0.2130361 -0.0655845 -0.3193785 -0.1250933 -0.1309965 -0.0921042 -0.06885322 -0.1035835 -0.04110012 -0.04954492 -0.1165881 -0.07770709 -0.1185713 -0.05565019 -0.06498623 -0.1333037 -0.169364 -0.131955 -0.06296309 -0.07357372 -0.06700122 -0.1017028 -0.1586753 -0.0840729 -0.1056231 -0.1445976 -0.07850212 -0.07663361 -0.06077659 -0.115919 -0.1408927 -0.09027498 -0.06223307 -0.2657569 -0.1718854 -0.04502457 -0.07280326 -0.07667093 -0.1374473 -0.1477322 -0.08797345 -0.1373439 -0.1335645 -0.1787694 -0.1235011 -0.05055082 -0.120239 -0.06101244 -0.1335287 -0.08405042 -0.1050593 -0.09549148 -0.3106465 -0.06381015 -0.2781369 -0.09867575 -0.06131147 -0.1366311 -0.119783 -0.05611053 -0.2513773 -0.06751869 -0.14799 -0.1178763 -0.1219337 -0.09972105 -0.1115247 -0.08792537 -0.0726876 -0.09781805 -0.105114 -0.1331299 -0.2973996 -0.09911986 -0.1026847 -0.1440599 -0.02697585 -0.08407315 -0.1513795 -0.08436866 -0.1083885 -0.1636072 -0.07516349 -0.06489581 -0.06647465 -0.1761293 -0.04079995 -0.07578486 -0.1108808 -0.1024183 -0.1439056 -0.06364755 -0.1110488 -0.07738911 -0.03482986 -0.1409516 -0.2622903 -0.2737356 -0.154691 -0.07876438 -0.2056839 -0.05548653 -0.3278925 -0.101687 -0.04801514 -0.07671733 -0.08612338 -0.07837947 -0.1415143 -0.0915752 -0.09544377 -0.1008997 -0.06455663 -0.179673 -0.1519536 -0.04359355 -0.2468274 -0.07789652 -0.08009976 -0.06434985 -0.05272443 -0.1219525 -0.1061594 -0.1224132 -0.1049001 -0.07098212 -0.09018483 -0.1055109 -0.05656776 -0.06942898 -0.120868 -0.1593411 -0.06966526 -0.1384856 -0.1181812 -0.07465865 -0.06223086 -0.05153519 -0.1570584 -0.1389679 -0.0825621 -0.0547323 -0.1393238 -0.09222968 -0.04837939 -0.09185886 -0.1470619 -0.1485764 -0.1277098 -0.1292187 -0.1852881 -0.08527767 -0.1459825 -0.05636868 -0.1099075 -0.04131598 -0.07185461 -0.1466954 -0.1936318 -0.04208614 -0.08738615 -0.08905696 -0.1205106 -0.07753035 -0.06610965 -0.1669575 -0.09981189 -0.1088889 -0.08597028 -0.05951813 -0.07861828 -0.08393565 -0.1070155 -0.07604429 -0.05358639 -0.4810389 -0.1021388 -0.09360778 -0.09537242 -0.1605259 -0.1035048 -0.1392758 -0.09756169 -0.07284284 -0.1286976 -0.1685754 -0.1460468 -0.07853226 -0.08595667 -0.1361774 -0.1458573 -0.1366829 -0.1147702 -0.08896234 -0.1866917 -0.04256185 -0.09017883 -0.09421378 -0.1802246 -0.06291372 -0.08007695 -0.07815041 -0.07446856 -0.1400052 -0.128958 -0.1704821 -0.07586446 -0.0274314 -0.06777345 -0.109071 -0.09816423 -0.09249359 -0.2277565 -0.1029979 -0.05517246 -0.1324423 -0.1590015 -0.1279824 -0.06889587 -0.1038816 -0.2006842 -0.106708 -0.07207002 -0.0945084 -0.09110469 -0.1020773 -0.05002731 -0.08179549 -0.086348 -0.06929652 -0.1106617 -0.1127093 -0.1176303 -0.1089649 -0.08554053 -0.03412109 -0.04421983 -0.1334135 -0.05872984 -0.1507325 -0.1389609 -0.07909536 -0.07259881 -0.151619 -0.03308493 -0.04769105 -0.1956119 -0.1515268 -0.3065623 -0.2245863 -0.1937612 -0.1698511 -0.1516293 -0.09384943 -0.1606876 -0.04685411 -0.1533801 -0.1310081 -0.119454 -0.137358 -0.06833234 -0.206825 -0.08211855 -0.1157939 -0.1393892 -0.2306882 -0.08283193 -0.09388284 -0.05669981 -0.1461054 -0.08353251 -0.05494357 -0.08411749 -0.2029858 -0.1565301 -0.05715584 -0.1500732 -0.1136977 -0.1441018 -0.1289494 -0.09832161 -0.09144717 -0.09471592 -0.06658979 -0.1506352 -0.0444622 -0.1782825 -0.06684788 -0.1201672 -0.1308778 -0.1105745 -0.08363217 -0.07123624 -0.0721206 -0.1238282 -0.1302011 -0.1009707 -0.0845255 -0.1429227 -0.04277696 -0.1609683 -0.128329 -0.05703658 -0.06204535 -0.1508733 -0.06647101 -0.1679237 -0.1218431 -0.2615294 -0.02313603 -0.08448441 -0.04831764 -0.1353696 -0.2896905 -0.09982719 -0.1589406 -0.08581012 -0.06178535 -0.1288945 -0.1525896 -0.05946868 -0.1652259 -0.1393721 -0.100583 -0.1234252 -0.1118665 -0.1374034 -0.06178806 -0.08646218 -0.1202092 -0.09831295 -0.1037716 -0.03797348 -0.04728234 -0.1460986 -0.1636494 -0.1259745 -0.1226922 -0.09678625 -0.187014 -0.06021198 -0.1285224 -0.1184668 -0.1212015 -0.08237504 -0.08717442 -0.07972116 -0.1861563 -0.07322078 -0.03556891 -0.1499007 -0.08379077 -0.07528365 -0.09529534 -0.1001068 -0.1068544 -0.06484184 -0.07304531 -0.07822228 -0.1462523 -0.08134582 -0.162357 -0.1600581 -0.06696226 -0.102237 -0.06331336 -0.03834743 -0.1581538 -0.1298532 -0.04566792 -0.156789 -0.2701303 -0.0616255 -0.09728447 -0.1377743 -0.1023554 -0.07772405 -0.0634471 -0.09855708 -0.05930962 -0.02824638 -0.03817697 -0.05871942 -0.1174538 -0.1401617 -0.1442671 -0.1006443 -0.1681204 -0.04068203 -0.1449463 -0.05979289 -0.1079033 -0.08324388 -0.148705 -0.09862368 -0.2773464 -0.072441 -0.1588424 -0.0936722 -0.08844491 -0.1678326 -0.1022442 -0.1097321 -0.05126999 -0.1035017 -0.1365059 -0.1013799 -0.08753998 -0.1600403 -0.0417595 -0.1392176 -0.1107041 -0.1202984 -0.04629649 -0.1074235 -0.1389653 -0.1045318 -0.284164 -0.118369 -0.2073414 -0.09037372 -0.08848955 -0.1098975 -0.1383713 -0.1109222 -0.09147763 -0.1207144 -0.1450457 -0.1356022 -0.1498094 -0.1663785 -0.09193797 -0.08813374 -0.04713926 -0.2377558 -0.1301376 -0.1023109 -0.02795979 -0.0699157 -0.141219 -0.1312849 -0.05632277 -0.1179095 -0.1325758 -0.1571281 -0.09347276 -0.1127398 -0.1700576 -0.08888654 -0.269677 -0.1828027 -0.1338672 -0.1394914 -0.1095254 -0.08334309 -0.05027527 -0.1907977 -0.1329709 -0.06612711 -0.09853048 -0.04555212 -0.09277759 -0.1372894 -0.2069133 -0.05234454 -0.2478375 -0.07387008 -0.0833585 ]
<!EndOfComponent> 
<Rescale> 1024 1024 
<LearnRateCoef> 0  [ 4.054325 7.973963 5.82025 6.539093 4.846307 5.025257 7.298288 5.574604 5.000767 4.7397 4.988459 7.58496 5.566268 4.864395 5.379989 7.286535 5.18322 8.629411 5.895243 5.827748 5.015813 7.944183 5.322629 7.705745 5.875436 5.575909 3.146078 7.316645 6.18452 4.853745 4.402303 6.755657 8.590908 4.900394 5.369683 6.648066 6.940911 7.486772 6.775883 6.187678 4.504124 8.621823 7.056275 7.821945 6.456807 6.317575 4.528164 7.320688 4.705654 6.845405 5.26715 6.476763 5.399806 5.48314 5.299098 7.944927 4.421974 5.987761 6.438042 5.010978 5.734714 3.239691 7.775426 6.758578 4.842021 5.619416 5.228569 3.364793 7.044489 5.446948 6.775134 5.717942 5.460457 6.152298 4.102707 5.339066 6.103433 5.669068 5.097879 5.320356 5.37703 7.187696 6.614509 5.411527 5.767542 4.734268 4.829528 4.332047 5.475236 12.41292 5.531914 3.228763 7.805893 6.359092 5.271839 5.82559 4.553425 7.291988 4.763095 4.842745 4.942699 6.63271 5.421862 5.510679 5.307514 8.123984 4.227979 5.086462 7.210564 8.618894 9.29592 5.966121 3.370642 5.075239 4.721836 4.688934 5.659837 4.793622 9.127566 7.509942 3.20472 4.926385 5.092861 5.311912 3.821726 6.274441 6.341762 5.873229 5.190887 4.918242 7.167637 4.897726 7.886634 4.110585 7.658679 4.472215 4.859839 5.610878 7.20639 5.126019 7.310404 8.049885 5.147017 4.734609 5.124334 4.402405 5.205019 4.574194 5.320219 7.328033 4.525374 7.826667 6.207938 3.960517 5.575913 4.055884 3.333 4.433764 5.613726 5.101245 7.360238 5.605587 6.498775 3.238776 5.492056 5.55096 7.16882 5.150695 3.473434 7.461346 7.928239 6.266386 8.319837 5.67444 5.075916 6.451111 2.349695 4.879031 6.581317 5.702257 7.34984 6.360113 5.656975 6.77909 7.422107 2.757504 6.060066 5.077614 6.367958 5.037894 6.76052 5.323146 4.354312 3.390274 7.118182 4.937985 5.49703 4.967522 7.135926 5.56765 8.977055 7.277843 6.185984 7.37377 6.593968 5.723212 6.305128 7.600238 5.093578 3.005837 5.153542 5.306464 5.925471 5.125962 5.036257 7.445333 4.197545 8.226451 3.34905 7.190784 4.734162 6.826209 5.144115 4.635307 4.071814 5.238166 2.931266 6.548067 4.844598 3.763251 8.098097 8.067118 7.159274 6.527699 7.481102 6.751645 3.619652 4.907681 7.095253 7.136169 4.974803 6.973661 6.97802 4.556565 5.885879 5.198761 4.433045 6.096958 4.721625 6.554091 5.992305 4.731915 3.834759 7.89889 5.274679 6.584666 8.867054 5.327377 5.05786 7.68505 7.403122 4.98591 4.804288 9.497339 7.975427 5.260202 2.974848 6.662016 7.062075 5.551511 4.637993 4.912181 6.076421 3.961143 6.151652 8.871907 7.630802 4.734949 5.838515 5.152732 7.685766 7.497223 5.443752 6.284299 5.086256 2.681619 6.539689 3.312148 6.107767 7.339767 8.106913 5.048464 6.761996 6.555541 6.394144 6.399763 4.714448 3.36345 6.255661 5.832039 3.035241 6.187812 3.162161 7.331098 5.772083 5.74274 3.1813 6.461204 4.035254 7.056466 5.916751 6.843344 2.538075 7.774119 4.924486 7.113035 6.059911 3.909234 7.570472 6.133336 7.277846 5.437779 7.21944 4.60422 7.900414 5.889863 5.811199 5.268812 5.033663 4.909062 5.813694 7.099092 3.84918 7.214826 6.02023 8.91848 6.396654 7.082685 6.435744 3.839303 4.071727 7.248764 3.607735 3.345912 5.331607 6.915031 2.962823 4.705771 7.057015 6.292072 7.809032 6.643157 4.531028 9.380151 5.802349 5.145128 4.596581 7.403096 5.174289 6.450693 5.297727 5.696396 4.899182 6.358463 5.382868 5.152926 6.649406 6.395737 7.866352 7.457914 6.005024 7.798744 5.304625 7.370077 4.88566 4.604567 3.28249 5.687131 5.168548 7.837336 5.058291 5.294675 3.84359 7.695929 7.139029 5.225157 5.470669 6.852096 7.003891 4.95926 7.668082 6.736738 6.123489 4.200416 2.447787 9.739126 6.254776 5.661461 4.924096 5.628596 6.39526 6.807044 2.908322 7.060016 5.77561 7.952019 5.104858 6.804027 4.897527 5.513924 5.691825 4.947028 7.202568 7.375734 5.14429 2.850403 4.843582 6.492214 6.095262 3.843766 5.870594 5.129109 3.334515 4.949737 6.288067 6.11136 4.905638 7.825856 5.16116 7.253437 5.404093 7.533465 7.91471 2.838702 3.292312 5.420059 5.087317 3.768161 6.752352 5.602379 6.266041 7.683877 4.900827 3.018494 4.100532 4.788155 5.445851 3.317869 6.030447 6.645095 4.878147 5.302288 4.813921 8.6658 5.07439 5.018032 6.872344 3.374248 9.042447 5.234322 4.857545 6.085653 6.783096 5.331116 8.181871 7.82144 9.371175 5.268104 5.879316 4.735458 4.797845 5.395798 8.592994 6.303573 6.556726 2.827646 3.045476 3.349887 5.185442 6.779303 3.246944 4.515749 5.668604 3.671424 5.006633 4.969364 5.215917 5.973909 4.888608 4.483639 6.261682 4.567246 4.357286 7.477897 3.174 4.40684 5.752866 5.505928 7.229142 4.359864 4.390872 5.809201 7.252799 6.891631 7.05919 5.392357 9.493722 3.427112 6.697755 5.752046 5.56154 6.519831 6.820278 4.169885 5.686454 4.502506 6.529434 5.871641 5.814562 15.98753 5.223931 7.217449 6.449183 6.681818 4.909403 6.528956 4.706249 5.604748 5.906246 7.040143 3.994523 9.749372 6.537103 5.584335 7.314947 6.36904 7.574537 6.381007 7.252019 5.413416 4.060751 5.920469 6.651813 8.968313 7.114827 5.280812 2.631532 5.128188 6.549197 7.085049 8.466541 7.821198 6.369341 4.345485 5.855014 5.721395 3.710582 7.509187 2.440375 5.94599 4.695563 5.804102 5.853313 7.540561 7.692041 9.276006 5.35174 7.423653 5.230823 9.451766 6.797807 4.978847 4.238728 5.52056 6.217992 9.110735 7.466947 6.063731 5.463988 6.231565 7.160021 4.958799 9.907064 7.217685 8.83295 5.162983 3.995676 7.385278 7.077338 3.333121 3.824529 6.680268 7.9195 7.269618 6.331657 4.817057 6.885791 4.878294 4.847347 4.265049 5.012339 5.870016 5.367036 7.234561 5.71101 8.268711 6.606121 6.180949 2.780796 5.441706 2.606628 7.819157 8.476831 5.595804 5.635036 9.640992 3.003046 6.910492 4.833816 5.507264 3.914391 5.815575 4.421784 5.98709 7.631078 6.936571 6.25639 6.517821 2.781925 6.675091 6.411946 4.866668 9.760094 7.701383 4.932327 6.612141 5.301205 4.640025 7.033585 7.029104 6.426022 4.791808 8.00828 7.401496 7.133337 5.306312 4.641708 8.607714 5.925252 5.039476 7.378964 4.854981 2.881016 3.097755 4.457834 5.587514 3.92538 6.329405 2.78219 4.503806 6.733065 6.533842 5.958873 6.667298 4.854767 6.096346 5.516897 5.58625 7.465643 4.394922 4.94062 7.202083 3.034398 6.529946 6.762599 7.873604 6.367961 4.841888 5.191735 5.605813 5.224034 5.934771 5.682363 7.112543 8.548098 8.960231 4.758071 3.93943 9.885201 4.774418 5.589253 7.253997 7.427207 10.1751 4.801277 5.057886 6.489785 7.135369 4.922545 6.953315 8.52439 7.017998 4.814711 5.651724 5.726776 4.70141 4.59346 5.885014 5.065775 6.337358 4.981557 6.907303 5.009197 4.100024 4.799455 9.946001 5.416162 6.248906 6.192721 6.470514 9.371754 5.165962 5.680908 4.853265 7.214204 5.707116 5.089235 6.751668 6.603749 5.832792 6.905406 2.763139 4.684014 4.805477 6.598621 5.814872 6.573484 4.120595 4.897572 6.509011 5.489043 4.640711 3.961957 4.600689 5.870666 3.705747 4.676887 5.003799 4.375906 7.867593 4.090084 8.239876 6.60198 5.663279 4.442205 5.506609 6.902006 7.014118 8.448918 5.027067 5.089072 4.232614 6.18452 9.324632 7.640476 5.618244 5.888703 6.504972 3.270421 4.36042 8.014145 4.935903 5.193877 4.913813 7.163363 5.250458 4.685958 6.554779 7.477058 7.274029 5.482412 6.760642 8.759192 6.610435 7.171717 7.601866 4.767685 4.87516 5.496199 6.568692 5.901345 8.39898 8.359776 4.656762 5.6735 4.792743 4.826102 5.752332 7.318839 5.052048 9.095264 6.495384 4.419087 4.584471 2.820687 3.102963 3.39289 5.141167 5.450712 6.579838 4.895169 7.20614 5.885979 5.626918 4.51073 4.632569 6.923308 3.424652 6.427073 5.097833 4.838881 3.998619 7.201478 5.993269 8.359526 5.520704 7.611144 6.103715 5.584362 3.332018 4.631439 8.803876 5.646377 4.835608 4.161849 5.223261 7.152557 7.327526 6.628124 7.769819 4.728496 8.509631 4.011643 6.817633 4.920262 5.04706 5.069588 7.455107 6.323136 8.271017 5.77456 5.886578 6.493084 8.128915 5.935275 7.951437 4.510295 5.54115 7.197833 8.294125 5.827567 7.375222 4.615239 5.104797 3.159067 8.673493 4.945285 7.640925 6.060456 2.78675 6.142808 3.901856 5.787333 8.880449 5.640007 5.840031 6.055529 4.363477 4.303786 7.410555 5.589441 5.586589 4.389405 7.643996 7.349369 4.398641 4.606465 6.194021 7.641512 7.478703 5.349084 4.230792 5.147299 5.101133 8.434201 4.380675 7.435472 4.936647 5.104431 5.527368 8.258196 5.693729 7.658527 3.386598 7.304864 7.312704 5.376175 6.488706 7.148916 5.145084 7.286579 5.214351 7.517982 6.986161 6.846421 5.34097 6.383677 5.373392 4.809394 5.733912 6.641387 8.339105 7.363885 5.336348 4.52533 6.513086 4.70135 3.032257 5.596312 5.436118 5.112652 5.107616 5.351911 8.102194 5.300823 7.165007 9.354593 7.004379 5.729169 5.916911 5.757714 4.77437 7.74435 4.550797 8.454229 3.941497 5.830672 5.184711 5.113079 4.684051 5.526968 3.002777 8.861175 4.676294 5.56796 5.43998 4.927038 5.401705 6.779515 7.365492 4.674706 5.752975 6.230852 6.552196 4.582639 10.33479 5.073249 5.325741 6.110752 8.353662 6.907645 4.720951 6.188364 2.846881 4.895427 4.430634 6.218987 5.526409 3.919152 5.252823 6.714348 5.896822 5.078477 5.288661 4.657 4.10083 4.71279 6.03285 8.167579 9.367351 3.659721 4.656907 7.23115 8.344618 7.57076 4.875807 5.283019 7.594935 4.836736 5.164692 4.868056 8.052043 4.942727 4.320636 7.213289 2.972162 4.889713 4.697455 6.230126 5.13553 6.294672 8.766374 4.415689 5.193365 7.44136 4.552042 10.69824 5.418513 4.988184 4.100077 7.450572 3.143122 5.623538 5.080539 ]
<!EndOfComponent> 
</Nnet> 
