<Nnet> 
<AddShift> 1024 1024 
<LearnRateCoef> 0  [ -0.01789545 -0.1871749 -0.1104659 -0.06810493 -0.1133704 -0.01946693 -0.1642485 -0.09486382 -0.06951009 -0.01801402 -0.08163614 -0.03071491 -0.1854849 -0.177738 -0.1123902 -0.1405739 -0.09160841 -0.1096033 -0.0556596 -0.07466249 -0.2671548 -0.05227212 -0.05695602 -0.04585928 -0.1308846 -0.1092649 -0.1878791 -0.116214 -0.1934862 -0.07620583 -0.1729071 -0.1850012 -0.1862424 -0.2330174 -0.0735634 -0.07508074 -0.02260092 -0.06550111 -0.2042979 -0.1108201 -0.04892024 -0.2756917 -0.1152095 -0.1547234 -0.1548575 -0.1316404 -0.1975467 -0.09003377 -0.1578133 -0.09875679 -0.1577383 -0.08881875 -0.1973076 -0.09885561 -0.1129667 -0.1108198 -0.02249659 -0.06020609 -0.1752399 -0.1800837 -0.1884966 -0.1595303 -0.1438711 -0.1340804 -0.09288827 -0.02528664 -0.1858108 -0.1433841 -0.1020618 -0.1796621 -0.02686897 -0.08949788 -0.1586428 -0.1951149 -0.1103036 -0.1770163 -0.1088249 -0.05127436 -0.0545729 -0.04961599 -0.1143893 -0.09764199 -0.041271 -0.03697544 -0.1776587 -0.08344706 -0.1989927 -0.2597902 -0.3015686 -0.2267389 -0.08444201 -0.07503112 -0.08793508 -0.107383 -0.1947803 -0.1136688 -0.0243373 -0.04473376 -0.2075995 -0.1496859 -0.1851331 -0.02968278 -0.09009564 -0.01579941 -0.1030772 -0.1929983 -0.06034152 -0.109363 -0.03984829 -0.06472868 -0.09628464 -0.07422031 -0.0311485 -0.04113302 -0.08899053 -0.2293888 -0.1161815 -0.1988671 -0.1567434 -0.1136783 -0.02342349 -0.05841583 -0.0853015 -0.1723869 -0.08116592 -0.05008032 -0.1944577 -0.03974487 -0.09362876 -0.1852486 -0.09616894 -0.1212925 -0.1980595 -0.02134065 -0.03183774 -0.2204257 -0.07609462 -0.1603911 -0.3194043 -0.01723721 -0.02174474 -0.08806287 -0.1699361 -0.1479252 -0.1887054 -0.1270115 -0.1825662 -0.1048991 -0.1937839 -0.07113565 -0.1183028 -0.1199093 -0.0816106 -0.03678044 -0.05007108 -0.09581533 -0.1531776 -0.05689945 -0.09397901 -0.1695605 -0.05265668 -0.07083877 -0.08904026 -0.1761688 -0.1530719 -0.1499468 -0.1913797 -0.01702897 -0.0466077 -0.06680547 -0.05179091 -0.09251524 -0.1943132 -0.1890404 -0.02481614 -0.03089365 -0.1317496 -0.1681805 -0.15751 -0.1624292 -0.0772394 -0.05505181 -0.09969906 -0.1777559 -0.1474253 -0.1276289 -0.318265 -0.1896775 -0.08908813 -0.05213003 -0.08364591 -0.04662165 -0.09755608 -0.1656987 -0.1439337 -0.1967346 -0.1767192 -0.1869299 -0.03943497 -0.08058099 -0.09172492 -0.08595935 -0.04024415 -0.05483555 -0.04980946 -0.1476292 -0.1771489 -0.06797549 -0.05440815 -0.2759877 -0.0978694 -0.2418949 -0.07309828 -0.1455388 -0.1473712 -0.3063963 -0.2176189 -0.04359531 -0.06464701 -0.1477869 -0.0820524 -0.3270668 -0.07639773 -0.05811682 -0.05258055 -0.05628843 -0.1908977 -0.1155384 -0.2173715 -0.07777339 -0.03067236 -0.04423923 -0.1908007 -0.07682376 -0.03278739 -0.04526794 -0.01428304 -0.1865073 -0.09264414 -0.09103153 -0.3071896 -0.1038352 -0.1379852 -0.02335365 -0.1623744 -0.1727713 -0.1099116 -0.0487076 -0.09861913 -0.08862523 -0.3365502 -0.02413779 -0.2426427 -0.1038427 -0.2097886 -0.1231014 -0.02244999 -0.08688034 -0.07492965 -0.1996679 -0.1097731 -0.1933568 -0.1153409 -0.03994869 -0.100873 -0.1369026 -0.01712074 -0.05188436 -0.1374536 -0.0639208 -0.1927756 -0.0703274 -0.1084634 -0.01988941 -0.2647971 -0.1686858 -0.1859022 -0.1310925 -0.1143248 -0.4288191 -0.1134371 -0.039926 -0.05114785 -0.1130778 -0.09141308 -0.1078407 -0.1679441 -0.05258251 -0.1356933 -0.06123597 -0.2547239 -0.02343063 -0.1246449 -0.1846466 -0.2363896 -0.07701495 -0.1147631 -0.1415782 -0.0334736 -0.05343935 -0.1278698 -0.1828489 -0.1974016 -0.02007368 -0.1777161 -0.1872033 -0.02441275 -0.3341731 -0.07063735 -0.1236017 -0.07745672 -0.1112349 -0.203318 -0.1679232 -0.09329111 -0.1640835 -0.186408 -0.06800304 -0.04713112 -0.1369045 -0.06304182 -0.09668167 -0.07794812 -0.1512796 -0.203362 -0.1803319 -0.195228 -0.04997002 -0.09432936 -0.1677058 -0.2727907 -0.1232533 -0.1719043 -0.2496998 -0.1978736 -0.1845658 -0.07999457 -0.1512011 -0.06694388 -0.03738046 -0.1780194 -0.1332595 -0.128004 -0.1100746 -0.07468064 -0.2103607 -0.2565356 -0.3082857 -0.1863806 -0.02891738 -0.1852477 -0.1821816 -0.1823472 -0.1118881 -0.2014594 -0.06185216 -0.1383018 -0.09735062 -0.09153224 -0.1802557 -0.2302001 -0.03234896 -0.3834623 -0.1238212 -0.0285498 -0.1242569 -0.09575076 -0.05338211 -0.2061967 -0.1635308 -0.03742371 -0.04570759 -0.03316366 -0.08753265 -0.1158837 -0.08356209 -0.03940439 -0.1893443 -0.1943992 -0.03875246 -0.05297571 -0.1537445 -0.02163149 -0.1155763 -0.08997507 -0.1998031 -0.19222 -0.1998184 -0.05026742 -0.1544868 -0.07927861 -0.1092255 -0.09612129 -0.2191044 -0.09586938 -0.09000087 -0.1379955 -0.0260617 -0.06834852 -0.02063929 -0.07955983 -0.02551383 -0.2003924 -0.02766152 -0.3955755 -0.03822058 -0.03601035 -0.08874899 -0.1099343 -0.2083797 -0.09052598 -0.221441 -0.06067727 -0.1739471 -0.1344387 -0.2619768 -0.1537787 -0.1116027 -0.1594813 -0.09298006 -0.05037845 -0.02652331 -0.08589751 -0.124858 -0.06971589 -0.08959884 -0.3144955 -0.185167 -0.1002373 -0.10872 -0.09592398 -0.1979887 -0.151024 -0.2443112 -0.2020508 -0.1634272 -0.1190988 -0.04444687 -0.1845617 -0.05658323 -0.08602875 -0.1396668 -0.1100043 -0.157242 -0.2073936 -0.08433291 -0.1226728 -0.07755082 -0.1875667 -0.101112 -0.1441513 -0.07612035 -0.08852102 -0.0197075 -0.1551064 -0.4832676 -0.201771 -0.09639713 -0.1554752 -0.3186934 -0.09204637 -0.02513736 -0.168648 -0.06202618 -0.09069452 -0.1592576 -0.09717948 -0.1778422 -0.08975422 -0.07738785 -0.1190422 -0.1179233 -0.07623809 -0.05975531 -0.1154688 -0.1227066 -0.1280429 -0.1863165 -0.06077255 -0.1095313 -0.1885882 -0.196212 -0.3402586 -0.02208065 -0.01728518 -0.1974095 -0.07940571 -0.2071569 -0.5025165 -0.1370279 -0.1000033 -0.03524115 -0.01283078 -0.1966617 -0.0213796 -0.1904933 -0.1924382 -0.1985263 -0.08638636 -0.05455524 -0.1482279 -0.08185808 -0.1496569 -0.3937656 -0.06729442 -0.1033222 -0.1874781 -0.1647089 -0.1028608 -0.1447375 -0.1179347 -0.1479995 -0.07366779 -0.1266293 -0.1358175 -0.05895534 -0.1892163 -0.03800966 -0.1371273 -0.2056517 -0.07751588 -0.1817693 -0.02755997 -0.04701338 -0.09675532 -0.07205731 -0.04175069 -0.2997888 -0.03654233 -0.1716875 -0.03997366 -0.07167962 -0.02384007 -0.1066132 -0.03987994 -0.06737572 -0.1145109 -0.08051658 -0.1152004 -0.1049692 -0.1092068 -0.0705573 -0.1917152 -0.03096193 -0.03004922 -0.1367049 -0.1171 -0.04745688 -0.2130168 -0.09381805 -0.06572118 -0.07906657 -0.05349372 -0.0347413 -0.09680257 -0.4524676 -0.1961195 -0.1936099 -0.04216143 -0.1960232 -0.06580021 -0.1923064 -0.07048988 -0.1418901 -0.06314125 -0.02813144 -0.1051945 -0.07055162 -0.113287 -0.1291354 -0.3401202 -0.1861849 -0.1883369 -0.01970899 -0.1640297 -0.1929069 -0.07553014 -0.02369393 -0.02288887 -0.1909236 -0.1160236 -0.05536816 -0.09239016 -0.06132742 -0.02845601 -0.1291594 -0.301843 -0.0284734 -0.02191112 -0.04003169 -0.172758 -0.04998074 -0.09156553 -0.1872508 -0.05483075 -0.2371905 -0.1893536 -0.02636882 -0.1092996 -0.1181638 -0.02332962 -0.1260262 -0.03884133 -0.2911968 -0.114109 -0.1340555 -0.05308245 -0.1158066 -0.0284632 -0.02277589 -0.1922037 -0.04328046 -0.1624278 -0.1419104 -0.06484121 -0.04420645 -0.07484335 -0.03972271 -0.1094786 -0.03676025 -0.1962177 -0.1949975 -0.1778533 -0.07059126 -0.1965817 -0.02156399 -0.1596306 -0.02904632 -0.1963676 -0.05391176 -0.02626823 -0.1937653 -0.1306057 -0.1558408 -0.04281349 -0.098476 -0.1600016 -0.1966698 -0.04675872 -0.1069574 -0.1127087 -0.1612743 -0.1016597 -0.225883 -0.03567768 -0.05674462 -0.1105966 -0.1986583 -0.05106528 -0.1758483 -0.1513364 -0.04937628 -0.2102675 -0.01744003 -0.1315113 -0.1552091 -0.05726221 -0.0582545 -0.101915 -0.1237158 -0.06565391 -0.1834298 -0.1174171 -0.1777478 -0.08085489 -0.1929381 -0.1791224 -0.05683219 -0.07041797 -0.1089967 -0.1066545 -0.1980315 -0.07044993 -0.05485898 -0.3719437 -0.1078405 -0.2408296 -0.02931878 -0.1069701 -0.01898205 -0.336841 -0.2148448 -0.1551536 -0.2006047 -0.1862897 -0.06840604 -0.1659821 -0.02444581 -0.0764811 -0.09806853 -0.03465012 -0.1402069 -0.122652 -0.03528578 -0.06206477 -0.1972574 -0.02228319 -0.09283193 -0.1002975 -0.2386013 -0.1538282 -0.1875528 -0.1057862 -0.09944872 -0.108708 -0.06837703 -0.1060711 -0.1156213 -0.04054284 -0.1353135 -0.03540928 -0.1846945 -0.1040105 -0.06463779 -0.3055369 -0.1359123 -0.01997899 -0.09847531 -0.04217644 -0.1031378 -0.0654953 -0.1884352 -0.0684582 -0.1090657 -0.1773142 -0.1865253 -0.1026505 -0.05245794 -0.1324787 -0.1051384 -0.1969924 -0.1516553 -0.0530642 -0.07033096 -0.08550889 -0.2512443 -0.200372 -0.2739899 -0.1734705 -0.04671009 -0.1569895 -0.1598552 -0.08983131 -0.1467498 -0.05752319 -0.0929445 -0.2450633 -0.0363359 -0.02892373 -0.1291432 -0.1231293 -0.1074453 -0.02092137 -0.2018535 -0.05901776 -0.1641046 -0.08280335 -0.1924657 -0.1867334 -0.05642532 -0.1090081 -0.1001152 -0.1355402 -0.07840347 -0.03987223 -0.1992809 -0.06374533 -0.02255742 -0.1047266 -0.1895706 -0.3100272 -0.1287948 -0.1284934 -0.1045135 -0.14501 -0.2117514 -0.1696078 -0.2040382 -0.2009361 -0.1537106 -0.1705041 -0.1865883 -0.1676253 -0.2006087 -0.1009525 -0.03194243 -0.1018364 -0.03126905 -0.06258718 -0.1776831 -0.2544449 -0.1606029 -0.06405602 -0.06262873 -0.06657339 -0.09883106 -0.1920006 -0.01710473 -0.02762217 -0.1006246 -0.08107729 -0.1353151 -0.041771 -0.05485966 -0.02033799 -0.05737135 -0.05832411 -0.2265518 -0.03355867 -0.3347406 -0.2683224 -0.1074168 -0.04374573 -0.1915444 -0.05825377 -0.06657444 -0.1792349 -0.06845258 -0.05925903 -0.1968152 -0.02003617 -0.3232889 -0.1693396 -0.04276228 -0.1664966 -0.1098651 -0.05562002 -0.04327762 -0.0243992 -0.08408009 -0.02174124 -0.1420349 -0.08423733 -0.0771254 -0.09781327 -0.02354898 -0.04284526 -0.05672631 -0.1517524 -0.05615451 -0.07150997 -0.2879851 -0.1551565 -0.02357004 -0.02345318 -0.1947034 -0.07740777 -0.169333 -0.1920022 -0.1319435 -0.1829947 -0.163123 -0.0614108 -0.159384 -0.04023846 -0.184855 -0.170424 -0.1043115 -0.05507014 -0.1109985 -0.1916848 -0.1811431 -0.04445323 -0.02142939 -0.1043631 -0.1760728 -0.08047669 -0.03280004 -0.02840905 -0.08287454 -0.1031603 -0.1232896 -0.08809641 -0.3288959 -0.07267348 -0.02479676 -0.09708629 -0.05459356 -0.1406779 -0.158864 -0.1282562 -0.09768131 -0.04483066 -0.1086562 -0.1845778 -0.04813822 -0.02396634 -0.1287337 -0.1317327 -0.07612287 -0.02128142 -0.02617471 -0.4584376 -0.06064383 -0.1306847 -0.1582606 -0.09800947 -0.02809961 -0.09966961 -0.203421 -0.1584041 -0.08922088 -0.1618505 -0.1860581 -0.03673823 -0.1169597 -0.02015057 -0.04240466 -0.1870808 -0.111397 -0.09813798 -0.1812823 -0.2147011 -0.1258363 -0.1204398 -0.1180993 -0.0235495 -0.08059397 -0.02793628 -0.09575238 -0.1892896 -0.3356119 -0.09625451 -0.07283794 -0.1624332 -0.2572444 -0.1087484 -0.1530262 -0.02846372 -0.1722273 -0.1890615 -0.04096813 -0.09762664 -0.1309544 -0.1941655 -0.05687062 -0.03891973 -0.1405088 -0.06205249 -0.1206111 -0.1985345 -0.04748742 -0.1029667 -0.06321605 -0.03033321 -0.04167115 -0.1420739 -0.1942301 -0.3599698 -0.01794427 -0.4404231 -0.1223929 -0.1988999 -0.06856792 -0.05586872 -0.02473509 -0.09842681 -0.09388465 -0.1342714 -0.07549656 -0.07936067 -0.02972987 -0.1300496 -0.04818336 -0.03025026 -0.0556867 -0.213377 -0.1222883 -0.07340609 -0.02444909 -0.0559964 -0.1035352 -0.07273363 -0.1582159 -0.03363689 -0.04153323 -0.1582259 -0.1438541 -0.1365795 -0.1201571 -0.10511 -0.1971386 -0.02681834 -0.1097535 -0.1906457 -0.1800056 -0.1127629 -0.05736883 -0.1884796 -0.0789037 -0.1694604 -0.182799 -0.04834428 -0.03858287 -0.02560466 -0.05411865 -0.02825404 -0.1285818 -0.08820425 -0.06848576 -0.1721224 -0.03978821 -0.1237587 -0.07499179 -0.02611387 -0.1455205 -0.1996949 -0.1479253 -0.03402062 -0.1061589 -0.07470607 -0.06039331 -0.06556096 -0.1599331 -0.08442985 -0.06334896 -0.1788937 -0.3247262 -0.04492815 -0.1598849 -0.1408218 -0.07398447 -0.0765944 -0.1173805 ]
<!EndOfComponent> 
<Rescale> 1024 1024 
<LearnRateCoef> 0  [ 10.87585 4.108787 5.85082 6.977047 5.019937 10.48049 4.947545 5.824018 6.077334 10.5604 6.942845 9.129053 4.25327 4.210369 5.216905 5.387535 6.557401 5.198686 7.633519 6.632935 3.315959 5.85118 7.523765 8.364213 4.434451 5.823563 4.015882 5.020512 3.881221 6.08948 4.515354 3.491649 4.267165 3.061408 4.756111 5.84108 9.538747 6.745682 4.008009 5.221951 7.192445 2.937301 5.216922 5.662106 3.527025 5.331857 4.188441 5.245882 4.750567 5.332349 4.394883 5.881352 4.085703 6.035366 4.917177 5.452859 9.385613 6.747663 3.892819 4.48163 4.329852 4.139772 4.733333 4.868512 5.721571 9.284224 3.576441 4.925283 6.53809 4.330442 9.671912 4.349793 4.216764 4.120674 6.780923 4.213051 4.024969 6.463464 8.418445 7.307802 5.046396 5.48498 6.496003 8.338863 4.603668 4.84969 4.138582 3.137034 2.54476 3.1053 6.401947 7.562257 6.047914 5.992142 4.087876 5.112689 9.950913 6.588574 3.388912 4.165576 4.276283 7.419959 7.218407 10.87242 5.699152 4.024307 10.34808 4.644836 9.314209 7.282293 5.856632 5.730048 7.913732 7.993598 5.101189 3.691075 4.772954 3.819208 4.551959 4.914288 9.496869 7.805998 6.229472 4.488187 7.198583 7.040985 3.567398 7.183793 5.854053 4.105888 6.483232 5.061614 4.031354 10.26912 7.910673 3.169889 4.553173 4.27329 2.389827 10.63299 9.617414 4.995805 4.649618 4.366204 4.101776 3.930918 4.50807 4.005951 4.22717 7.200532 5.544151 4.780913 7.338995 8.12841 8.634409 5.350597 4.352646 6.1264 5.841821 4.501287 7.971059 7.300246 5.80879 3.878236 5.226871 4.061371 4.081269 11.69745 8.748133 6.187337 8.787285 5.202867 4.022392 3.766372 10.54657 7.982387 4.732814 3.300303 3.867315 4.493698 6.404726 6.116394 4.674552 4.2639 4.076922 4.385679 2.829108 4.394368 5.011432 8.609078 4.907073 8.340029 4.813539 4.552391 4.924746 4.127292 4.15682 3.307736 8.23312 5.683782 6.554035 5.475304 8.271269 5.582875 6.391511 4.252252 4.59289 5.064211 8.886822 2.587151 5.975195 3.285488 5.221331 4.377519 5.245924 2.750907 3.96224 8.431267 5.874814 5.297891 4.686631 2.824452 7.17058 5.727181 5.825013 5.827366 4.203543 5.192711 3.855982 5.759237 7.43757 6.933988 3.925677 4.895612 9.959761 8.847178 11.27637 4.250828 6.116942 5.247987 2.572793 6.400419 4.361537 9.308408 4.456726 3.356891 5.88881 9.011969 4.802792 5.844359 2.859466 8.482873 3.198114 5.426926 3.818035 5.29001 8.899484 6.007552 6.013741 4.039512 4.619002 3.869175 5.116843 6.493281 5.432873 3.91589 11.02007 5.618024 4.25352 6.671585 4.168209 7.581195 5.393022 11.23359 3.033064 4.835952 4.266601 4.801069 5.064526 2.534538 4.554384 8.670696 9.156159 4.833027 5.617355 5.633866 4.210509 8.748635 3.647201 6.660568 3.188314 9.964964 5.134223 4.265434 3.011247 6.266764 5.629236 5.445073 6.903358 5.705829 4.703474 4.042931 4.096653 9.815326 4.55827 4.229106 8.770342 2.905166 6.565947 4.704573 7.753538 5.026443 3.904075 4.580363 5.950692 5.175281 3.412799 6.097404 6.827967 4.937696 8.865267 5.559521 6.205882 4.716555 3.494946 4.241786 3.467691 5.708818 4.782732 4.633464 2.944837 5.268286 4.570645 2.95807 4.123397 4.28826 4.805421 4.734079 5.288637 6.685288 4.130273 4.349587 4.343587 5.464475 7.358286 3.767934 3.054261 2.758086 4.180532 9.131877 4.165762 4.518052 4.451609 4.001294 4.074798 8.965401 4.916667 6.046027 5.684471 4.221629 3.464267 9.079265 2.694702 5.265006 9.287499 5.374453 5.675374 7.998687 3.912897 4.432762 7.651338 8.677452 8.880071 6.896847 4.52984 6.06185 7.244831 4.092637 3.724867 7.256264 7.167574 4.141689 8.815221 4.129801 6.733268 4.211553 4.289017 4.070753 6.234055 4.948844 4.40327 4.68788 4.99784 2.963939 6.002309 6.306458 4.555256 8.944134 6.612235 9.029668 7.171569 9.510837 4.139206 8.851542 2.944024 7.564196 8.841831 5.358183 5.963876 3.747006 6.673013 3.384713 7.321547 3.597147 4.356557 3.045577 5.104969 5.283203 4.701409 5.854689 7.78457 8.872606 5.574409 4.919923 7.040347 5.864217 2.430545 4.297509 5.497116 5.014164 5.043644 4.147023 4.902408 2.959273 3.767435 4.137987 4.655503 9.371693 3.936002 7.072748 6.937147 5.161396 5.190395 4.543876 3.730021 5.59573 4.642093 4.483568 4.099007 6.261537 4.481963 7.075709 4.657342 10.12444 4.359914 2.615807 4.149921 5.711872 4.829734 2.661476 4.967947 9.186315 4.631134 8.282704 5.007397 4.739254 4.145674 3.910503 5.117075 7.479213 5.3708 5.545481 4.949412 6.5983 5.468946 5.464765 4.142787 4.304451 9.814434 5.535601 4.202651 4.127238 2.882089 9.64341 10.52205 4.207162 6.582354 3.814204 2.58084 4.267012 4.155486 9.630904 11.88355 3.779914 8.909907 4.312508 4.109879 4.096539 5.12675 8.028356 5.080546 5.205143 4.084924 2.592702 6.225527 5.264037 4.41425 4.876254 6.057326 5.057511 5.618464 4.584499 5.686329 4.188288 4.144693 6.987711 4.40978 8.044519 4.647766 3.890997 4.92352 3.753537 8.366011 6.8975 4.366435 5.378971 8.171746 2.822861 8.45041 3.526243 6.82744 5.562731 10.9765 4.603968 7.266325 5.205248 5.286959 5.927085 5.379381 5.274639 4.122405 7.212483 3.767887 10.34225 8.792197 4.368304 5.796533 8.295013 3.63573 5.851149 6.095754 5.785199 8.473284 7.856622 6.961873 2.59616 4.166741 4.142759 8.249578 4.2438 5.611464 4.293767 6.717524 3.997362 5.266895 8.278296 4.974071 6.67347 5.33886 4.930329 2.837628 4.125768 4.255706 9.490256 4.540751 4.13378 6.365559 8.877259 9.526719 4.341217 5.790642 6.667418 5.383839 7.616552 9.014113 4.378427 2.981065 8.076876 9.879197 8.400229 4.406759 8.433887 5.843073 4.185044 7.551411 3.233861 4.274222 8.074858 4.96078 5.0342 9.603915 4.640167 8.51383 2.938962 4.943198 4.952973 8.121858 5.242238 9.390658 8.703907 4.214604 7.442905 4.579589 5.032495 6.385154 7.681114 5.706136 7.816821 5.19902 6.894711 4.321827 4.018507 4.457468 5.298847 4.027812 9.370519 4.69058 7.370307 3.899387 6.051363 9.64497 3.947918 5.377342 5.242264 8.326996 5.920768 4.457267 4.166608 8.575534 4.155416 5.03701 4.642445 5.24961 3.165741 7.1323 7.449393 5.27744 4.145626 8.044189 3.970849 4.717039 8.814191 3.338264 11.59556 4.864359 4.526034 8.629276 8.039618 5.454616 5.354251 5.548856 4.046725 4.808545 4.534204 5.759042 4.167259 4.168012 8.139245 6.258954 3.857518 4.693985 4.151383 8.826224 7.878148 2.727914 5.299073 3.051571 8.921197 5.555939 10.27345 2.76615 3.607581 3.887532 4.202015 4.161543 7.21953 4.620189 8.178843 5.760386 5.374842 6.789788 4.475839 5.489758 7.039747 6.778183 3.993122 11.50698 6.107057 4.136011 3.371271 3.951955 4.15435 5.237949 5.171917 5.240455 7.203362 5.732201 4.778271 6.967837 4.805452 8.055986 4.158045 5.463512 6.481964 2.79637 4.346492 9.745324 5.32877 7.297403 5.464279 6.874242 4.304963 5.716277 5.022596 4.361893 4.281702 4.975827 7.731139 5.130051 6.40359 4.176422 4.328363 7.470945 5.598245 5.768376 3.263422 3.966545 2.633377 4.042213 7.517972 4.689915 4.235026 5.216686 4.986814 9.490068 4.229228 3.052535 10.73247 8.895174 4.857976 4.668888 4.702111 9.817177 4.167801 6.769616 4.400357 5.49868 3.74965 4.319259 8.00982 4.884418 5.988065 4.024012 7.789293 6.305634 3.953071 6.379673 9.135182 4.655961 4.001483 2.908729 6.141297 3.894557 4.606696 5.000247 3.838136 4.710583 3.552138 3.204999 4.293766 3.899189 3.140826 4.529295 4.01067 5.452295 9.935803 7.962849 8.898886 5.710022 4.093527 3.182444 4.188497 5.921834 5.557743 7.112975 5.162014 4.020905 11.21208 9.857561 6.805701 4.429806 5.445502 6.624884 8.846836 9.664265 6.326012 6.314355 3.896114 7.20139 2.955086 3.034143 6.107579 8.427361 4.357846 7.090264 5.142198 3.714064 7.684464 8.937108 4.226992 9.629953 2.589174 4.610283 8.093633 5.156602 4.033848 7.137314 8.758563 8.927711 6.45932 9.326956 4.848568 4.789022 5.059181 5.449582 8.868632 6.922345 5.896466 4.273935 5.764092 7.098925 3.047203 4.270336 9.291842 9.179028 4.263952 6.339158 4.644933 4.277175 4.368199 4.384042 4.838912 5.446361 4.115407 8.419394 3.848239 4.569888 5.393945 7.996174 4.906354 4.239265 3.626725 6.63415 9.880357 4.709522 4.515464 5.92432 7.425361 9.46785 4.53306 4.001376 5.086158 6.09513 2.420652 4.917006 9.107116 4.683263 6.570901 4.719009 4.354464 4.980871 4.392394 6.250906 5.704527 4.086395 6.381003 8.614874 5.286191 4.52885 4.72089 8.496551 8.265059 2.637302 5.364933 5.350175 3.509322 5.515162 7.875016 5.786955 3.939808 4.266625 5.89368 4.957153 4.287144 6.822111 5.481322 10.15739 7.200011 4.180608 5.720228 5.383661 4.381188 3.649462 5.975296 4.745181 4.747948 9.189327 5.757399 7.789991 5.031968 4.104666 2.827972 6.402223 7.640388 4.016252 2.951076 6.228545 4.616119 11.16317 4.536922 4.040578 6.486475 6.025665 4.750292 4.270142 8.383726 8.819598 3.56033 7.303793 4.697558 4.159604 8.298986 4.848922 6.371403 8.626093 7.560062 3.473228 4.216911 2.812898 10.31158 2.585231 4.597151 4.05104 6.990186 8.341231 10.44079 5.850774 5.926166 4.349414 7.367663 6.427855 8.377557 5.287244 8.569412 8.461933 5.798897 3.74236 5.601567 5.728818 8.716181 7.613391 5.317331 5.729135 3.9796 6.911174 8.013836 4.16485 4.712811 5.109113 4.369978 4.799208 4.155557 8.93389 4.900099 4.210803 4.116985 5.019047 7.014826 4.258611 5.477234 3.395708 4.195502 8.186225 6.580189 10.00942 9.112664 8.054349 5.017014 5.306301 7.478421 4.616452 9.205248 5.386646 4.997178 7.969566 4.778641 4.226581 4.90714 6.983886 4.806609 5.781472 8.244214 5.192483 3.693458 6.02495 6.555447 4.075643 2.858148 8.003023 4.853054 5.20766 5.202458 4.691613 5.105037 ]
<!EndOfComponent> 
</Nnet> 
