<Nnet> 
<AddShift> 1024 1024 
<LearnRateCoef> 0  [ -0.09470971 -0.1050124 -0.1937559 -0.1211218 -0.1469774 -0.1427927 -0.1559111 -0.109163 -0.1004896 -0.1304565 -0.1174274 -0.1545042 -0.08485483 -0.1078509 -0.1653305 -0.1042234 -0.09829357 -0.156338 -0.1389409 -0.1035685 -0.09660558 -0.0982682 -0.1095244 -0.1067475 -0.3070053 -0.06224223 -0.1442542 -0.1928892 -0.1354772 -0.1196832 -0.1470592 -0.08002159 -0.1315223 -0.1062554 -0.1492884 -0.2228773 -0.1294248 -0.1234788 -0.09745827 -0.09139938 -0.09215396 -0.1044209 -0.1341821 -0.1903929 -0.1175151 -0.176498 -0.1683954 -0.1317492 -0.1736134 -0.1072154 -0.1552556 -0.1590353 -0.172463 -0.1246358 -0.1374315 -0.112975 -0.08118105 -0.1252783 -0.1868331 -0.08729804 -0.07904024 -0.1913645 -0.0885165 -0.1256272 -0.2401927 -0.1120682 -0.1325578 -0.1832738 -0.1905269 -0.08505031 -0.08904436 -0.11691 -0.09738335 -0.1248127 -0.2285665 -0.1090489 -0.1581678 -0.05062545 -0.1580845 -0.1252718 -0.1733522 -0.1137984 -0.1083348 -0.1423578 -0.1068158 -0.1525261 -0.1782118 -0.08159902 -0.1022211 -0.1524451 -0.1241056 -0.1158872 -0.1289639 -0.1663383 -0.1026105 -0.1505456 -0.1939988 -0.072104 -0.1575448 -0.1368437 -0.1100864 -0.1611276 -0.1245377 -0.1201535 -0.1472307 -0.1230949 -0.178112 -0.1219215 -0.0952164 -0.1493831 -0.09044769 -0.1503141 -0.176052 -0.142575 -0.1555798 -0.1707301 -0.1102711 -0.1417889 -0.1363399 -0.1503847 -0.3840594 -0.08955258 -0.1160704 -0.09162328 -0.1455185 -0.07231792 -0.132999 -0.1572648 -0.1371617 -0.1446467 -0.1261317 -0.1125495 -0.1615043 -0.1592177 -0.132734 -0.1624906 -0.07921761 -0.09733539 -0.1235971 -0.151729 -0.3313205 -0.09300531 -0.161835 -0.108509 -0.2072916 -0.1893655 -0.1178601 -0.07472987 -0.1181094 -0.09456606 -0.1087568 -0.1535576 -0.1291689 -0.1965178 -0.04817595 -0.1303006 -0.1462015 -0.1114385 -0.128041 -0.1083159 -0.135664 -0.1282511 -0.157402 -0.1096025 -0.1256442 -0.1733006 -0.1105861 -0.1311572 -0.1165816 -0.1228026 -0.1926161 -0.1339079 -0.1239884 -0.1778708 -0.1677993 -0.1282547 -0.1107429 -0.1598479 -0.1341229 -0.1308627 -0.1474167 -0.173566 -0.174257 -0.1054557 -0.1668626 -0.1173012 -0.1339545 -0.1865962 -0.07288492 -0.1835435 -0.1464913 -0.1506208 -0.1034428 -0.1796249 -0.1000721 -0.1289948 -0.137727 -0.1240775 -0.09130602 -0.1141996 -0.1628566 -0.1324105 -0.15365 -0.1636136 -0.1199156 -0.1617536 -0.1061057 -0.09591576 -0.1826572 -0.08382738 -0.1612554 -0.2844359 -0.1085551 -0.09523665 -0.1577605 -0.1472187 -0.1493697 -0.1170173 -0.1567939 -0.1451635 -0.0971385 -0.1337262 -0.1510376 -0.1668941 -0.1795056 -0.1488789 -0.1511805 -0.139683 -0.1028141 -0.1219724 -0.1223185 -0.1045145 -0.09331561 -0.1673972 -0.08731904 -0.1338072 -0.1467987 -0.1033039 -0.09641603 -0.1382678 -0.2770951 -0.1896705 -0.2292138 -0.1005142 -0.1961557 -0.2096367 -0.1118447 -0.127094 -0.125473 -0.1250895 -0.1939806 -0.1128925 -0.1890751 -0.1371221 -0.244326 -0.101782 -0.08524095 -0.1019992 -0.1172044 -0.1170477 -0.1641718 -0.1537892 -0.1248717 -0.06869256 -0.144138 -0.1078213 -0.1203676 -0.1996774 -0.1629595 -0.09820654 -0.09468853 -0.1073586 -0.1769681 -0.09240609 -0.1076292 -0.06837859 -0.1164371 -0.1722059 -0.09467301 -0.1446643 -0.1537788 -0.1327139 -0.1824761 -0.1594802 -0.4609574 -0.1531468 -0.2782135 -0.0925086 -0.1898213 -0.1487063 -0.08425517 -0.1389546 -0.146126 -0.08739983 -0.08521804 -0.1546471 -0.1256772 -0.09367223 -0.1419135 -0.1612529 -0.2552617 -0.0679343 -0.158645 -0.1332295 -0.1012097 -0.09634013 -0.1142241 -0.1471797 -0.1644278 -0.1150725 -0.1567489 -0.1563076 -0.1174356 -0.1043411 -0.08479857 -0.1733485 -0.1049908 -0.15636 -0.1322763 -0.121565 -0.1369118 -0.1694416 -0.1699271 -0.1066031 -0.09680256 -0.1212624 -0.1115132 -0.1440107 -0.04692747 -0.1578776 -0.0881403 -0.09700942 -0.1633751 -0.1634876 -0.1341113 -0.05630051 -0.1192912 -0.1211282 -0.07421754 -0.1158108 -0.1363019 -0.1253959 -0.1541634 -0.182293 -0.08762576 -0.108505 -0.1246917 -0.1163828 -0.1566035 -0.1615815 -0.08537911 -0.1502249 -0.1984844 -0.08764179 -0.1184674 -0.1175721 -0.1247316 -0.2574705 -0.2146378 -0.1278452 -0.1111816 -0.1168448 -0.1251637 -0.1644844 -0.1359349 -0.1340788 -0.121367 -0.1433575 -0.06240149 -0.1150438 -0.1409567 -0.1029487 -0.1147529 -0.2141423 -0.1675535 -0.1941429 -0.1242247 -0.1064478 -0.1516511 -0.1057012 -0.1213469 -0.1192966 -0.04834364 -0.129801 -0.1289224 -0.1346443 -0.092344 -0.1595049 -0.07225462 -0.1376823 -0.1255547 -0.2260759 -0.2084356 -0.1177302 -0.1322912 -0.09844909 -0.1456811 -0.1096645 -0.1900357 -0.1140681 -0.1784739 -0.1217809 -0.1518499 -0.08654919 -0.08111746 -0.1841515 -0.1212413 -0.1213379 -0.1328686 -0.09799652 -0.09918839 -0.1505559 -0.08903622 -0.1236363 -0.1371479 -0.1733328 -0.1654811 -0.2114296 -0.09210074 -0.1147073 -0.1436228 -0.07367762 -0.1521405 -0.1919028 -0.13862 -0.1431264 -0.1445618 -0.07370353 -0.08795603 -0.1810221 -0.1347678 -0.1256597 -0.08709693 -0.1324863 -0.2250576 -0.1380176 -0.1932726 -0.1342251 -0.1206509 -0.08134944 -0.07651674 -0.1363238 -0.1418265 -0.4529833 -0.144079 -0.1496884 -0.2133885 -0.1207675 -0.1126092 -0.1093168 -0.1060555 -0.08780877 -0.1540501 -0.1507873 -0.1209821 -0.110184 -0.1547581 -0.1132829 -0.1058555 -0.1366976 -0.1105542 -0.1500599 -0.08631118 -0.1242866 -0.1571783 -0.2162572 -0.1367871 -0.1254205 -0.1212449 -0.1359382 -0.08447894 -0.04299366 -0.1311353 -0.16493 -0.1457547 -0.1071033 -0.1909336 -0.1989356 -0.1164132 -0.09211636 -0.1248887 -0.122339 -0.1039208 -0.1428237 -0.1896628 -0.1496492 -0.1499293 -0.1395965 -0.1923306 -0.1745605 -0.09825251 -0.134376 -0.1014349 -0.1376209 -0.1500656 -0.151875 -0.1603867 -0.1498699 -0.1651531 -0.1177397 -0.1877355 -0.1586284 -0.1669285 -0.07993829 -0.1268453 -0.1553774 -0.05070506 -0.09854095 -0.1083427 -0.1447486 -0.0916047 -0.2306743 -0.1368558 -0.1353498 -0.09871844 -0.0995314 -0.1250496 -0.1265622 -0.1669491 -0.128725 -0.1285463 -0.09503157 -0.1608125 -0.1830031 -0.09815921 -0.07595526 -0.1626576 -0.1034301 -0.126257 -0.1006016 -0.110354 -0.09137698 -0.218766 -0.06403749 -0.101639 -0.1639755 -0.2281473 -0.1315375 -0.1298911 -0.1304338 -0.09627341 -0.08205307 -0.186437 -0.145095 -0.1467227 -0.1318012 -0.1231473 -0.1045392 -0.1445353 -0.06168753 -0.3334475 -0.1277184 -0.09535328 -0.1823643 -0.194381 -0.1649212 -0.1512707 -0.1121462 -0.1128515 -0.03837318 -0.149117 -0.1552949 -0.1084837 -0.1729089 -0.1293044 -0.1295709 -0.1347653 -0.1527727 -0.1802353 -0.09279047 -0.1345711 -0.1163553 -0.08558092 -0.1190416 -0.1487027 -0.1240884 -0.09610286 -0.1182065 -0.2070794 -0.1258147 -0.1439931 -0.111167 -0.03789517 -0.09983489 -0.1805871 -0.1003244 -0.1699005 -0.1467072 -0.08124166 -0.08159961 -0.1120751 -0.06807695 -0.1014458 -0.08176675 -0.1467298 -0.1234713 -0.1141052 -0.09382112 -0.1102188 -0.1126156 -0.1692035 -0.1377407 -0.1325376 -0.158845 -0.1930024 -0.1470724 -0.08267581 -0.3012341 -0.1707344 -0.1328438 -0.1031914 -0.1471024 -0.1796722 -0.1316965 -0.1339526 -0.07511505 -0.1023718 -0.07291339 -0.1715966 -0.1385776 -0.1398489 -0.1119866 -0.1040281 -0.1129885 -0.1830162 -0.1348721 -0.1256255 -0.09822314 -0.2251709 -0.09985261 -0.1483395 -0.1342925 -0.1377111 -0.1223787 -0.1334982 -0.1396745 -0.1348747 -0.1001807 -0.1649963 -0.1468994 -0.1592989 -0.1344498 -0.1297867 -0.2757174 -0.1615702 -0.1380863 -0.2605819 -0.1782777 -0.1404199 -0.1596272 -0.1057453 -0.09006714 -0.1110705 -0.1262685 -0.1296352 -0.1139454 -0.1243368 -0.107535 -0.1081064 -0.1123337 -0.1361118 -0.07536787 -0.1183589 -0.1257384 -0.1225766 -0.1324187 -0.1526737 -0.1302825 -0.1087156 -0.1017155 -0.1632313 -0.08276632 -0.1074101 -0.1009322 -0.1553577 -0.1265494 -0.1121902 -0.1218966 -0.107754 -0.09363627 -0.1529695 -0.1048715 -0.1820643 -0.1668694 -0.1235364 -0.1212943 -0.0656812 -0.0916061 -0.1796025 -0.1313304 -0.16098 -0.02919354 -0.1149966 -0.1382944 -0.08143672 -0.1244147 -0.01740129 -0.1000054 -0.1870961 -0.1145063 -0.0565383 -0.1374488 -0.1734482 -0.1198836 -0.1028425 -0.1378703 -0.1548494 -0.07546861 -0.1674172 -0.2624028 -0.1722008 -0.08446198 -0.1262278 -0.1307533 -0.1533584 -0.1061425 -0.1386729 -0.07753018 -0.1391017 -0.09489249 -0.1453011 -0.1889154 -0.09281465 -0.1087534 -0.1373259 -0.118919 -0.2031591 -0.1336627 -0.07472999 -0.1156514 -0.1259943 -0.1230303 -0.1432613 -0.1481621 -0.09518902 -0.1349241 -0.1629303 -0.1971534 -0.1312691 -0.1341076 -0.15023 -0.1741578 -0.2942973 -0.144239 -0.257147 -0.1698344 -0.1869752 -0.1137697 -0.1490051 -0.09490587 -0.1012877 -0.1139451 -0.1494699 -0.1215076 -0.0879401 -0.1777873 -0.1307127 -0.06373699 -0.1366921 -0.3125311 -0.1040476 -0.1351539 -0.1190323 -0.1120659 -0.1006033 -0.1440512 -0.1384303 -0.1512333 -0.07506517 -0.0819627 -0.08591227 -0.1156323 -0.14953 -0.1978298 -0.1613359 -0.1401325 -0.1228802 -0.147573 -0.1060899 -0.2901874 -0.1091066 -0.1218521 -0.1118622 -0.09260913 -0.1790791 -0.129986 -0.05226565 -0.1598926 -0.1184078 -0.1249627 -0.2348161 -0.1107081 -0.08594864 -0.171247 -0.1348322 -0.1393437 -0.1592229 -0.1286698 -0.09876275 -0.16527 -0.142869 -0.187364 -0.1649372 -0.1015773 -0.08054446 -0.09625457 -0.1338671 -0.09493527 -0.1109226 -0.1511637 -0.1623514 -0.2030665 -0.1661564 -0.1984853 -0.1291105 -0.1264168 -0.1220075 -0.1656185 -0.1506176 -0.09526194 -0.144213 -0.1271471 -0.1318953 -0.1277059 -0.1830035 -0.1753948 -0.1091645 -0.1573975 -0.1322478 -0.2458353 -0.1672176 -0.08125837 -0.1351254 -0.1221461 -0.09696032 -0.165356 -0.1531017 -0.07615206 -0.1526735 -0.103095 -0.1017702 -0.1016604 -0.1098524 -0.1039056 -0.1656113 -0.1485287 -0.1670085 -0.1354322 -0.1049979 -0.1629482 -0.1298611 -0.1714566 -0.1308604 -0.08179539 -0.297092 -0.1727769 -0.2174291 -0.1350232 -0.160673 -0.1315564 -0.08877954 -0.1135436 -0.127606 -0.1085856 -0.1670356 -0.1306869 -0.1271348 -0.1365412 -0.1176302 -0.09163053 -0.1833024 -0.170749 -0.1297596 -0.09483403 -0.08346714 -0.1342365 -0.1222253 -0.2274538 -0.1235317 -0.1678602 -0.1157447 -0.1668426 -0.1090232 -0.09936651 -0.1092364 -0.1177154 -0.1418666 -0.186947 -0.1170739 -0.2038102 -0.07160386 -0.07943819 -0.1505129 -0.1928279 -0.1375781 -0.114139 -0.1572384 -0.1182339 -0.1738869 -0.1131281 -0.1691608 -0.1332068 -0.1242183 -0.1022696 -0.1430649 -0.1586142 -0.09398845 -0.1416575 -0.1226738 -0.1202131 -0.1386636 -0.148753 -0.2513888 -0.1090579 -0.1234618 -0.1045194 -0.1457015 -0.1053243 -0.1183461 -0.1520681 -0.1234047 -0.1167627 -0.1391202 -0.2687568 -0.07875495 -0.1306003 -0.1811207 -0.1456324 -0.187517 -0.124878 -0.02535558 -0.03401618 -0.1481149 -0.1401152 -0.1350643 -0.1555519 -0.1645483 -0.1071158 -0.0847902 -0.1603975 -0.147872 -0.2031569 -0.1070258 -0.1190234 -0.1492153 -0.1384954 -0.2029661 -0.1329271 -0.1500992 -0.2017585 -0.1402741 -0.1013742 -0.1039416 -0.1238347 -0.1329036 -0.07253765 -0.1688361 -0.1474912 -0.142662 -0.09226369 -0.1310716 -0.1828875 -0.1441558 -0.1248747 -0.1464135 -0.1353979 -0.09889999 -0.1131273 -0.1421571 -0.1409916 -0.1616767 -0.1161596 -0.1115672 -0.09508961 -0.17482 -0.1513848 -0.1530355 -0.1427409 -0.07285893 -0.1277003 -0.156852 -0.09774568 -0.1243628 -0.1354807 -0.08492395 -0.1822605 -0.1831021 -0.123228 -0.1162613 -0.1462259 -0.1513383 -0.09314808 -0.1692161 -0.1450201 -0.1465788 -0.1199063 -0.2011247 -0.1624566 -0.1309803 -0.1630472 -0.114158 -0.1401465 -0.189783 -0.1276564 -0.1723605 -0.09492643 -0.235389 -0.1238571 -0.1912518 -0.1540097 -0.1185501 -0.2916045 -0.1870484 -0.1176953 -0.152721 -0.1262157 -0.1047903 -0.1254918 -0.1859612 -0.1068455 -0.1625387 -0.1057715 -0.06826475 -0.1172725 ]
<!EndOfComponent> 
<Rescale> 1024 1024 
<LearnRateCoef> 0  [ 7.136972 6.585136 3.738209 4.986589 4.712136 4.133611 4.998953 5.37675 5.837811 6.875249 4.39174 4.875352 7.23583 6.482202 4.008489 4.559736 7.413906 4.224829 4.438336 6.242648 6.585423 7.228577 6.116251 6.782409 2.495296 7.527379 5.316408 4.1664 5.16568 5.341706 5.176668 6.992555 5.614689 6.155429 4.789992 3.472099 5.276752 5.91429 5.966476 6.68271 6.124369 5.490519 6.09115 3.7779 6.447229 4.90463 4.716794 6.297438 4.234947 7.041813 4.609778 3.708177 4.11481 5.526229 5.196988 4.925198 6.195208 6.463454 3.7989 6.528258 8.013597 3.638748 6.945059 5.76921 3.507897 5.766009 5.22518 3.903487 4.13323 5.4963 7.224391 7.224367 6.47341 5.075974 3.567252 5.655587 4.734383 6.037487 3.386136 5.672654 5.035441 5.994516 5.995849 5.323558 6.433967 5.207677 3.978405 6.13058 7.079823 4.81426 6.320198 5.788177 5.116605 4.303683 5.828459 5.997594 3.132102 5.380469 4.777205 4.727048 5.830823 4.175767 6.087462 5.697275 4.627366 4.862321 4.397923 5.911868 6.295522 4.947956 6.654692 4.801315 4.799793 5.793997 5.055942 4.628492 6.330847 5.678869 5.36788 5.885247 2.360024 6.074318 5.508105 7.119592 5.427359 5.267785 5.242886 4.927321 5.332599 5.150548 4.874213 6.416959 4.734396 5.022169 5.046592 4.806827 7.022458 7.386012 6.441854 4.854885 2.697006 5.693552 4.020935 5.604429 4.02177 3.35306 5.679149 6.922251 5.054924 6.738889 6.205179 4.816804 4.980332 3.66727 7.752304 5.377769 4.945982 6.622291 5.242414 7.146202 6.368801 5.36608 4.449144 5.841613 5.291382 4.160312 5.373502 4.883077 5.598483 5.570882 4.597576 4.808506 4.758057 4.076768 4.621589 5.172776 3.923682 4.583914 4.581596 4.650292 4.790298 4.69001 4.260582 5.81486 5.477227 6.406456 5.690071 4.097496 8.451147 4.299727 5.629846 5.838804 6.889859 5.289162 7.283318 5.973887 4.61663 6.386636 7.43327 6.302474 4.806751 4.975483 4.872491 4.205582 7.101826 5.215453 5.825883 6.740589 4.419527 7.161832 4.835203 2.655308 6.740441 6.903935 4.027702 4.533163 4.677105 7.093907 4.936197 4.061636 5.508554 7.325531 4.993429 4.553989 4.703739 5.656593 4.865829 3.653103 6.209417 6.163871 5.491846 5.285646 5.786747 5.132273 7.669231 5.305796 4.999352 7.486486 6.692985 6.063742 3.033726 4.211 3.246753 5.824419 3.922091 3.014685 4.893099 6.899323 6.46988 4.798703 3.531042 5.209247 3.476521 5.198149 3.041688 5.249953 4.870006 6.622939 7.166698 6.583211 4.581284 5.959403 6.720158 8.730965 5.924785 5.50937 5.52633 4.21465 4.926069 6.012793 6.727915 5.490832 4.509197 6.236733 7.787546 7.322167 4.677374 4.328229 6.702706 5.248343 4.36746 5.419592 4.769687 5.395037 2.289762 4.075281 2.9772 6.990363 3.987439 5.978381 6.041017 5.105104 5.701864 7.692376 6.008921 4.755633 7.105228 5.946372 5.007946 4.827197 3.246907 8.204218 5.074089 6.8913 6.907804 6.46867 5.627177 5.261682 4.587208 6.87885 3.370845 4.789639 5.725612 6.212511 7.168057 4.572117 5.617516 4.475878 4.70508 5.598495 4.911095 4.605457 4.646121 5.809922 7.059301 4.409204 4.342644 5.642038 8.805153 5.022248 5.696705 5.896736 4.922462 4.770432 6.079095 7.900982 6.578278 5.418149 7.371814 5.423626 6.955408 4.715771 5.438927 5.009853 6.402732 7.01737 5.165478 6.500922 4.814951 4.355455 6.51546 5.179015 4.263017 6.454209 6.49525 4.812276 5.85994 2.907107 3.627762 6.149937 6.296175 6.685263 5.801868 4.616713 5.538724 6.180174 5.288475 5.267435 8.298401 5.027199 4.828997 6.678671 6.154875 3.291502 4.947355 4.6882 5.538091 6.316046 4.394109 6.899649 5.221912 6.26131 7.564056 6.111583 5.394416 5.051313 7.743522 4.563565 6.694778 4.374382 5.237459 3.359356 3.716841 4.823242 6.337129 6.829457 6.276826 6.067125 4.382524 6.120052 4.608682 4.911374 5.095784 6.822228 5.5978 4.1907 5.4345 5.128117 6.068092 6.656222 7.634558 5.733022 7.466372 4.369267 5.031137 4.263345 4.896652 3.336819 7.117249 5.995834 4.964116 7.059412 5.719146 3.122202 4.954825 4.752851 5.29495 7.127256 6.156065 4.473665 4.983277 5.802835 8.795527 4.970878 3.198088 3.954819 4.279825 6.357065 5.803864 7.528013 7.52497 4.824134 5.013289 2.27466 5.054522 4.853849 3.44214 6.019977 7.504416 6.072731 7.817994 4.376433 5.003349 4.572108 4.851208 4.705233 4.893568 5.304533 4.206881 5.198535 5.085788 5.043503 6.450831 6.731874 5.100011 3.254784 5.149145 4.617928 5.676027 5.884503 6.540828 6.824925 5.234266 4.800478 5.243677 7.082244 4.568551 4.394495 4.141096 7.586555 5.608605 4.92074 4.408366 5.163517 4.587486 5.603546 5.050045 5.321916 3.363313 4.144173 6.300044 6.016734 5.452739 5.975483 4.662003 5.465964 4.82614 5.22572 5.016635 4.793651 4.348615 4.296775 4.845757 6.225385 5.587675 5.491544 6.095305 5.522292 5.983149 4.774764 6.986368 3.463514 5.559124 5.2078 5.497973 6.359051 5.261502 6.323129 5.469283 4.990083 5.438066 6.672756 5.616211 3.800174 6.995771 4.782259 5.373723 6.333388 5.404786 7.104595 3.607626 5.553754 3.203868 7.685621 7.168347 3.925223 2.924909 6.23929 5.480265 4.615998 6.918928 7.591315 4.043309 5.336942 4.27799 4.164922 6.690194 5.60172 6.723946 9.361349 2.671026 4.345139 6.087133 4.668818 4.301315 4.241857 5.264186 5.102643 6.709237 7.831037 5.674655 5.076702 6.413947 4.389325 5.545 5.478846 6.050357 4.845798 4.090542 5.440873 4.970249 5.309688 6.254321 5.388808 4.986933 5.262762 7.99872 6.443732 3.397785 6.117451 5.105036 6.424731 9.053084 6.075519 4.197747 5.640233 4.636153 5.778881 5.902391 7.624 5.698762 8.257879 5.721248 7.777634 5.476279 5.254585 6.676399 6.35598 6.039525 6.187726 4.449892 5.664883 5.712857 4.005579 3.508134 4.284797 7.333498 2.613245 4.530761 5.135916 6.478862 5.532067 4.754791 4.845397 5.090753 6.151993 5.338883 8.997859 4.470024 6.119037 4.475545 7.052157 5.561558 5.699605 4.26535 5.321194 5.667235 5.779668 3.351787 5.86635 5.739455 5.0762 5.695898 5.651128 6.159482 6.295583 5.834564 6.305255 4.960552 5.925224 5.471695 6.113659 5.350923 2.965291 4.044759 5.179955 2.794073 4.637945 4.409183 4.90439 5.952448 5.362315 6.814507 6.287437 5.543938 5.361086 5.649388 5.178665 5.982895 6.577936 4.890072 6.949883 5.18246 5.189899 7.781864 4.994982 5.456025 5.747312 6.516461 7.829648 4.151719 5.044664 7.71722 5.26605 4.13246 4.813367 6.786799 5.685841 5.403624 6.999205 5.114277 6.265933 4.245033 4.621605 5.833776 6.8343 7.83083 7.505947 4.378538 5.705601 3.819686 9.696061 6.013155 6.318263 7.498846 5.51253 9.913752 5.461762 4.009146 7.117337 8.076352 6.161648 4.78018 5.423736 7.146369 5.78882 4.954479 5.696565 4.855124 3.169655 4.910818 6.531363 5.554955 5.434289 3.7681 5.036611 5.104755 8.318659 4.821424 6.240233 4.818436 4.594525 7.342011 3.811872 5.430027 5.48201 3.119717 5.967224 7.105499 6.097925 5.176305 4.353731 5.148129 5.031193 5.380059 5.03375 4.478979 3.708697 5.642475 4.213784 5.002804 4.709137 2.834125 4.786139 3.225465 4.423535 4.611135 5.90386 4.469438 6.358564 7.688705 5.925356 5.353794 5.751986 7.634604 4.724386 4.61105 6.650126 5.591307 2.911638 5.842671 4.255657 7.030416 5.895928 6.362578 5.231773 5.538023 4.780953 8.138472 9.973086 6.363201 5.71345 4.794789 3.953934 5.128614 4.624587 4.933675 4.394429 6.345024 2.826771 5.049925 5.958287 5.066909 6.387753 4.18953 5.033084 8.609262 4.807595 4.946198 5.958741 3.0791 5.593375 7.674974 4.780358 5.827286 4.24991 4.819501 5.024268 6.400598 4.150332 4.82944 3.476419 3.644886 6.484488 8.801492 6.013256 6.133603 6.051707 5.367476 5.617823 4.942747 3.578261 4.978506 4.309587 5.505095 4.679855 6.387873 5.184984 5.817381 5.408633 5.054143 7.057908 4.939878 6.956824 4.39184 4.551582 5.319085 5.513384 5.261516 3.046175 4.605114 6.484739 5.073396 7.386803 6.99948 5.001944 5.753497 5.371622 5.136244 6.823889 5.801379 7.424435 5.968397 6.776279 5.459098 6.404282 4.954761 6.045828 7.349994 4.583687 5.797082 4.12887 6.437334 7.028051 2.855451 4.503285 3.512787 5.488391 4.909017 5.299968 7.366099 4.353487 6.05142 5.944243 4.680489 6.38701 6.565614 6.26075 6.256785 7.140514 4.500239 4.961527 5.969657 7.533774 6.465695 5.957442 6.52714 3.822837 6.14621 4.654368 7.002181 4.860018 6.258658 6.263586 6.088825 5.215678 5.850147 3.81228 6.678017 3.55002 7.179612 7.621879 4.349822 4.778485 5.299696 5.655088 4.978888 5.812745 3.808448 4.174715 5.175537 5.452096 5.682214 6.560843 4.286448 4.559759 6.353768 5.036662 5.663584 6.202031 5.130292 5.673682 3.200573 5.506474 6.389666 5.369505 4.315969 6.644307 5.259259 4.980519 5.478971 6.91893 4.886172 3.150992 6.262971 5.421434 4.531806 5.732697 3.15893 6.476985 8.411579 7.62766 4.174724 5.790241 5.143247 5.543963 4.810517 5.442931 8.293146 4.841901 5.646337 4.037994 6.649432 5.395944 4.772724 5.602816 3.82292 5.133162 3.733631 4.251899 4.846645 7.93914 6.525756 5.386065 5.223448 7.834468 4.698802 4.983333 4.88823 5.635703 5.29336 4.132016 4.807769 5.828513 4.624351 5.866177 4.000186 6.731342 5.214063 5.903835 4.268992 7.421006 6.887267 7.756434 4.323401 5.14749 4.936881 5.361602 8.087097 5.168955 5.38401 6.962994 6.510284 4.976554 6.587257 3.700584 4.361364 5.040482 6.156473 5.084781 4.84215 6.838102 4.695779 5.725855 3.511326 4.733663 4.052385 5.034872 5.761298 4.387942 5.113445 4.994549 4.602359 5.433191 4.273115 6.564679 3.342181 5.263871 4.197795 5.250554 6.852936 2.43663 4.44678 5.024282 4.529347 6.725759 7.561176 6.901436 3.915067 5.061242 5.240308 6.13467 6.71768 6.478371 ]
<!EndOfComponent> 
</Nnet> 
