<Nnet> 
<AddShift> 1024 1024 
<LearnRateCoef> 0  [ -0.05536396 -0.04766164 -0.1018158 -0.0216937 -0.02587254 -0.1182639 -0.07895266 -0.04014411 -0.02625052 -0.1017659 -0.1512922 -0.04721148 -0.07512557 -0.04480695 -0.1232773 -0.1122835 -0.1016231 -0.04887969 -0.1186759 -0.2398438 -0.03162928 -0.1090201 -0.03081175 -0.09447332 -0.0738458 -0.02701872 -0.1471321 -0.1449021 -0.08218705 -0.1458274 -0.1109504 -0.1529087 -0.1023811 -0.1169466 -0.09493687 -0.04842528 -0.1241033 -0.150645 -0.1425664 -0.06249623 -0.09880108 -0.04029013 -0.03319472 -0.08385507 -0.06194922 -0.08959183 -0.09576233 -0.08158953 -0.1080697 -0.0823417 -0.1016604 -0.1042336 -0.06211792 -0.03248938 -0.04128813 -0.0517121 -0.03769296 -0.0773099 -0.08590956 -0.1198576 -0.121691 -0.07364419 -0.09822624 -0.1720542 -0.1887748 -0.1515516 -0.09257865 -0.1144143 -0.1137096 -0.03966181 -0.05080446 -0.02932438 -0.07884247 -0.3225211 -0.04946456 -0.1116354 -0.2449712 -0.02265348 -0.2272754 -0.1385243 -0.1169911 -0.2194499 -0.1595553 -0.08940723 -0.1070708 -0.03907958 -0.1136376 -0.132835 -0.08064537 -0.06120298 -0.1270806 -0.03329031 -0.2859102 -0.09628588 -0.04645722 -0.161944 -0.1129535 -0.130741 -0.2082049 -0.06301744 -0.07306086 -0.03784157 -0.143612 -0.09464661 -0.04526966 -0.1680063 -0.06762638 -0.1314843 -0.1396384 -0.1564084 -0.03418467 -0.1538044 -0.09477399 -0.0745911 -0.05709044 -0.08621822 -0.06682241 -0.1122485 -0.1138497 -0.1132161 -0.08670159 -0.1408482 -0.04837793 -0.1175024 -0.1621857 -0.1140398 -0.1029995 -0.05176753 -0.02816888 -0.1917618 -0.1387605 -0.1568714 -0.1200416 -0.3177472 -0.03356556 -0.3143428 -0.0699256 -0.0515331 -0.04613033 -0.02728462 -0.1181224 -0.03332805 -0.1185599 -0.1238868 -0.02496809 -0.2121288 -0.1836101 -0.1258543 -0.1403133 -0.03038769 -0.03055426 -0.06165385 -0.1971069 -0.1486959 -0.1125031 -0.1248837 -0.06711258 -0.123314 -0.0894812 -0.08706216 -0.08886517 -0.02543719 -0.02120144 -0.08790596 -0.07733572 -0.02520735 -0.1725749 -0.1145188 -0.08446947 -0.08852296 -0.1697237 -0.04757475 -0.1387216 -0.09969627 -0.05648114 -0.1321412 -0.2519105 -0.03149343 -0.04084007 -0.3388017 -0.09376974 -0.1239234 -0.2368075 -0.09911944 -0.1199813 -0.1304128 -0.04046072 -0.1213467 -0.08048023 -0.04262916 -0.09885669 -0.07571044 -0.1056692 -0.09604643 -0.07147875 -0.109665 -0.02478573 -0.04795002 -0.0405205 -0.1383152 -0.1592618 -0.1464712 -0.07255512 -0.09826382 -0.04512798 -0.09099621 -0.1214215 -0.1041246 -0.1357847 -0.2487281 -0.1316725 -0.09027398 -0.02628162 -0.2579761 -0.08865396 -0.1243669 -0.1267555 -0.3092869 -0.09960907 -0.1115609 -0.08271164 -0.2700514 -0.03459449 -0.1028734 -0.1048304 -0.1121338 -0.1884856 -0.06760422 -0.1371775 -0.08468429 -0.1211777 -0.1096589 -0.07341916 -0.2069178 -0.2054378 -0.03094307 -0.02844105 -0.02019742 -0.07320417 -0.0999172 -0.06725368 -0.09000938 -0.2105396 -0.08124884 -0.1185484 -0.1196878 -0.323471 -0.05963258 -0.1400426 -0.08191168 -0.08088763 -0.171017 -0.1267852 -0.03761933 -0.1098007 -0.1040755 -0.0876452 -0.1338436 -0.08458155 -0.05658641 -0.06294342 -0.110536 -0.1200928 -0.06214437 -0.1443611 -0.06126872 -0.2487204 -0.119598 -0.04375748 -0.1058232 -0.08649084 -0.08558846 -0.07286486 -0.06674247 -0.09082846 -0.06309544 -0.08509824 -0.05035612 -0.1053705 -0.07986108 -0.04036712 -0.06497634 -0.1088082 -0.1179331 -0.03667974 -0.100239 -0.02107546 -0.1074326 -0.1043037 -0.1445704 -0.08009059 -0.09605291 -0.1141461 -0.1527961 -0.1610088 -0.09668148 -0.09651312 -0.3065361 -0.1570432 -0.1460373 -0.1963982 -0.1705892 -0.09448696 -0.1556078 -0.1054932 -0.02561185 -0.1155675 -0.09710945 -0.1922717 -0.1110628 -0.179212 -0.09250566 -0.1674174 -0.1539277 -0.09947789 -0.1150603 -0.0852024 -0.08773773 -0.06517861 -0.1036825 -0.02573408 -0.2066762 -0.1657247 -0.03203291 -0.09603691 -0.09239917 -0.1871037 -0.09725489 -0.141003 -0.08998326 -0.1314898 -0.1099666 -0.0286137 -0.1465704 -0.1044051 -0.1546945 -0.05335207 -0.08620743 -0.1579103 -0.1046107 -0.07793227 -0.03005085 -0.1359105 -0.07213691 -0.0773797 -0.09626427 -0.2949263 -0.1014066 -0.1293989 -0.0336132 -0.1194125 -0.03851585 -0.1734959 -0.1101431 -0.01612636 -0.1575163 -0.06010738 -0.03198171 -0.3221104 -0.03700275 -0.1280573 -0.04096482 -0.04621053 -0.0550887 -0.1223593 -0.0335732 -0.04792301 -0.05222691 -0.02280964 -0.1525558 -0.04133535 -0.1115558 -0.09465512 -0.06225325 -0.05417546 -0.2790585 -0.1391318 -0.07709121 -0.1083498 -0.1154065 -0.07097732 -0.08533612 -0.09550573 -0.1614232 -0.0559025 -0.2730769 -0.04324629 -0.1637534 -0.0556668 -0.1602718 -0.1073579 -0.1349328 -0.1410864 -0.1927856 -0.1949884 -0.0357957 -0.105887 -0.188399 -0.301965 -0.1380019 -0.1437159 -0.02062597 -0.1056801 -0.01922476 -0.2523447 -0.08768612 -0.04143899 -0.224792 -0.1124004 -0.0281457 -0.1061489 -0.07495751 -0.1010914 -0.07914008 -0.1014326 -0.1375231 -0.109303 -0.1309515 -0.1323793 -0.2601583 -0.3517568 -0.04613995 -0.02930951 -0.05203703 -0.1585786 -0.08347493 -0.1173084 -0.04296628 -0.1618758 -0.0848033 -0.04759351 -0.1453782 -0.05063603 -0.1112278 -0.09374736 -0.06072076 -0.1663746 -0.2970201 -0.04623688 -0.07804311 -0.09162456 -0.1644674 -0.07646574 -0.2293174 -0.06814281 -0.123913 -0.1471107 -0.1288258 -0.06048565 -0.06948498 -0.03076679 -0.1141066 -0.1648991 -0.1206583 -0.06459972 -0.07463949 -0.1119657 -0.1015373 -0.1125042 -0.1001541 -0.09274407 -0.2022893 -0.1263695 -0.1150966 -0.1016356 -0.1131238 -0.04135559 -0.1645631 -0.02365347 -0.09404034 -0.131041 -0.05811459 -0.04875359 -0.1479826 -0.1132196 -0.06317302 -0.05360419 -0.100898 -0.1533577 -0.1804679 -0.1263184 -0.1648996 -0.04618108 -0.08932924 -0.04384902 -0.02793606 -0.04363712 -0.09940541 -0.2011046 -0.1879593 -0.1036437 -0.07345837 -0.112022 -0.1574734 -0.1428266 -0.06420778 -0.02434057 -0.0818042 -0.08029503 -0.1234402 -0.1033255 -0.03283201 -0.1426835 -0.1669917 -0.2048245 -0.02500425 -0.1587356 -0.1622331 -0.0580465 -0.05210212 -0.08861494 -0.09360851 -0.1405989 -0.1574465 -0.3673321 -0.0282252 -0.08700485 -0.1215189 -0.06846599 -0.1067269 -0.2281692 -0.07765736 -0.05953818 -0.06554576 -0.1173966 -0.0569375 -0.1603369 -0.1857575 -0.1089527 -0.05260548 -0.02565436 -0.1184824 -0.214386 -0.1286979 -0.04086266 -0.08470339 -0.04970913 -0.06922328 -0.1309744 -0.1429995 -0.0534451 -0.1019501 -0.02935831 -0.3403134 -0.1714505 -0.05656901 -0.1389672 -0.1359254 -0.08884315 -0.04989245 -0.1152765 -0.04777678 -0.119546 -0.1690517 -0.08712929 -0.1456073 -0.03776969 -0.2419684 -0.019061 -0.177112 -0.0832945 -0.08930644 -0.1541713 -0.1732605 -0.1108806 -0.1203183 -0.05110546 -0.05261749 -0.02114409 -0.03425416 -0.1928015 -0.1165678 -0.02753149 -0.1430226 -0.08835642 -0.02850038 -0.1718033 -0.05280212 -0.1983957 -0.1085186 -0.04940676 -0.1336902 -0.04770278 -0.1207181 -0.09768166 -0.1119702 -0.06692126 -0.0291003 -0.1648021 -0.106002 -0.07233791 -0.08641408 -0.159798 -0.05720183 -0.1723307 -0.05803455 -0.1758692 -0.138428 -0.1366794 -0.06582879 -0.02442134 -0.1924951 -0.1586125 -0.1435224 -0.08589535 -0.1150859 -0.1134945 -0.1111162 -0.09343116 -0.08202578 -0.286952 -0.2835228 -0.032618 -0.08037304 -0.06250678 -0.1432114 -0.06907931 -0.1088896 -0.1104121 -0.1127067 -0.08698711 -0.03617995 -0.1269771 -0.06878256 -0.1020464 -0.05557035 -0.1078835 -0.02318944 -0.1269618 -0.04347005 -0.04985474 -0.1322536 -0.07571642 -0.08499464 -0.0417273 -0.1295768 -0.06590939 -0.08838395 -0.1106855 -0.0338387 -0.1473752 -0.1064823 -0.06471555 -0.09526866 -0.1674235 -0.0912734 -0.1129957 -0.07961591 -0.07500336 -0.0428771 -0.02224833 -0.1094616 -0.2836244 -0.0604672 -0.1371244 -0.05322893 -0.2382697 -0.1098072 -0.1462493 -0.06292874 -0.2164371 -0.111498 -0.1371845 -0.07586318 -0.02691423 -0.18519 -0.1149776 -0.0953988 -0.03879005 -0.1156241 -0.1545922 -0.02827114 -0.05557154 -0.02613088 -0.1572682 -0.0425584 -0.05207944 -0.1127122 -0.03625078 -0.3344407 -0.04065911 -0.1777309 -0.1480087 -0.088483 -0.07673743 -0.1246284 -0.1351209 -0.09120193 -0.148033 -0.06312352 -0.04452964 -0.1130779 -0.05741621 -0.1093922 -0.1364656 -0.2805479 -0.1070368 -0.06821138 -0.1237352 -0.02632842 -0.09575126 -0.07467087 -0.05741503 -0.1292852 -0.2492234 -0.1355702 -0.09837596 -0.2724358 -0.1903311 -0.04574701 -0.04056727 -0.03271142 -0.0939262 -0.1087257 -0.2460323 -0.04959993 -0.08069787 -0.04582981 -0.3045014 -0.07913198 -0.1637842 -0.02037737 -0.1767637 -0.1106476 -0.111332 -0.1077608 -0.06419026 -0.1670831 -0.1756977 -0.05193057 -0.09400706 -0.09513227 -0.08713599 -0.1321128 -0.1199355 -0.03060882 -0.0486864 -0.0455878 -0.08787312 -0.02484491 -0.1206489 -0.0260774 -0.1425137 -0.1049324 -0.02670374 -0.06599814 -0.134131 -0.05094436 -0.07765234 -0.0379413 -0.02515668 -0.09108822 -0.06898885 -0.02982742 -0.209188 -0.08467732 -0.05363426 -0.1116811 -0.1306392 -0.2463407 -0.1046143 -0.1300887 -0.145696 -0.1235516 -0.06331181 -0.01985788 -0.06912757 -0.04562746 -0.2429361 -0.01981694 -0.03351856 -0.08229256 -0.09648087 -0.1656919 -0.06625839 -0.2086267 -0.0987362 -0.1291184 -0.1177609 -0.1329524 -0.05918427 -0.1429505 -0.2849212 -0.07256388 -0.2041327 -0.1155014 -0.06516068 -0.1358628 -0.09449174 -0.1458001 -0.03292306 -0.04467021 -0.03435478 -0.1047631 -0.085352 -0.06349794 -0.03060503 -0.1259909 -0.06435333 -0.04447993 -0.08701379 -0.0378945 -0.02994693 -0.02322371 -0.04252611 -0.04043009 -0.04944873 -0.1662474 -0.1540715 -0.0348828 -0.2149228 -0.08892483 -0.06690176 -0.1466205 -0.1038464 -0.2728126 -0.02611221 -0.1289006 -0.125361 -0.05984467 -0.04785354 -0.0910744 -0.0489668 -0.06018601 -0.1113056 -0.1546563 -0.1107385 -0.1126795 -0.03601675 -0.1452644 -0.04837067 -0.09212048 -0.1593258 -0.1793658 -0.09039261 -0.1465092 -0.09496169 -0.2196428 -0.02498437 -0.1365474 -0.06367969 -0.07526343 -0.15682 -0.1158102 -0.135509 -0.1292656 -0.02883865 -0.2001573 -0.08959658 -0.1408949 -0.05744461 -0.1995956 -0.2724541 -0.1165293 -0.1619991 -0.04444138 -0.2303987 -0.09492514 -0.07202672 -0.06801881 -0.3318534 -0.0884147 -0.1206727 -0.02963605 -0.101623 -0.09246835 -0.374536 -0.08523755 -0.1996872 -0.1186185 -0.2002135 -0.3390265 -0.04720601 -0.1629377 -0.0909135 -0.07361669 -0.043185 -0.1714677 -0.1098874 -0.1229387 -0.1415137 -0.1114784 -0.1038712 -0.1188999 -0.1624545 -0.1043627 -0.02484892 -0.1057572 -0.03234778 -0.08287753 -0.1117062 -0.09402961 -0.05909541 -0.1245599 -0.04849803 -0.1420729 -0.1300697 -0.05443351 -0.09553408 -0.282292 -0.1339312 -0.02547072 -0.06677952 -0.09800345 -0.08858491 -0.09849604 -0.1195703 -0.02980801 -0.1371957 -0.07035698 -0.1309785 -0.07229362 -0.09318742 -0.1155637 -0.08059791 -0.1306696 -0.05194491 -0.1340778 -0.1139064 -0.09445251 -0.1172032 -0.04748376 -0.1004659 -0.06208742 -0.1168389 -0.1661476 -0.0999986 -0.1657881 -0.1178979 -0.07122552 -0.1615074 -0.05706751 -0.07519656 -0.05470578 -0.07899311 -0.07146731 -0.09833845 -0.1207011 -0.09398187 -0.06705966 -0.01814653 -0.2153591 -0.08863572 -0.07680605 -0.1461475 -0.06101482 -0.113429 -0.1475197 -0.08211806 -0.06751513 -0.166187 -0.1097246 -0.02749595 -0.09932118 -0.1956509 -0.0560756 -0.02864464 -0.1094872 -0.1066534 -0.08101979 -0.02399331 -0.1946448 -0.06354389 -0.1513658 -0.06082964 -0.04757075 -0.152581 -0.1172988 -0.1218862 -0.1375172 -0.08563536 -0.1505748 -0.03083867 -0.1088571 -0.1224415 -0.09788834 -0.2935468 -0.1220739 -0.07120913 -0.03353488 -0.08071236 -0.03131368 -0.1567522 -0.1126596 -0.1150175 -0.04639677 -0.1375456 -0.02001002 -0.04861359 -0.05746982 -0.1623253 -0.05320784 -0.0352424 -0.06759329 -0.08479894 -0.1618518 -0.1385999 -0.1355767 -0.05565784 -0.1572599 -0.1044057 -0.1585462 -0.09715629 -0.1092612 -0.2173947 -0.09076931 -0.2527863 -0.1823484 -0.1400762 -0.0277274 -0.1806435 -0.3166438 -0.09922665 -0.1200339 -0.1771703 -0.04267015 -0.2243273 -0.09291088 -0.09221958 -0.06087998 -0.1040026 -0.1196079 -0.08423191 -0.08876611 ]
<!EndOfComponent> 
<Rescale> 1024 1024 
<LearnRateCoef> 0  [ 8.295244 8.673539 6.789893 10.45238 9.723937 6.52447 6.794175 9.084129 12.03493 4.69172 4.266425 7.794712 6.642264 7.758892 4.342128 5.810281 7.570257 9.373651 5.319961 3.240254 8.450625 5.066913 9.80051 5.808996 8.199956 9.160036 5.489934 4.955927 6.496282 5.910441 5.437756 4.187196 6.690578 5.763227 6.426505 8.794608 6.270698 5.372858 5.072813 8.140419 5.735713 9.715583 10.65712 5.508614 7.468272 5.977243 5.622213 5.461391 5.626926 6.979835 6.882861 4.835036 7.635202 7.84351 10.38431 6.549021 9.285542 6.826104 4.791855 4.45194 6.814775 7.487718 5.021888 4.326799 4.133083 3.409442 6.309021 6.300278 6.824573 7.084574 9.974972 8.214772 8.577873 2.895133 7.779395 4.920498 3.052031 10.09155 3.196427 4.3406 5.903999 3.065583 5.234356 4.575156 5.763696 9.460976 4.979153 5.091116 4.907477 8.499813 4.92773 11.25097 2.706915 4.091366 7.294459 4.916874 4.413518 5.543917 4.204022 7.61756 6.235355 6.86925 4.898739 5.74193 8.906533 4.431083 5.994872 4.705566 5.453754 4.666183 8.123757 5.535786 5.71051 6.577011 7.711129 6.154415 6.686235 8.012352 5.888697 5.261797 4.409719 5.059267 6.119315 5.759682 3.337045 7.242301 5.245395 7.738147 9.231376 3.822648 5.931648 5.232363 5.879243 2.764039 8.0833 2.655006 5.690518 9.009295 7.281305 10.7697 6.342622 7.429741 6.064824 3.82387 8.786645 3.972642 4.353588 5.613168 4.501581 8.891208 7.810506 5.507889 3.790698 4.494596 4.465546 6.103785 8.320723 6.704145 8.684343 4.290907 6.704457 9.761154 10.52989 7.348302 8.905412 8.945436 5.606404 6.9028 5.330617 6.12835 4.538021 7.627718 5.258082 5.667097 8.324834 5.410523 2.877259 8.838439 6.48286 2.843618 7.141902 6.213592 3.414847 5.585766 7.139535 4.351963 6.737517 6.046046 6.769163 8.851458 5.287675 5.25666 5.931713 6.688307 7.478921 5.858249 8.945417 6.026669 7.118465 5.009573 4.930341 5.744005 4.746405 7.54392 8.124859 6.278174 4.576572 7.525313 4.932626 2.898973 4.800445 6.328131 10.83836 2.965417 6.175882 5.134482 6.844836 2.839603 5.660888 5.927459 5.822363 3.224466 7.277054 6.251075 5.062808 5.659456 4.245228 5.129621 4.301558 5.420545 4.839829 5.138128 8.462671 4.122425 3.660517 11.03991 9.283897 9.970033 5.69525 4.95188 7.35886 5.49611 4.05432 6.324706 5.142298 5.867083 2.785626 7.836844 4.689579 4.930332 4.783385 3.510313 4.765766 8.672104 3.819989 4.155644 7.149182 5.082313 4.682377 6.162632 5.883034 4.769472 4.804548 5.424989 4.579653 7.113721 3.385636 6.235003 7.537526 6.018579 6.637127 5.389729 8.264878 7.429106 8.901382 7.09293 6.804155 7.774052 4.851625 8.018082 7.929793 5.131183 5.667296 6.726269 6.87345 6.865398 13.16459 5.510898 7.307447 5.27122 7.304846 7.154377 4.985602 5.97257 4.698448 5.161334 6.084882 2.382578 4.968348 4.357523 4.079636 4.63712 7.645714 5.281484 5.213219 9.33193 5.467817 5.000252 5.076156 7.122335 3.919778 7.182302 5.2942 5.035914 7.506507 5.550247 8.82368 5.858947 5.929967 5.762626 8.959068 4.103894 5.359221 9.197513 5.460547 5.655023 3.071819 4.178771 4.812246 6.221619 5.152732 5.520734 9.284146 5.601133 5.723434 3.86172 5.729456 5.903445 4.070771 5.894774 6.195955 9.286532 5.96626 6.934122 8.808281 6.899187 2.580858 5.618603 4.689336 7.767992 5.100378 8.875735 4.865686 4.547367 11.30548 4.388799 7.931426 9.370667 2.712363 10.03447 7.051469 8.368813 8.777742 10.05166 4.936479 7.706072 8.549394 8.640368 10.05084 3.856397 8.850418 6.976757 7.045564 7.721771 6.308487 2.543746 5.424606 4.74383 5.503224 3.981398 6.375655 7.790993 8.121051 3.640546 9.387595 2.952599 9.875761 4.348522 8.187642 4.861264 6.700938 6.399152 4.624811 3.496823 3.011035 7.687276 5.21995 4.288434 2.810904 6.7063 4.794685 11.27773 7.778089 11.59132 2.897767 6.325401 10.31461 3.051504 4.696485 8.820627 5.479845 6.973804 6.319623 6.745105 7.2885 5.868525 6.866181 6.168182 4.58734 2.89185 2.992355 8.590013 9.4759 9.944221 4.448632 5.853189 5.732985 6.823023 5.730831 6.476919 7.421885 5.876946 6.993619 7.276373 7.517953 6.850992 4.601704 2.725421 7.95797 6.11974 5.066353 4.52637 6.830635 2.965103 5.875267 6.738961 3.465335 4.507469 8.314789 9.000467 10.26141 6.626482 4.387736 4.906196 8.228955 6.747239 6.616496 5.360623 5.289639 6.374501 6.343937 4.221784 5.799836 5.806907 5.705313 7.10504 6.640659 4.522756 10.24105 6.809212 6.109842 6.328468 6.360671 5.401205 6.337072 6.000596 8.392735 6.178354 4.428134 4.751413 5.621494 4.735371 8.82256 5.294924 8.013624 9.261039 7.209938 5.804223 4.113019 4.158928 7.178528 6.854187 6.221538 4.69852 4.290534 7.486514 10.22358 5.091354 6.499167 6.428429 6.816575 8.320415 5.404912 5.736071 3.7268 9.387376 5.603496 5.94954 8.721298 6.546771 6.423227 5.868163 4.335274 4.751042 2.844318 9.943568 6.033772 5.829927 5.251381 7.245956 3.009437 6.627532 6.926093 5.969632 7.127288 7.738259 4.537939 4.350291 5.531898 8.395258 10.07512 5.064192 4.172037 4.783672 6.852311 6.947985 5.91772 5.253767 4.218386 5.992945 7.034474 7.466084 9.037181 2.777773 5.222898 10.12195 4.725282 5.028605 4.329545 8.764533 4.183153 8.228093 5.411351 5.261665 7.715183 5.157452 8.620246 2.982471 10.40654 4.245247 5.635997 7.340569 5.354215 4.226608 5.913756 4.162376 7.562177 8.71893 11.1477 8.343616 3.647169 6.180236 9.647695 5.885664 7.583658 9.054336 3.634435 7.12076 3.866282 6.721499 6.694574 4.95928 8.386688 5.214661 4.974422 6.095657 7.89758 9.327706 3.682217 6.43656 8.541364 6.311671 4.27555 6.827023 4.933706 9.645366 3.999216 4.82637 4.899669 5.732806 10.24608 4.116884 4.517241 5.857961 6.554111 5.746631 6.091221 7.425535 6.218484 5.692681 2.647406 3.195744 8.053307 7.186444 8.840524 5.49818 6.288807 5.192492 7.176813 4.099429 5.390545 7.17184 6.768301 6.995023 5.430826 6.194376 4.800817 11.28071 5.144237 6.759347 7.894783 5.860059 6.969012 7.20958 10.13108 4.711184 5.273224 7.890759 5.95074 8.294807 3.742528 4.915445 7.524945 5.340837 4.723112 7.333842 6.95332 8.090542 6.465738 7.231785 9.694249 3.848841 2.760652 5.81115 4.799868 8.69353 3.324645 6.504685 5.370467 7.074119 3.547923 4.856336 5.771122 6.345221 10.3718 4.326422 5.359563 5.202458 8.445792 6.277004 4.262642 9.195736 6.88472 8.881559 5.225169 6.954828 6.154107 5.659539 8.698117 2.335627 8.510711 3.858289 5.457641 8.099646 4.907119 6.375025 5.441246 7.1851 5.126735 7.244123 6.730882 4.394251 6.488374 5.579818 4.676504 2.951668 4.77911 5.511105 5.494255 11.62019 4.446443 6.326975 7.739917 5.132611 2.888234 5.274765 5.411387 2.933259 3.406433 8.637095 6.630202 8.315339 5.776383 7.247661 3.727882 8.78371 5.203144 6.716209 2.957013 4.428152 4.354109 10.53339 4.503489 7.255256 5.079814 5.099021 7.275609 4.665842 4.166665 6.298549 6.32534 6.486979 7.151534 3.650228 5.977822 8.860978 7.328274 9.139063 5.425581 8.603777 6.914177 11.09146 4.461734 4.971427 9.058237 7.418591 4.608064 6.938607 6.059287 8.409994 9.496278 5.416016 9.640574 10.86007 3.382748 6.593958 8.685759 5.613648 6.406429 2.97887 7.395898 6.866847 3.559635 6.775084 7.843008 10.66085 6.919348 8.872959 2.998964 12.21357 8.274341 7.95522 6.107829 4.500194 5.608387 3.873213 6.560338 4.182764 6.483199 6.54847 8.853743 5.678178 2.864779 6.362442 3.649795 6.478384 6.351933 5.07425 4.401052 6.118167 11.62164 8.575871 7.522725 6.600091 4.245572 10.93424 8.48749 6.268801 6.113065 10.85953 7.930407 6.878339 9.291267 9.168705 7.664222 8.091416 8.387894 5.579834 4.965227 10.07394 3.436225 7.764034 6.047785 5.446377 6.501399 3.100255 10.27364 6.031316 4.779308 8.582782 9.583004 6.415708 7.843485 6.226314 4.679697 5.470345 4.210942 6.414942 10.46889 4.280659 9.206775 6.258078 5.321584 3.714748 4.317899 4.340188 5.041237 4.037106 9.938325 5.755263 9.335277 5.232944 4.396308 6.50175 3.556457 6.938018 9.3709 4.051566 5.217425 4.632581 8.875542 3.847641 2.546972 5.24891 5.384479 6.933058 3.992766 7.5703 5.12999 7.633788 2.80784 5.512082 5.507029 8.756643 4.195482 4.714287 2.519768 6.66125 4.176859 5.625091 4.160398 2.810976 8.069703 5.611701 6.484485 6.229298 8.773183 4.7783 5.644751 4.134725 5.755568 6.439954 5.867987 3.957308 4.63802 4.499527 8.799976 6.726686 8.978365 6.268514 7.280822 5.529905 7.220689 6.122991 7.816208 5.670971 6.182112 6.342402 5.87856 2.909175 4.507612 11.02347 4.857292 5.968528 7.303288 5.974887 6.231411 9.066184 5.948831 5.711484 4.84364 5.178412 4.160458 5.118567 4.853524 5.343597 7.253075 5.884511 6.653215 6.197113 6.863919 8.343285 5.880272 8.512592 4.989228 4.915574 4.415516 3.344176 5.523604 6.482876 5.496685 9.247453 7.742536 6.049271 6.16195 5.855566 6.865301 5.642024 6.009645 7.717156 11.26429 3.170548 6.145315 6.295815 4.556023 7.310637 6.542101 5.189424 4.427793 7.039008 5.14236 5.22965 10.80603 5.22677 3.574997 7.998735 9.837358 5.44066 6.183943 5.044598 10.49717 3.554542 7.069901 5.306902 8.68175 7.575582 4.821318 5.181682 6.187304 6.122538 7.936186 4.377298 9.243507 6.509724 4.484799 6.405335 2.73057 4.627703 6.935534 7.19864 6.620092 9.872566 4.135223 7.27388 4.833979 11.21054 4.746696 10.49014 7.274055 5.80095 4.751427 8.171016 9.808501 8.506519 4.820155 4.175224 5.185455 5.119584 6.566086 5.081998 6.7856 5.456457 5.792415 7.802717 2.955537 6.40519 3.228487 5.058311 5.479379 9.202536 3.977091 2.374864 8.538531 4.988961 4.813799 6.495716 2.949269 5.381172 6.831254 6.620307 5.612443 6.688701 6.168924 5.712149 ]
<!EndOfComponent> 
</Nnet> 
