<Nnet> 
<Splice> 429 39 
[ -5 -4 -3 -2 -1 0 1 2 3 4 5 ]
<!EndOfComponent> 
<AddShift> 429 429 
<LearnRateCoef> 0  [ 0.01208349 0.01914799 0.02251099 0.00504302 0.004836862 0.02634849 0.008645027 0.01113494 -0.01248969 -0.01372186 0.003304058 -0.01377595 -0.01247174 -0.002453307 -0.00413118 -0.004992257 -0.00083743 -0.001225141 -0.006154243 -0.002640168 -0.002717274 0.002728444 0.00317169 -0.0008990595 0.002997516 0.003111601 0.0006486889 0.0005845032 -0.0007948977 -0.0004107906 -0.0003916071 -0.0002538844 -0.0004246063 -0.0002730832 1.119681e-05 -0.0001185962 -0.0003461391 -0.0002382447 1.451713e-06 0.0090369 0.0146646 0.01861463 0.004540318 0.004232563 0.02097693 0.007003422 0.008579005 -0.01032383 -0.0110092 0.00269853 -0.01084508 -0.009870408 -0.002250919 -0.003867666 -0.005055272 -0.0009672915 -0.001234653 -0.005923246 -0.002499998 -0.002662193 0.002632995 0.003019966 -0.0009146138 0.002873514 0.002953315 0.0005502007 0.0004983713 -0.0006541805 -0.0003877626 -0.0003525332 -0.0001790591 -0.0002864735 -0.0001323348 7.06317e-05 -8.05638e-05 -0.0002396248 -0.0001821099 -2.159996e-05 0.0063202 0.01050674 0.01428312 0.003714521 0.003482225 0.01570878 0.005252416 0.006156019 -0.008049834 -0.008303323 0.002041047 -0.008003413 -0.007395667 -0.002069539 -0.00362629 -0.005110553 -0.0011395 -0.001300958 -0.005694697 -0.002280893 -0.00247577 0.002700406 0.002958697 -0.000863787 0.002777431 0.002800058 0.0004450372 0.0004148438 -0.0004731031 -0.0003278101 -0.0002912273 -0.0001079651 -0.0001577824 1.968799e-06 0.0001133407 -5.609939e-05 -0.0001500936 -0.0001274931 -3.66211e-05 0.003908828 0.00664256 0.009674472 0.002627349 0.002473674 0.01042607 0.003648116 0.003943018 -0.005526501 -0.005383247 0.001605419 -0.005252418 -0.004889561 -0.001899713 -0.003394368 -0.005102572 -0.001287417 -0.00134739 -0.005498189 -0.002093656 -0.002240757 0.002754724 0.002874247 -0.0008207324 0.002713684 0.002641662 0.0003220997 0.0003175825 -0.0002624807 -0.0002270726 -0.0001934317 -3.772727e-05 -5.839787e-05 8.362128e-05 8.996091e-05 -7.086559e-05 -9.376971e-05 -8.538237e-05 -4.926513e-05 0.001809456 0.003145422 0.004887535 0.001375844 0.001255996 0.005183204 0.001907322 0.001864285 -0.00267907 -0.002585703 0.0008608941 -0.002614695 -0.002474491 -0.001796569 -0.003220118 -0.004988915 -0.001357716 -0.001342621 -0.005316525 -0.001915716 -0.002031483 0.002745636 0.002748786 -0.0008001321 0.002675304 0.002511259 0.0001769683 0.0001948188 -4.337421e-05 -0.0001039645 -7.004382e-05 3.361696e-05 3.527282e-05 0.0001195783 1.795829e-05 -9.555226e-05 -3.653801e-05 -4.457607e-05 -5.956999e-05 5.601442e-06 1.765577e-06 4.935232e-06 -6.452853e-06 -5.36367e-06 -5.966901e-07 9.215279e-07 1.576924e-06 1.373644e-05 -5.277214e-06 -1.872225e-07 5.422787e-06 1.509384e-06 -0.001785367 -0.00314221 -0.004801708 -0.001358961 -0.001264409 -0.005136265 -0.001753261 -0.001877862 0.002655162 0.00259434 -0.0007943872 0.002668039 0.002384997 1.975536e-05 5.49051e-05 0.0001612137 1.565871e-05 5.065621e-05 0.0001092736 0.0001473669 0.0001343318 -4.465618e-05 -9.817834e-05 3.600367e-05 -9.336111e-06 -7.35119e-05 -0.001798253 -0.003141891 -0.004877665 -0.00138875 -0.001266723 -0.005184397 -0.001905479 -0.001861131 0.002706543 0.002575149 -0.0008612685 0.002625541 0.00247751 -0.001774165 -0.003064303 -0.004614502 -0.001360206 -0.001186197 -0.004956005 -0.001590807 -0.00172424 0.002564688 0.002439894 -0.0007886424 0.002660774 0.002258736 -0.0001374576 -8.500857e-05 0.0003658016 0.0001352819 0.0001713563 0.0001849303 0.0002594611 0.0001490853 -0.0001072707 -0.0001008044 0.0001085453 2.590384e-05 -8.74538e-05 -0.00387114 -0.006451085 -0.00931108 -0.002680543 -0.002322271 -0.01018606 -0.003217767 -0.003485039 0.005238731 0.004975563 -0.001454375 0.005291795 0.004577355 -0.001854928 -0.003049318 -0.004249921 -0.001272496 -0.001012089 -0.004679381 -0.001303788 -0.001452932 0.002491515 0.002321028 -0.0007141372 0.002685155 0.002162896 -0.0002828712 -0.0002188768 0.000549512 0.0002711018 0.0002778898 0.0002483746 0.000319399 0.0001489425 -0.0001407692 -8.370826e-05 0.0001815438 6.733521e-05 -7.607381e-05 -0.006241774 -0.01001967 -0.01316102 -0.003752588 -0.003025404 -0.01468867 -0.004226604 -0.005163985 0.00746957 0.007311856 -0.001923447 0.007980049 0.006613977 -0.00199972 -0.003068774 -0.003763312 -0.001091595 -0.0007952588 -0.0043378 -0.001011646 -0.00112566 0.002456289 0.00219554 -0.000596637 0.002705461 0.002066418 -0.0003995571 -0.0003351456 0.000676266 0.0004002168 0.0003585528 0.0002681376 0.0003296365 0.0001334419 -0.0001446383 -6.038331e-05 0.0002513396 0.0001159645 -5.746724e-05 -0.008924904 -0.01377543 -0.01641958 -0.004491601 -0.003426482 -0.01895923 -0.00475473 -0.006215883 0.009940441 0.009856584 -0.002114063 0.01082159 0.008829155 -0.00215137 -0.003104646 -0.003269575 -0.0008311018 -0.0005826178 -0.003993539 -0.0008020705 -0.000848017 0.002478249 0.002115947 -0.0004196115 0.002770623 0.0019958 -0.000484847 -0.0004397252 0.0007472034 0.0005080442 0.000419793 0.0002552884 0.0003145811 8.136504e-05 -0.0001764434 -4.782921e-05 0.0003057094 0.0001658433 -5.292171e-05 -0.01190578 -0.01768715 -0.0191384 -0.004882837 -0.003661621 -0.02292697 -0.005206075 -0.007192791 0.01239774 0.01217711 -0.002103962 0.01358771 0.01076886 -0.002288387 -0.003144448 -0.002813401 -0.0005453525 -0.0003610077 -0.003703843 -0.0006146402 -0.0005483356 0.002549064 0.002033879 -0.0002040003 0.002877347 0.001913376 -0.0005483221 -0.0005380919 0.0007870407 0.0005956757 0.0004772173 0.0002242739 0.000334341 3.261628e-05 -0.0002453132 -4.802863e-05 0.0003274208 0.0002038745 -4.416752e-05 ]
<!EndOfComponent> 
<Rescale> 429 429 
<LearnRateCoef> 0  [ 0.06971487 0.05079975 0.0744037 0.06130106 0.06110227 0.06655349 0.0659884 0.0653424 0.07276677 0.07330126 0.08398917 0.08770221 0.09752543 0.4732754 0.3704324 0.3972082 0.4055624 0.3554579 0.3617322 0.353795 0.3381069 0.3514497 0.3581417 0.3823713 0.4021665 0.4349531 1.339381 1.120034 1.007192 1.068551 0.9223163 0.9167885 0.8897022 0.8459577 0.8655628 0.8799213 0.9182872 0.9655789 1.034629 0.06974158 0.05080722 0.07440351 0.06129998 0.06109882 0.06654221 0.06598404 0.06533344 0.07276328 0.07330106 0.08398321 0.08769801 0.09752331 0.4732682 0.3704228 0.3971871 0.4055343 0.3554309 0.361694 0.3537627 0.3380627 0.351398 0.3580865 0.3823052 0.4021102 0.4348874 1.339373 1.119971 1.007089 1.068338 0.9220701 0.9164718 0.8893933 0.8456174 0.8651637 0.8795047 0.91781 0.9650586 1.034054 0.0697656 0.05081419 0.07440308 0.06129986 0.06109544 0.0665318 0.0659795 0.06532523 0.07276006 0.07330158 0.08397827 0.08769353 0.09752256 0.4732614 0.3704134 0.39717 0.4055076 0.3554028 0.3616566 0.3537354 0.3380237 0.351353 0.3580306 0.3822442 0.4020597 0.4348207 1.339366 1.11991 1.006986 1.068139 0.9218226 0.9161516 0.8890546 0.8452657 0.8647434 0.8790843 0.9172881 0.9645208 1.033473 0.06978715 0.05082073 0.07440282 0.06130072 0.0610917 0.06652164 0.06597544 0.0653184 0.07275753 0.07330196 0.08397472 0.08769049 0.09752227 0.4732548 0.3704037 0.3971566 0.405483 0.3553754 0.361624 0.3537055 0.3379877 0.3513057 0.3579761 0.3821795 0.4020079 0.4347644 1.339367 1.119872 1.006914 1.068003 0.9216347 0.9159063 0.8887882 0.8450015 0.8644226 0.8787516 0.9168763 0.9640947 1.033 0.06980618 0.05082674 0.07440265 0.06130201 0.06108791 0.06651223 0.06597158 0.06531192 0.07275566 0.07330228 0.08397058 0.08768758 0.09752367 0.4732508 0.3703964 0.3971463 0.4054658 0.3553481 0.3615872 0.3536642 0.3379457 0.3512488 0.3579157 0.3820972 0.4019397 0.4346994 1.339383 1.119874 1.00691 1.06798 0.9215723 0.9158274 0.8887143 0.8449132 0.8643119 0.8786293 0.916728 0.9639516 1.03282 0.06982283 0.05083218 0.07440235 0.06130373 0.06108446 0.06650295 0.06596737 0.06530646 0.07275411 0.07330306 0.08396673 0.08768428 0.09752757 0.4732535 0.3703998 0.3971574 0.4054831 0.355353 0.3615896 0.3536707 0.3379498 0.351251 0.3579173 0.3820932 0.4019435 0.4347121 1.339403 1.11989 1.006938 1.068019 0.9215744 0.9158369 0.8887262 0.8449193 0.8643043 0.8786226 0.9167043 0.9639494 1.032826 0.06983948 0.05083763 0.07440206 0.06130546 0.061081 0.06649368 0.06596316 0.06530101 0.07275257 0.07330385 0.08396287 0.08768099 0.0975315 0.4732562 0.3704032 0.3971686 0.4055004 0.3553579 0.3615921 0.3536772 0.3379538 0.3512532 0.357919 0.3820892 0.4019473 0.4347247 1.339423 1.119906 1.006966 1.068058 0.9215766 0.9158466 0.8887383 0.8449255 0.8642968 0.8786159 0.9166806 0.9639472 1.032831 0.06985828 0.0508435 0.07440153 0.06130705 0.06107777 0.06648467 0.06595978 0.06529626 0.07275083 0.07330336 0.08396005 0.08767902 0.09753425 0.4732713 0.3704202 0.3972101 0.4055643 0.3553969 0.3616383 0.3537334 0.3380054 0.3513054 0.3579821 0.3821474 0.4020199 0.4348212 1.339445 1.119949 1.007029 1.068159 0.9216371 0.9159369 0.8888376 0.8450178 0.8643959 0.8787107 0.9168103 0.9641207 1.032997 0.06987957 0.05084999 0.07440074 0.06130838 0.06107554 0.06647641 0.06595689 0.06529119 0.07274852 0.07330383 0.08395774 0.08767677 0.09753501 0.4732932 0.3704421 0.39726 0.4056355 0.3554316 0.3616819 0.3537801 0.3380501 0.351349 0.3580323 0.3821885 0.4020735 0.4348938 1.339486 1.120061 1.007173 1.068417 0.9218455 0.9161862 0.889131 0.8452896 0.8647003 0.8790291 0.9172055 0.9645605 1.03345 0.06990349 0.05085675 0.07439962 0.06130923 0.06107408 0.06646854 0.06595468 0.0652876 0.07274617 0.0733045 0.08395506 0.08767369 0.09753639 0.4733166 0.3704693 0.3973168 0.4057085 0.3554659 0.3617257 0.3538256 0.3380918 0.3513938 0.3580792 0.3822487 0.402141 0.4349565 1.339546 1.120201 1.007352 1.068761 0.9221162 0.9165045 0.8894956 0.845651 0.8650855 0.8794515 0.917675 0.9650576 1.034031 0.0699299 0.05086373 0.07439819 0.06130955 0.06107276 0.06646091 0.0659516 0.06528342 0.07274357 0.0733044 0.08395173 0.08767092 0.09753714 0.4733419 0.3705021 0.3973799 0.4057869 0.3555105 0.3617695 0.3538732 0.3381401 0.3514459 0.358135 0.3823238 0.4022077 0.4350178 1.339606 1.12034 1.007536 1.069113 0.9223623 0.9168074 0.889832 0.8459795 0.8654289 0.8798356 0.9181008 0.9655276 1.034582 ]
<!EndOfComponent> 
</Nnet> 
